tree
version=v4
num_class=1
num_tree_per_iteration=1
label_index=0
max_feature_idx=11
objective=mape
feature_names=vehicle_count lag_1 lag_2 lag_3 lag_4 lag_96 rolling_mean_1h rolling_mean_4h hour day_of_week is_weekend is_holiday
feature_infos=[1:317] [1:317] [1:317] [1:317] [1:317] [1:317] [7.25:202] [10.9375:166] [0:23] [0:6] [0:1] none
tree_sizes=4972 5703 5810 5782 5845 5836 5853 5865 5876 5873 5857 5825 5886 5906 5894 5896 5913 5905 5953 5978 5990 5980 5986 5983 5976 5987 5974 5974 5972 5976 5973 6001 5970 5994 5982 5984 5986 5945 5990 5982 5992 5982 5987 5999 6004 5996 6007 5999 5983 5953 5949 5953 5922 5995 5967 6023 5959 6020 5996 6002 5999 6009 6005 5993 6012 6024 6020 6025 5981 6011 5996 6005 5987 5969 6013 6014 5986 6025 6004 5945 5951 5998 6015 5981 5995 5972 5929 5989 6023 5968 5999 5963 5926 5996 5963 5997 5926 5959 5993 5909 5916 5958 5913 5894 5925 5986 5920 5916 5948 5938 5915 5948 5917 5954 5940 5923 5919 5941 5965 5886 5873 5903 5890 5951 5902 5954 5966 5959 5942 5950 5813 5919 5845 5934 5936 5889 5970 5945 5835 5982 5837 5970 5750 5759 5933 5768 5852 5950 5801 5872 5741 5873 5878 5781 5774 5858 5848 5914 5795 5748 5751 5755 5752 5921 5764 5927 5882 5763 5739 5933 5895 5802 5782 5762 5770 5813 5912 5779 5748 5840 5811 5778 5756 5709 5767 5807 5711 5800 5908 5858 5885 5772 5836 5798 5777 5894 5860 5712 5730 5791 5648 5763 5767 5685 5678 5666 5763 5859 5941 5749 5749 5683 5756 5707 5757 5777 5884 5787 5739 5711 5713 5741 5775 5749 5714 5733 5765 5690 5786 5718 5713 5900 5796 5763 5851 5721 5733 5709 5766 5743 5924 5725 5839 5734 5717 5744 5742 5754 5798 5830 5774 5869 5839 5634 5775 5765 5722 5909 5781 5813 5812 5765 5754 5724 5732 5712 5721 5740 5752 5749 5861 5903 5700 5742 5723 5705 5719 5721 5785 5718 5735 5817 5917 5701 5694 5648 5731 5772 5753 5832 5814 5743 5764 5794 5750 5738 5757 5701 5745 5700 5714 5662 5714 5702 5722 5712 5703 5751 5733 5713 5762 5713 5716 5720 5753 5681 5691 5690 5682 5705 5700 5701 5702 5722 5733 5775 5698 5795 5760 5792 5840 5678 5735 5751 5771 5823 5845 5864 5674 5690 5742 5804 5833 5666 5680 5871 5776 5725 5767 5715 5768 5736 5783 5846 5772 5683 5675 5692 5679 5800 5683 5678 5768 5815 5731 5755 5779 5790 5763 5752 5831 5671 5697 5714 5694 5751 5766 5657 5721 5655 5666 5701 5673 5706 5698 5704 5693 5779 5729 5697 5668 5686 5733 5734 5664 5702 5722 5695 5660 5695

Tree=0
num_leaves=63
num_cat=0
split_feature=6 10 6 7 6 7 3 4 6 7 7 3 8 7 10 8 8 7 8 0 4 7 7 7 8 8 0 7 4 8 8 8 7 8 9 4 7 8 8 8 7 7 10 10 7 10 8 7 8 4 8 9 8 7 4 7 8 2 7 5 8 5
split_gain=25.4749 5.36819 2.88498 2.72006 1.91935 1.88987 2.84706 2.13511 1.70264 1.278 1.04144 1.00615 0.997658 2.38995 1.25338 0.855247 0.778951 0.627197 0.630121 0.588724 0.573151 0.484728 0.400157 0.499992 0.499559 0.383488 0.562431 0.519522 0.454133 0.369259 0.361662 1.0357 0.289681 0.283649 0.528942 0.450872 0.279079 0.264583 0.258983 0.24492 0.397417 0.272561 0.243655 0.235663 0.224108 0.223744 0.196232 0.20981 0.199521 0.195964 0.190121 0.372681 0.186143 0.177531 0.169228 0.16911 0.716632 0.166359 0.161785 0.154593 0.154397 0.151375
threshold=17.125000000000004 1.0000000180025095e-35 78.125000000000014 42.843750000000007 21.375000000000004 93.156250000000014 35.500000000000007 76.500000000000014 15.375000000000002 16.843750000000004 17.343750000000004 77.500000000000014 5.5000000000000009 19.656250000000004 1.0000000180025095e-35 5.5000000000000009 12.500000000000002 16.468750000000004 1.5000000000000002 34.500000000000007 15.500000000000002 16.656250000000004 16.281250000000004 21.468750000000004 5.5000000000000009 21.500000000000004 33.500000000000007 48.781250000000007 36.500000000000007 8.5000000000000018 12.500000000000002 13.500000000000002 59.906250000000007 22.500000000000004 4.5000000000000009 28.500000000000004 23.218750000000004 12.500000000000002 20.500000000000004 5.5000000000000009 19.406250000000004 15.968750000000002 1.0000000180025095e-35 1.0000000180025095e-35 59.531250000000007 1.0000000180025095e-35 20.500000000000004 90.656250000000014 17.500000000000004 54.500000000000007 8.5000000000000018 4.5000000000000009 12.500000000000002 56.156250000000007 13.500000000000002 61.781250000000007 20.500000000000004 84.500000000000014 16.843750000000004 18.500000000000004 8.5000000000000018 41.500000000000007
decision_type=2 2 2 2 2 2 2 2 2 2 2 2 2 2 2 2 2 2 2 2 2 2 2 2 2 2 2 2 2 2 2 2 2 2 2 2 2 2 2 2 2 2 2 2 2 2 2 2 2 2 2 2 2 2 2 2 2 2 2 2 2 2
left_child=8 2 3 9 10 6 -5 29 12 15 37 57 17 14 30 -2 21 -1 -19 36 39 -16 24 -24 -22 50 28 -28 -27 -8 -14 -32 43 34 -12 -35 -11 -3 -7 41 42 -10 -41 -15 49 -26 48 -48 -4 -25 51 -6 58 -42 -38 -31 -57 60 -44 -43 -9 -40
right_child=1 4 46 5 25 38 7 11 20 19 33 -13 13 32 16 -17 -18 18 -20 -21 22 -23 23 44 45 26 27 -29 -30 55 31 -33 -34 35 -36 -37 54 -39 61 40 53 59 52 -45 -46 -47 47 -49 -50 -51 -52 -53 -54 -55 -56 56 -58 -59 -60 -61 -62 -63
leaf_value=16.91 16.91 16.91 17.239999999999998 17 17 18.59 18.559999999999999 18.649999999999999 16.91 17.030000000000001 17 17 18.59 16.91 16.91 17.93 17.870000000000001 16.91 16.969999999999999 18.710000000000001 16.879999999999999 17 17 16.940000000000001 18.32 17 16.91 17.030000000000001 17.120000000000001 16.879999999999999 16.91 20.09 16.969999999999999 16.91 17.059999999999999 17.120000000000001 16.940000000000001 17.84 17 17.059999999999999 16.91 16.91 16.91 17.030000000000001 17 16.91 16.879999999999999 17 18.890000000000001 16.91 17.989999999999998 17.149999999999999 17.84 17 17 17.030000000000001 16.91 17 17 16.969999999999999 16.91 16.940000000000001
leaf_weight=6239 1241 1064 17701 7018 569 2626 132 71 1352 13042 4473 2917 1485 5665 1729 721 285 2925 1176 7820 1004 288 3917 3074 497 600 442 580 1529 2932 630 1511 294 306 3431 164 823 112 402 1013 1465 1091 494 88 562 347 65 2561 11170 267 20239 5062 92 154 4805 413 2689 264 181 705 1546 252
leaf_count=6239 1241 1064 17701 7018 569 2626 132 71 1352 13042 4473 2917 1485 5665 1729 721 285 2925 1176 7820 1004 288 3917 3074 497 600 442 580 1529 2932 630 1511 294 306 3431 164 823 112 402 1013 1465 1091 494 88 562 347 65 2561 11170 267 20239 5062 92 154 4805 413 2689 264 181 705 1546 252
internal_value=17 17.0002 17 16.9999 17.0005 16.9996 16.9995 16.9992 16.9993 17.0001 17.0001 16.9997 16.9991 16.9993 16.9997 16.9993 16.9992 16.9989 16.9992 17.0001 16.9995 16.999 16.9997 16.9998 16.9993 17.0006 17.0003 16.9997 17.0005 16.9988 17.0001 16.9998 16.9989 17.0002 17.0003 16.9995 17 16.9993 17.0003 16.9993 16.9995 16.9991 16.9998 16.9988 16.9995 16.9998 17.0003 17 17.0003 16.9994 17.0006 17.0008 16.9994 16.9991 16.9999 16.9988 16.999 16.9991 16.9992 16.9994 16.999 16.9998
internal_weight=158312 119782 81211 49714 38571 21262 17982 10964 38530 28452 9550 4798 22315 11975 5928 1962 2302 10340 4101 26490 16215 2017 9668 7820 1848 29021 3151 1022 2129 6166 3626 2141 6047 8374 7904 470 18670 1176 3280 6547 3399 3148 1780 5753 3903 844 31497 2626 28871 3341 25870 5631 767 1619 5628 6034 3102 1881 675 1796 1617 654
internal_count=158312 119782 81211 49714 38571 21262 17982 10964 38530 28452 9550 4798 22315 11975 5928 1962 2302 10340 4101 26490 16215 2017 9668 7820 1848 29021 3151 1022 2129 6166 3626 2141 6047 8374 7904 470 18670 1176 3280 6547 3399 3148 1780 5753 3903 844 31497 2626 28871 3341 25870 5631 767 1619 5628 6034 3102 1881 675 1796 1617 654
is_linear=0
shrinkage=1


Tree=1
num_leaves=63
num_cat=0
split_feature=6 10 6 6 7 7 3 4 6 8 8 7 10 7 7 8 3 8 7 8 7 7 7 8 7 8 8 0 8 8 7 10 8 9 9 4 5 10 8 8 8 7 8 8 7 8 8 8 7 7 7 8 7 3 4 3 8 8 7 4 8 9
split_gain=19.4969 5.05269 2.52891 2.07425 1.93632 1.6356 2.27214 1.75066 1.57646 1.15592 0.885071 2.18125 1.09153 0.838079 0.779674 0.764605 0.717582 0.68353 0.665768 0.749541 0.589318 0.505256 0.493244 0.489845 0.468421 0.40778 0.395839 0.590456 0.358631 0.975348 0.335751 0.284062 0.2708 0.389248 0.387266 0.263498 0.263299 0.24081 0.219185 0.210371 0.20538 0.19774 0.191365 0.262341 0.228987 0.185067 0.184396 0.182686 0.170688 0.153103 0.1479 0.482074 0.137532 0.129559 0.115602 0.114524 0.114133 0.339973 0.112751 0.112534 0.110558 0.110465
threshold=17.625000000000004 1.0000000180025095e-35 77.375000000000014 15.875000000000002 41.781250000000007 93.156250000000014 35.500000000000007 76.500000000000014 22.375000000000004 5.5000000000000009 5.5000000000000009 19.656250000000004 1.0000000180025095e-35 16.468750000000004 17.031250000000004 12.500000000000002 74.500000000000014 1.5000000000000002 16.281250000000004 5.5000000000000009 16.656250000000004 17.468750000000004 59.531250000000007 8.5000000000000018 20.968750000000004 8.5000000000000018 21.500000000000004 33.500000000000007 12.500000000000002 13.500000000000002 48.781250000000007 1.0000000180025095e-35 22.500000000000004 4.5000000000000009 4.5000000000000009 44.500000000000007 15.500000000000002 1.0000000180025095e-35 20.500000000000004 12.500000000000002 8.5000000000000018 21.968750000000004 20.500000000000004 17.500000000000004 90.656250000000014 8.5000000000000018 13.500000000000002 12.500000000000002 40.656250000000007 17.218750000000004 61.781250000000007 20.500000000000004 17.218750000000004 115.50000000000001 15.500000000000002 96.500000000000014 8.5000000000000018 14.500000000000002 21.718750000000004 78.500000000000014 11.500000000000002 5.5000000000000009
decision_type=2 2 2 2 2 2 2 2 2 2 2 2 2 2 2 2 2 2 2 2 2 2 2 2 2 2 2 2 2 2 2 2 2 2 2 2 2 2 2 2 2 2 2 2 2 2 2 2 2 2 2 2 2 2 2 2 2 2 2 2 2 2
left_child=3 2 4 10 9 6 -6 23 21 14 13 12 28 -1 -2 20 45 48 19 -5 -14 47 37 -8 49 -11 40 35 -12 -30 -29 -21 33 -23 -34 -28 -26 -13 -7 -33 41 -10 43 56 -44 -9 60 -3 -15 -20 -25 -52 -19 -46 -38 -53 -4 -58 -35 -40 -27 -56
right_child=1 8 42 18 5 38 7 16 26 25 11 22 15 17 -16 -17 -18 52 24 31 -22 32 -24 50 36 46 27 30 29 -31 -32 39 34 58 -36 -37 54 -39 59 -41 -42 -43 44 -45 53 -47 -48 -49 -50 -51 51 55 -54 -55 61 -57 57 -59 -60 -61 -62 -63
leaf_value=-0.087300000000000003 -0.087300000000000003 -0.057300000000000004 2.0327999999999999 -0.087300000000000003 0 1.5422999999999998 1.5086999999999999 1.6305000000000001 0.02550000000000004 1.6886999999999999 1.5422999999999998 -0.087300000000000003 -0.087300000000000003 -0.087300000000000003 -0.00090000000000003402 0.84389999999999998 0 -0.059099999999999965 -0.029999999999999999 1.0404 0.029999999999999999 0 0 -0.11639999999999996 -0.058200000000000036 -0.17130000000000001 0 -0.087300000000000003 -0.087300000000000003 2.9972999999999996 0.029099999999999966 -0.087300000000000003 0.11639999999999996 0.058200000000000036 -0.087300000000000003 0.14639999999999997 -0.057300000000000004 0.03179999999999996 -0.088200000000000028 0.78479999999999994 0.96030000000000015 0.17550000000000004 -0.11639999999999996 1.8332999999999999 0 -0.087300000000000003 3.5486999999999997 0.8448 0.0017999999999999616 0 0.029099999999999966 -0.087300000000000003 0.00090000000000003402 -0.12 0 0.032699999999999993 -0.007199999999999953 3.4727999999999999 0.11550000000000003 0 0 -0.058200000000000036
leaf_weight=7221 941 861 3153 1922 6441 2548 207 106 584 7654 1742 6676 2027 3355 10120 355 3264 550 1237 984 450 4292 462 2937 2085 31 715 442 749 1803 580 590 160 2233 393 1275 1322 122 210 90 19980 3913 84 11249 2528 1418 3678 109 192 5105 407 2628 1116 67 2262 48 2549 12190 1863 415 2776 846
leaf_count=7221 941 861 3153 1922 6441 2548 207 106 584 7654 1742 6676 2027 3355 10120 355 3264 550 1237 984 450 4292 462 2937 2085 31 715 442 749 1803 580 590 160 2233 393 1275 1322 122 210 90 19980 3913 84 11249 2528 1418 3678 109 192 5105 407 2628 1116 67 2262 48 2549 12190 1863 415 2776 846
internal_value=-2.81553e-05 0.000176002 3.80239e-05 -0.000571068 -0.000104635 -0.000320162 -0.000434052 -0.00069578 0.000462468 7.17971e-05 -0.000733719 -0.000573499 -0.000200635 -0.000919091 -0.000157922 -0.000657829 -0.000264468 -0.000629215 -0.000305771 -0.000667228 -0.000844443 0.000138093 -0.00093948 -0.00102742 -0.000204956 0.000251508 0.000579419 0.000254891 0.000100896 -0.00012562 -0.000331232 -0.000201091 0.000208645 0.000251037 -0.000434368 0.000555905 -0.000383615 -0.00100394 0.000306392 -0.000672605 0.000619354 0.000802525 0.00024349 0.000265797 8.47077e-07 -0.000801948 7.64769e-05 -0.000512225 -0.000864645 -2.14231e-05 -0.00107676 -0.000931625 -0.00012797 5.07483e-05 -0.000252775 -0.00107793 0.000194425 0.00015938 0.000460234 -0.000197053 -0.000106639 -0.000152827
internal_weight=158312 115049 77649 43263 45829 20629 17456 11015 37400 25200 26820 14386 7126 12434 11061 2832 4788 5213 16443 3586 2477 9911 7260 6227 12857 14139 27489 3012 4294 2552 1022 1664 8941 8388 553 1990 6515 6798 3173 680 24477 4497 31820 29141 2679 1524 6485 970 3547 6342 6020 3083 1666 2595 4430 2676 17892 14739 4096 625 2807 3108
internal_count=158312 115049 77649 43263 45829 20629 17456 11015 37400 25200 26820 14386 7126 12434 11061 2832 4788 5213 16443 3586 2477 9911 7260 6227 12857 14139 27489 3012 4294 2552 1022 1664 8941 8388 553 1990 6515 6798 3173 680 24477 4497 31820 29141 2679 1524 6485 970 3547 6342 6020 3083 1666 2595 4430 2676 17892 14739 4096 625 2807 3108
is_linear=0
shrinkage=0.03


Tree=2
num_leaves=63
num_cat=0
split_feature=6 10 6 6 7 7 3 4 8 7 6 7 8 7 10 8 3 7 8 8 8 8 0 4 4 7 8 8 7 8 7 8 8 7 7 8 7 8 7 8 7 7 8 8 4 9 8 8 7 7 8 10 8 7 10 5 7 7 7 7 8 8
split_gain=19.5536 4.75242 2.69172 2.04942 1.72534 1.57085 2.32253 1.77052 1.22912 1.22907 1.15759 0.889095 0.790539 1.93112 1.06279 0.683628 0.651769 0.627037 0.591428 0.576916 0.520157 0.393098 0.54854 0.371101 0.351657 0.335751 0.318968 0.863221 0.314771 0.311061 0.309878 0.274598 0.261569 0.369898 0.342603 0.241222 0.239448 0.307516 0.217197 0.580017 0.213558 0.211844 0.211359 0.191669 0.38126 0.373971 0.188868 0.261222 0.229574 0.18542 0.168986 0.166156 0.190234 0.18731 0.1645 0.154069 0.181088 0.150686 0.138667 0.137883 0.134172 0.128736
threshold=16.875000000000004 1.0000000180025095e-35 77.375000000000014 21.375000000000004 41.781250000000007 93.156250000000014 43.500000000000007 78.500000000000014 5.5000000000000009 16.843750000000004 15.375000000000002 17.031250000000004 5.5000000000000009 19.656250000000004 1.0000000180025095e-35 12.500000000000002 71.500000000000014 16.468750000000004 1.5000000000000002 8.5000000000000018 8.5000000000000018 21.500000000000004 33.500000000000007 36.500000000000007 18.500000000000004 48.781250000000007 12.500000000000002 13.500000000000002 59.906250000000007 13.500000000000002 16.656250000000004 12.500000000000002 5.5000000000000009 19.781250000000004 16.281250000000004 1.5000000000000002 21.718750000000004 8.5000000000000018 61.781250000000007 20.500000000000004 16.281250000000004 56.156250000000007 20.500000000000004 22.500000000000004 28.500000000000004 4.5000000000000009 20.500000000000004 17.500000000000004 90.656250000000014 21.468750000000004 5.5000000000000009 1.0000000180025095e-35 12.500000000000002 15.718750000000002 1.0000000180025095e-35 50.500000000000007 74.343750000000014 16.468750000000004 40.656250000000007 40.656250000000007 11.500000000000002 8.5000000000000018
decision_type=2 2 2 2 2 2 2 2 2 2 2 2 2 2 2 2 2 2 2 2 2 2 2 2 2 2 2 2 2 2 2 2 2 2 2 2 2 2 2 2 2 2 2 2 2 2 2 2 2 2 2 2 2 2 2 2 2 2 2 2 2 2
left_child=10 2 4 11 8 6 -6 20 9 -2 12 31 17 14 26 30 61 -1 58 -10 -8 36 23 59 32 -24 -14 -28 54 57 -16 -3 34 51 -12 -36 -5 -38 -22 -40 50 -35 -7 45 -45 -13 47 -4 -48 -42 -26 -34 53 -53 -15 56 -41 -21 -19 -23 -59 -9
right_child=1 3 46 21 5 42 7 16 19 -11 24 43 13 28 15 -17 -18 18 -20 29 38 22 25 -25 40 -27 27 -29 -30 -31 -32 -33 33 41 35 -37 37 -39 39 55 49 -43 -44 44 -46 -47 48 -49 -50 -51 -52 52 -54 -55 -56 -57 -58 60 -60 -61 -62 -63
leaf_value=-0.084681000000000034 -0.084681000000000034 -0.085580999999999963 0.20301600000000006 0.053754000000000059 0 1.4960309999999999 1.493439 1.5515849999999998 1.6380389999999998 -0.00087299999999999043 -0.084681000000000034 0 1.4960309999999999 -0.084681000000000034 -0.084681000000000034 0.81858299999999995 0 -0.084681000000000034 -0.029127000000000007 -0.14911199999999994 -0.11290800000000001 -0.087381000000000028 -0.084681000000000034 0.11200799999999997 -0.11378099999999999 0.028226999999999974 -0.084681000000000034 2.907381 -0.029099999999999966 3.4122389999999996 -0.00090000000000003402 0.819156 0.060819000000000005 -0.084681000000000034 -0.058200000000000036 -0.027327000000000046 0.17023500000000005 0.93149099999999996 0.028226999999999974 -0.084681000000000034 0 0.0017459999999999809 -0.027353999999999982 -0.084681000000000034 0.11290800000000001 0.058200000000000036 -0.11290800000000001 1.7783009999999999 0 -0.054681000000000028 -0.054681000000000028 -0.084681000000000034 0.82125599999999999 -0.024681000000000033 0.028145999999999949 -0.11468100000000003 -0.054681000000000028 -0.13616100000000006 0.0026460000000000151 0 -0.00090000000000003402 -0.084681000000000034
leaf_weight=6239 1491 1029 17892 1990 7849 2548 224 60 8092 12027 1870 4980 1485 5665 1729 285 3255 2782 1176 89 3111 107 442 1529 376 580 630 1511 294 4124 288 117 1412 1929 1269 1143 4531 19349 506 849 2014 252 625 314 173 3569 84 11249 2595 2131 305 444 136 481 88 1347 715 41 143 493 3422 837
leaf_count=6239 1491 1029 17892 1990 7849 2548 224 60 8092 12027 1870 4980 1485 5665 1729 285 3255 2782 1176 89 3111 107 442 1529 376 580 630 1511 294 4124 288 117 1412 1929 1269 1143 4531 19349 506 849 2014 252 625 314 173 3569 84 11249 2595 2131 305 444 136 481 88 1347 715 41 143 493 3422 837
internal_value=-2.54147e-05 0.000155717 2.71832e-05 0.000427952 -0.000107458 -0.000308702 -0.000413152 -0.000696409 4.32108e-05 -0.000166693 -0.00063912 6.17536e-05 -0.000772572 -0.000606649 -0.000221876 -0.000726016 -0.000208919 -0.000964731 -0.00067658 0.000223163 -0.000996181 0.000556433 0.000240067 0.000514312 -0.000422729 -0.000331232 9.81815e-05 -0.000136153 -0.000983849 3.68471e-05 -0.00092035 -0.000725428 -0.000534174 -0.000378487 -0.000703386 -0.000467107 0.000594967 0.000621314 -0.00104496 -0.000879843 -0.000216372 -0.000663283 0.000308617 0.000161589 -0.00041731 0.000194566 0.000243878 0.000266039 2.82323e-06 -0.000135482 -0.000708722 -0.000127319 -0.000410997 -0.000565027 -0.00103278 -0.0010428 -0.000840254 -0.000168931 -0.000905018 -0.000117965 -0.000137606 -0.000924928
internal_weight=158312 122235 83032 39203 51212 21926 18753 10904 29286 13518 36077 10182 22315 11975 5928 2302 4152 10340 4101 15768 6752 29021 3151 2129 13762 1022 3626 2141 6047 7676 2017 1146 8936 4654 4282 2412 25870 23880 6528 3417 4826 2181 3173 9036 487 8549 31820 29141 2679 4145 681 2473 1061 925 5753 2911 1564 3552 2925 600 3463 897
internal_count=158312 122235 83032 39203 51212 21926 18753 10904 29286 13518 36077 10182 22315 11975 5928 2302 4152 10340 4101 15768 6752 29021 3151 2129 13762 1022 3626 2141 6047 7676 2017 1146 8936 4654 4282 2412 25870 23880 6528 3417 4826 2181 3173 9036 487 8549 31820 29141 2679 4145 681 2473 1061 925 5753 2911 1564 3552 2925 600 3463 897
is_linear=0
shrinkage=0.03


Tree=3
num_leaves=63
num_cat=0
split_feature=6 10 6 6 7 7 3 4 8 7 6 7 8 7 10 3 8 7 8 8 8 4 8 0 7 7 7 8 8 8 8 7 7 9 8 4 8 8 7 7 8 4 4 8 8 7 10 8 7 8 5 8 8 8 7 5 7 7 7 8 10 7
split_gain=19.4206 4.44322 2.56859 2.02811 1.82044 1.69208 2.30955 1.81391 1.30366 1.2485 1.21253 0.905567 0.789486 1.92868 1.06075 0.720384 0.683628 0.627037 0.591428 0.509065 0.474504 0.398744 0.342095 0.59756 0.335751 0.32598 0.345938 0.337186 0.316827 0.863221 0.315365 0.314771 0.309878 0.273393 0.80178 0.252763 0.247146 0.234874 0.231272 0.196669 0.189037 0.193648 0.18628 0.171475 0.258069 0.190955 0.1645 0.158217 0.150988 0.478998 0.150667 0.147584 0.145891 0.287672 0.18904 0.150953 0.140428 0.138667 0.12999 0.208057 0.128333 0.123991
threshold=16.875000000000004 1.0000000180025095e-35 78.125000000000014 22.375000000000004 41.781250000000007 93.156250000000014 46.500000000000007 76.500000000000014 5.5000000000000009 16.843750000000004 15.375000000000002 17.031250000000004 5.5000000000000009 19.656250000000004 1.0000000180025095e-35 74.500000000000014 12.500000000000002 16.468750000000004 1.5000000000000002 8.5000000000000018 8.5000000000000018 15.500000000000002 21.500000000000004 33.500000000000007 48.781250000000007 16.281250000000004 21.468750000000004 5.5000000000000009 12.500000000000002 13.500000000000002 12.500000000000002 59.906250000000007 16.656250000000004 4.5000000000000009 22.500000000000004 44.500000000000007 12.500000000000002 8.5000000000000018 21.968750000000004 59.531250000000007 13.500000000000002 13.500000000000002 64.500000000000014 20.500000000000004 17.500000000000004 90.656250000000014 1.0000000180025095e-35 20.500000000000004 61.781250000000007 20.500000000000004 41.500000000000007 8.5000000000000018 5.5000000000000009 6.5000000000000009 15.968750000000002 19.500000000000004 38.781250000000007 40.656250000000007 18.718750000000004 13.500000000000002 1.0000000180025095e-35 45.093750000000007
decision_type=2 2 2 2 2 2 2 2 2 2 2 2 2 2 2 2 2 2 2 2 2 2 2 2 2 2 2 2 2 2 2 2 2 2 2 2 2 2 2 2 2 2 2 2 2 2 2 2 2 2 2 2 2 2 2 2 2 2 2 2 2 2
left_child=10 2 4 11 8 6 -6 19 9 -2 12 30 17 14 28 51 32 -1 57 -8 -10 52 37 35 -25 27 -27 -23 -14 -30 -3 46 -16 36 -35 -24 -13 38 -5 42 41 -22 -28 44 -4 -45 -15 -7 -21 -50 -49 -9 54 -54 -12 -56 -42 -19 59 -55 -29 -36
right_child=1 3 43 22 5 47 7 15 20 -11 21 33 13 31 16 -17 -18 18 -20 48 40 25 23 24 -26 26 39 60 29 -31 -32 -33 -34 34 61 -37 -38 -39 -40 -41 56 -43 -44 45 -46 -47 -48 50 49 -51 -52 -53 53 58 55 -57 -58 -59 -60 -61 -62 -63
leaf_value=-0.082140570000000038 -0.082140570000000038 -0.083013569999999925 0.22692552000000002 0.02312237999999997 0 1.45115007 1.44863583 1.5050374499999999 1.5888978300000001 -0.00084681000000003332 -0.082140570000000038 0 1.45115007 -0.082140570000000038 -0.082140570000000038 0 0.79402550999999988 -0.082140570000000038 -0.028253190000000039 -0.10952075999999998 -0.058172999999999996 -0.081240569999999998 0.0026214300000000179 -0.082140570000000038 0.02738018999999994 0 -0.053940570000000104 1.18865643 -0.082140570000000038 2.8201595699999999 0.76668132 -0.028226999999999974 -0.00087299999999999043 0.082141380000000014 -0.082140570000000038 0.13864775999999998 0.34952075999999999 0.90354626999999998 0.16512795 0.0016936199999999602 3.3902718300000001 2.7000000000043655e-05 -0.11304057000000006 -0.10952075999999998 1.72495197 0 0.027301619999999964 0.0034666199999999845 0.02738018999999994 -0.083040570000000063 -0.057379380000000063 -0.082140570000000038 0.18785942999999997 -0.060159570000000002 -0.08293500000000005 -0.027353999999999982 -0.23882816999999998 0.0025666200000000572 -0.082140570000000038 2.9964564300000003 -0.082140570000000038 0.032618999999999967
leaf_weight=6239 1491 1035 17701 584 7889 2626 208 83 8164 12027 1228 5063 1485 5665 1729 3315 285 2782 1176 2919 634 904 715 442 580 3123 2661 447 630 1511 135 294 288 4502 379 1275 556 19980 3913 468 4115 2918 171 65 11170 2561 88 402 401 2671 252 1395 466 711 1016 494 25 143 1418 352 303 44
leaf_count=6239 1491 1035 17701 584 7889 2626 208 83 8164 12027 1228 5063 1485 5665 1729 3315 285 2782 1176 2919 634 904 715 442 580 3123 2661 447 630 1511 135 294 288 4502 379 1275 556 19980 3913 468 4115 2918 171 65 11170 2561 88 402 401 2671 252 1395 466 711 1016 494 25 143 1418 352 303 44
internal_value=-2.45027e-05 0.000156012 3.17298e-05 0.000419242 -9.87159e-05 -0.000303995 -0.000413255 -0.000694345 5.61554e-05 -0.000160297 -0.000636118 8.86943e-05 -0.0007727 -0.000606887 -0.000222358 -0.000256069 -0.000726016 -0.000964731 -0.00067658 -0.00103322 0.000240691 -0.00041465 0.0005601 0.000258406 -0.000331232 -0.000279172 -0.000182458 -0.000654744 9.73936e-05 -0.000136153 -0.000703148 -0.000983849 -0.00092035 0.00017656 0.000339729 0.000561225 3.35437e-05 0.000597225 0.000793107 -0.000396639 7.16174e-05 -8.8943e-05 -0.000490787 0.000245163 0.000266274 1.3066e-05 -0.00103278 0.00032495 -0.00108387 -0.000937063 -9.25627e-05 -0.000806882 -0.000607131 -0.000460644 -0.000764799 -0.000540001 0.000209374 -0.000905018 -0.000589102 -0.000338298 -0.00018448 -0.000909029
internal_weight=158312 122235 83032 39203 51535 22161 18881 10992 29374 13518 36077 11714 22315 11975 5928 4793 2302 10340 4101 6199 15856 13762 27489 3012 1022 8077 6423 1654 3626 2141 1170 6047 2017 10544 4925 1990 5619 24477 4497 3300 7692 3552 2832 31497 28871 2626 5753 3280 5991 3072 654 1478 5685 2947 2738 1510 4140 2925 2481 1063 750 423
internal_count=158312 122235 83032 39203 51535 22161 18881 10992 29374 13518 36077 11714 22315 11975 5928 4793 2302 10340 4101 6199 15856 13762 27489 3012 1022 8077 6423 1654 3626 2141 1170 6047 2017 10544 4925 1990 5619 24477 4497 3300 7692 3552 2832 31497 28871 2626 5753 3280 5991 3072 654 1478 5685 2947 2738 1510 4140 2925 2481 1063 750 423
is_linear=0
shrinkage=0.03


Tree=4
num_leaves=63
num_cat=0
split_feature=6 10 6 6 7 7 3 4 8 7 6 7 8 7 10 3 8 7 8 8 8 8 7 8 7 5 0 7 10 8 8 8 7 7 9 8 7 8 8 8 7 4 8 7 8 8 7 10 8 5 8 7 8 8 8 7 7 4 4 7 7 8
split_gain=19.2951 4.28003 2.55363 1.95108 1.83338 1.68656 2.30515 1.8086 1.32146 1.2485 1.22683 0.904878 0.789486 1.92868 1.06075 0.720384 0.683628 0.627037 0.591428 0.508271 0.456516 0.44948 0.384621 0.769125 0.645993 0.384621 0.417485 0.355517 0.325871 0.316827 0.863221 0.315365 0.314771 0.309878 0.272115 0.80086 0.265165 0.247146 0.238276 0.214814 0.231272 0.204618 0.17302 0.174533 0.171357 0.257442 0.190955 0.1645 0.157588 0.150667 0.14958 0.148574 0.478998 0.147584 0.145016 0.140428 0.138667 0.132731 0.165646 0.123991 0.116431 0.197798
threshold=16.875000000000004 1.0000000180025095e-35 78.125000000000014 22.375000000000004 41.781250000000007 93.156250000000014 46.500000000000007 76.500000000000014 5.5000000000000009 16.843750000000004 15.375000000000002 17.031250000000004 5.5000000000000009 19.656250000000004 1.0000000180025095e-35 74.500000000000014 12.500000000000002 16.468750000000004 1.5000000000000002 8.5000000000000018 8.5000000000000018 20.500000000000004 16.281250000000004 5.5000000000000009 20.968750000000004 46.500000000000007 27.500000000000004 56.781250000000007 1.0000000180025095e-35 12.500000000000002 13.500000000000002 12.500000000000002 59.906250000000007 16.656250000000004 4.5000000000000009 22.500000000000004 53.593750000000007 12.500000000000002 12.500000000000002 8.5000000000000018 21.968750000000004 28.500000000000004 13.500000000000002 16.468750000000004 20.500000000000004 17.500000000000004 90.656250000000014 1.0000000180025095e-35 20.500000000000004 41.500000000000007 11.500000000000002 61.781250000000007 20.500000000000004 8.5000000000000018 2.5000000000000004 38.781250000000007 40.656250000000007 16.500000000000004 64.500000000000014 45.093750000000007 34.593750000000007 1.0000000180025095e-35
decision_type=2 2 2 2 2 2 2 2 2 2 2 2 2 2 2 2 2 2 2 2 2 2 2 2 2 2 2 2 2 2 2 2 2 2 2 2 2 2 2 2 2 2 2 2 2 2 2 2 2 2 2 2 2 2 2 2 2 2 2 2 2 2
left_child=10 2 4 11 8 6 -6 19 9 -2 12 31 17 14 29 53 33 -1 56 -8 -10 39 23 -12 54 26 41 57 -25 -14 -31 -3 47 -16 37 -36 -28 -13 -30 40 -5 -23 43 -22 45 -4 -46 -15 -7 -50 -45 -21 -53 -9 -24 -44 -19 -26 -59 -37 61 -11
right_child=1 3 44 21 5 48 7 15 20 60 22 34 13 32 16 -17 -18 18 -20 51 42 25 24 28 27 -27 36 -29 38 30 -32 -33 -34 -35 35 59 -38 -39 -40 -41 -42 -43 55 50 46 -47 -48 -49 49 -51 -52 52 -54 -55 -56 -57 -58 58 -60 -61 -62 -63
leaf_value=-0.079676352900000039 -0.079676352900000039 -0.080523162899999959 0.22011775439999998 0.022428708599999965 0 1.4076155679 1.4051767550999998 1.4598863265000002 1.5412308950999998 -0.059921405700000034 -0.079676352900000039 0 1.4076155679 -0.079676352900000039 -0.079676352900000039 0 0.77020474469999989 -0.079676352900000039 -0.027405594300000009 -0.10623513720000001 -0.14289344999999998 -0.027457212900000021 -0.053092140000000003 1.0201117370999999 -0.079676352900000039 0.18643988190000002 -0.060078642900000041 0.0015896213999999275 -0.080335782900000041 -0.079676352900000039 2.7355547829 0.74368088040000002 -0.02738018999999994 -0.00084681000000003332 0.07967713860000003 -0.079676352900000039 0.036439881900000019 0.33903513719999995 0.76665010710000003 0.93643988189999994 0.16017411150000005 0.08296111709999994 3.2885636750999998 -0.13207698000000001 -0.10623513720000001 1.6732034109 0 0.026482571399999981 0.0033626213999999521 -0.055657998600000057 -0.00087380999999997044 0.026558784299999978 -0.080549352900000024 -0.079676352900000039 0.0007992171000000425 -0.23166332489999994 0.0024896214000000682 -0.052322352900000056 -0.10964935290000009 0.031640429999999956 0.0017975942999999006 -0.0008214057000000707
leaf_weight=6239 1491 1035 17701 584 7889 2626 208 83 8164 514 2246 5063 1485 5665 1729 3315 285 2782 1176 2919 89 273 823 1096 2275 2158 999 744 652 630 1511 135 294 288 4502 379 550 556 102 18044 3913 968 4115 41 65 11170 2561 88 402 252 3422 401 2671 1395 3459 25 143 2261 104 44 1127 10386
leaf_count=6239 1491 1035 17701 584 7889 2626 208 83 8164 514 2246 5063 1485 5665 1729 3315 285 2782 1176 2919 89 273 823 1096 2275 2158 999 744 652 630 1511 135 294 288 4502 379 550 556 102 18044 3913 968 4115 41 65 11170 2561 88 402 252 3422 401 2671 1395 3459 25 143 2261 104 44 1127 10386
internal_value=-2.56789e-05 0.000154252 3.2273e-05 0.000412603 -9.77921e-05 -0.000303799 -0.000412881 -0.000693703 5.76286e-05 -0.000160297 -0.000635314 8.8393e-05 -0.0007727 -0.000606887 -0.000222358 -0.000256069 -0.000726016 -0.000964731 -0.00067658 -0.00103208 0.00024342 0.000550759 -0.000412544 -0.00065618 -0.000309303 0.000291837 5.92179e-05 -0.00052802 -0.000203221 9.73936e-05 -0.000136153 -0.000703148 -0.000983849 -0.00092035 0.000176225 0.000339013 -0.000269255 3.35437e-05 -0.000683262 0.000607596 0.000793107 0.000469214 7.75823e-05 -7.60257e-05 0.000245084 0.000266187 1.3066e-05 -0.00103278 0.000324118 -9.25627e-05 -4.23131e-05 -0.00108269 -0.000937063 -0.000806882 -3.42977e-05 0.000209374 -0.000905018 -0.000625637 -0.000468267 -0.000909029 -5.87841e-05 -8.87982e-05
internal_weight=158312 122235 83032 39203 51535 22161 18881 10992 29374 13518 36077 11714 22315 11975 5928 4793 2302 10340 4101 6199 15856 27489 13762 4096 9666 4948 2790 5384 1850 3626 2141 1170 6047 2017 10544 4925 1549 5619 754 22541 4497 1241 7692 3552 31497 28871 2626 5753 3280 654 3463 5991 3072 1478 4282 4140 2925 4640 2365 423 12027 10900
internal_count=158312 122235 83032 39203 51535 22161 18881 10992 29374 13518 36077 11714 22315 11975 5928 4793 2302 10340 4101 6199 15856 27489 13762 4096 9666 4948 2790 5384 1850 3626 2141 1170 6047 2017 10544 4925 1549 5619 754 22541 4497 1241 7692 3552 31497 28871 2626 5753 3280 654 3463 5991 3072 1478 4282 4140 2925 4640 2365 423 12027 10900
is_linear=0
shrinkage=0.03


Tree=5
num_leaves=63
num_cat=0
split_feature=6 10 6 6 7 7 3 4 8 7 6 7 8 7 10 3 8 7 8 8 8 7 8 7 8 7 5 0 7 8 7 8 8 7 10 9 8 8 8 7 8 8 7 8 8 7 3 10 8 5 8 7 8 8 7 4 4 8 7 7 3 3
split_gain=19.4481 4.28331 2.55438 1.99999 1.83039 1.68633 2.30457 1.80949 1.32156 1.24771 1.17646 0.895755 0.786725 1.92227 1.05543 0.719257 0.683628 0.627037 0.591428 0.508271 0.450881 0.385665 0.735937 0.601492 0.379316 0.355517 0.331319 0.490956 0.387682 0.315365 0.314771 0.31124 0.863221 0.309878 0.301867 0.28472 0.789274 0.238276 0.2215 0.231272 0.192712 0.174782 0.174533 0.171245 0.256841 0.190955 0.164794 0.1645 0.157588 0.150667 0.14958 0.148574 0.478998 0.139986 0.138667 0.132731 0.165646 0.128315 0.122622 0.115368 0.115205 0.114927
threshold=16.875000000000004 1.0000000180025095e-35 78.125000000000014 22.375000000000004 41.781250000000007 93.156250000000014 46.500000000000007 76.500000000000014 5.5000000000000009 16.843750000000004 15.375000000000002 17.031250000000004 5.5000000000000009 19.656250000000004 1.0000000180025095e-35 74.500000000000014 12.500000000000002 16.468750000000004 1.5000000000000002 8.5000000000000018 8.5000000000000018 16.281250000000004 5.5000000000000009 20.968750000000004 20.500000000000004 56.781250000000007 52.500000000000007 31.500000000000004 50.343750000000007 12.500000000000002 59.906250000000007 12.500000000000002 13.500000000000002 16.656250000000004 1.0000000180025095e-35 4.5000000000000009 22.500000000000004 12.500000000000002 8.5000000000000018 21.968750000000004 12.500000000000002 13.500000000000002 16.468750000000004 20.500000000000004 17.500000000000004 90.656250000000014 44.500000000000007 1.0000000180025095e-35 20.500000000000004 41.500000000000007 11.500000000000002 61.781250000000007 20.500000000000004 8.5000000000000018 40.656250000000007 16.500000000000004 64.500000000000014 1.5000000000000002 45.093750000000007 17.218750000000004 96.500000000000014 115.50000000000001
decision_type=2 2 2 2 2 2 2 2 2 2 2 2 2 2 2 2 2 2 2 2 2 2 2 2 2 2 2 2 2 2 2 2 2 2 2 2 2 2 2 2 2 2 2 2 2 2 2 2 2 2 2 2 2 2 2 2 2 2 2 2 2 2
left_child=10 2 4 11 8 6 -6 19 9 -2 12 29 17 14 31 53 33 -1 54 -8 -10 22 -12 57 38 55 27 46 -29 -3 47 -14 -33 -16 -24 40 -37 -36 39 -5 -13 42 -22 44 -4 -45 -26 -15 -7 -50 -44 -21 -53 -9 -19 -25 -57 -23 -38 -59 -54 -47
right_child=1 3 43 24 5 48 7 15 20 -11 21 35 13 30 16 -17 -18 18 -20 51 41 23 34 25 26 -27 -28 28 -30 -31 -32 32 -34 -35 37 36 58 -39 -40 -41 -42 -43 50 45 -46 61 -48 -49 49 -51 -52 52 60 -55 -56 56 -58 59 -60 -61 -62 -63
leaf_value=-0.07728606231299999 -0.07728606231299999 -0.078107468012999948 0.21351422176799995 0.021755847341999972 0 1.3653871008630001 1.3630214524469999 1.416089736705 1.4949939682469997 -0.00079676352900001743 -0.07728606231299999 0 1.3653871008630001 -0.07728606231299999 -0.07728606231299999 0 0.74709860235899994 -0.07728606231299999 -0.026583426471000031 -0.10304808308400006 -0.13860664649999999 -0.056661235800000008 0.98950838498699978 -0.07728606231299999 0.011999493687000004 0.001541932757999902 0.24889513074299993 -0.07787399361300007 0.025465587842999928 0.72137045398800004 -0.026558784299999978 -0.07728606231299999 2.6534881394130001 -0.0008214057000000707 -0.077925709413000019 0.077286824441999996 -0.07728606231299999 0.74365060388699999 0.90834668544300001 0.155368888155 0.32886408308399995 3.1095067648470001 -0.12811467059999998 -0.10304808308400006 1.6230073085729999 0 0.101999493687 0.025688094258000012 0.0032617427579999256 -0.053988258642000027 -0.00084759569999992123 0.025762020770999958 -0.078132872313000021 -0.07728606231299999 0.0024149327580001057 -0.050752682313000078 -0.10635987231300011 -0.051499375799999997 0.030691217099999973 0.0025164534870000211 0.038267127687000052 -0.11639999999999996
leaf_weight=6239 1491 1035 17701 584 7889 2626 208 83 8164 12027 2246 5063 1485 5665 1729 3315 285 2782 1176 2919 89 286 1096 2275 730 744 1736 758 890 135 294 630 1511 288 652 4502 379 102 18044 3913 556 4140 41 65 11170 2494 834 88 402 252 3422 401 2623 1395 143 2261 104 997 44 2999 48 67
leaf_count=6239 1491 1035 17701 584 7889 2626 208 83 8164 12027 2246 5063 1485 5665 1729 3315 285 2782 1176 2919 89 286 1096 2275 730 744 1736 758 890 135 294 630 1511 288 652 4502 379 102 18044 3913 556 4140 41 65 11170 2494 834 88 402 252 3422 401 2623 1395 143 2261 104 997 44 2999 48 67
internal_value=-2.64518e-05 0.000154191 3.21656e-05 0.000412641 -9.79186e-05 -0.000303758 -0.000412832 -0.000693619 5.73754e-05 -0.000160558 -0.000638501 8.43925e-05 -0.000773036 -0.000607514 -0.000223624 -0.000255877 -0.000726016 -0.000964731 -0.00067658 -0.00103208 0.000243174 -0.000420352 -0.000664318 -0.000316971 0.000552519 -0.00052802 0.000314663 0.000134188 -0.000227134 -0.000703148 -0.000983849 9.53252e-05 -0.000136153 -0.00092035 -0.00022124 0.000171781 0.000338296 -0.000683262 0.000604731 0.000793107 2.58317e-05 7.83624e-05 -7.60257e-05 0.000245008 0.000266104 1.3066e-05 0.000514916 -0.00103278 0.000324118 -9.25627e-05 -4.23131e-05 -0.00108269 -0.000937063 -0.000806259 -0.000905018 -0.000625637 -0.000468267 -5.16068e-05 -0.000900685 -7.67213e-06 -0.00108221 5.3822e-05
internal_weight=158312 122235 83032 39203 51535 22161 18881 10992 29374 13518 36077 11714 22315 11975 5928 4793 2302 10340 4101 6199 15856 13762 4096 9666 27489 5384 4948 3212 1648 1170 6047 3626 2141 2017 1850 10544 4925 754 22541 4497 5619 7692 3552 31497 28871 2626 1564 5753 3280 654 3463 5991 3072 1478 2925 4640 2365 4282 423 3996 2671 2561
internal_count=158312 122235 83032 39203 51535 22161 18881 10992 29374 13518 36077 11714 22315 11975 5928 4793 2302 10340 4101 6199 15856 13762 4096 9666 27489 5384 4948 3212 1648 1170 6047 3626 2141 2017 1850 10544 4925 754 22541 4497 5619 7692 3552 31497 28871 2626 1564 5753 3280 654 3463 5991 3072 1478 2925 4640 2365 4282 423 3996 2671 2561
is_linear=0
shrinkage=0.03


Tree=6
num_leaves=63
num_cat=0
split_feature=6 10 6 6 7 7 3 4 8 7 6 7 8 7 10 3 8 7 8 8 8 8 7 8 7 7 8 9 4 8 0 5 7 8 8 7 8 8 10 8 7 8 7 4 8 8 7 10 8 8 7 8 8 7 8 7 5 7 3 4 4 8
split_gain=19.1436 4.37082 2.28076 1.98032 1.81185 1.80611 2.29214 1.83172 1.32865 1.2485 1.17488 0.891039 0.786725 1.92227 1.05543 0.693227 0.683628 0.627037 0.591428 0.541896 0.453369 0.405868 0.398431 0.718931 0.609846 0.355517 0.318596 0.547199 0.320233 0.315365 0.314923 0.4578 0.314771 0.31124 0.863221 0.309878 0.296124 0.788308 0.289721 0.238276 0.236041 0.227625 0.231272 0.2044 0.181787 0.171771 0.174797 0.1645 0.16286 0.162065 0.155017 0.149749 0.148368 0.147695 0.48117 0.138667 0.133843 0.161187 0.133726 0.132731 0.165646 0.129706
threshold=16.875000000000004 1.0000000180025095e-35 79.625000000000014 22.375000000000004 41.781250000000007 93.156250000000014 46.500000000000007 76.500000000000014 5.5000000000000009 16.843750000000004 15.375000000000002 17.031250000000004 5.5000000000000009 19.656250000000004 1.0000000180025095e-35 74.500000000000014 12.500000000000002 16.468750000000004 1.5000000000000002 8.5000000000000018 8.5000000000000018 20.500000000000004 16.281250000000004 5.5000000000000009 20.968750000000004 56.781250000000007 22.500000000000004 4.5000000000000009 30.500000000000004 12.500000000000002 31.500000000000004 20.500000000000004 59.906250000000007 12.500000000000002 13.500000000000002 16.656250000000004 14.500000000000002 8.5000000000000018 1.0000000180025095e-35 12.500000000000002 47.281250000000007 8.5000000000000018 21.968750000000004 44.500000000000007 20.500000000000004 13.500000000000002 16.468750000000004 1.0000000180025095e-35 8.5000000000000018 20.500000000000004 38.781250000000007 11.500000000000002 17.500000000000004 61.781250000000007 20.500000000000004 40.656250000000007 54.500000000000007 54.593750000000007 116.50000000000001 16.500000000000004 64.500000000000014 12.500000000000002
decision_type=2 2 2 2 2 2 2 2 2 2 2 2 2 2 2 2 2 2 2 2 2 2 2 2 2 2 2 2 2 2 2 2 2 2 2 2 2 2 2 2 2 2 2 2 2 2 2 2 2 2 2 2 2 2 2 2 2 2 2 2 2 2
left_child=10 2 4 11 8 6 -6 19 9 -2 12 29 17 14 33 48 35 -1 55 -8 -10 41 23 -12 -24 59 27 61 -28 -3 43 40 47 -14 -35 -16 37 -4 -25 -40 -32 42 -5 -23 52 46 -22 -15 -9 -7 -47 -48 -38 -21 -55 -19 57 -33 -46 -26 -61 -13
right_child=1 3 36 21 5 49 7 15 20 -11 22 26 13 32 16 -17 -18 18 -20 53 45 30 24 38 25 -27 28 -29 -30 -31 31 56 -34 34 -36 -37 44 -39 39 -41 -42 -43 -44 -45 58 50 51 -49 -50 -51 -52 -53 -54 54 -56 -57 -58 -59 -60 60 -62 -63
leaf_value=-0.074967480443609985 -0.074967480443609985 -0.075764243972610001 1.9759087951149599 0.021103171921739976 0 1.32442548783711 1.3521308088735899 1.40360704460385 1.46299314919959 -0.00077286062313003607 -0.074967480443609985 0 1.32442548783711 -0.074967480443609985 -0.074967480443609985 0 0.7246856442882299 -0.074967480443609985 -0.025785923676870048 -0.099956640591480017 -0.13444844710499995 0.017412298776390001 -9.9470117609996579e-05 0.95982313343738979 -0.074967480443609985 0.0014956747752599498 -0.074967480443609985 0.074968219708739944 0.078998160591479974 0.69972934036835999 -0.075537773804610062 -0.049421539004610007 -0.025762020770999958 -0.074967480443609985 2.5738834952306102 -0.00079676352900001743 3.3427087951149597 -0.032891204885040076 -0.075587938130609975 0.72134108577039002 -0.0024028240482900998 0.88109628487971003 0.15070782151035 0.12583514593238995 0 3.0966215619015895 -0.12427123048200002 0.024917451430259981 -0.074967480443609985 -0.01972261088273999 -0.31799862809840995 -0.00082216782899987347 1.5743170893158098 0.024989160147869924 -0.075788886143610054 0.0023424847752600898 0.50337983152070997 0.060082717807709969 -0.17290800000000001 -0.049230101843610076 -0.10316907614361011 1.1094774005914798
leaf_weight=6239 1491 1035 2875 584 7894 2834 223 99 8285 12027 2246 5063 1485 5665 1729 3441 285 2782 1176 2940 89 697 4282 1096 2275 744 404 4502 198 135 392 513 294 630 1511 288 12135 2328 652 102 433 18044 3913 1281 2441 4154 41 88 1421 734 25 3422 10962 406 2698 143 1247 385 67 2261 104 377
leaf_count=6239 1491 1035 2875 584 7894 2834 223 99 8285 12027 2246 5063 1485 5665 1729 3441 285 2782 1176 2940 89 697 4282 1096 2275 744 404 4502 198 135 392 513 294 630 1511 288 12135 2328 652 102 433 18044 3913 1281 2441 4154 41 88 1421 734 25 3422 10962 406 2698 143 1247 385 67 2261 104 377
internal_value=-3.13526e-05 0.00014787 2.46048e-05 0.000408947 -9.61584e-05 -0.000297759 -0.000413376 -0.000688781 5.87244e-05 -0.000160297 -0.000638591 8.23168e-05 -0.000773036 -0.000607514 -0.000223624 -0.000258111 -0.000726016 -0.000964731 -0.00067658 -0.0010297 0.000243585 0.000548136 -0.000420589 -0.000668559 -0.00031551 -0.00052802 0.000169475 0.000210054 -0.000500684 -0.000703148 0.000302095 0.000106777 -0.000983849 9.53252e-05 -0.000136153 -0.00092035 0.000229316 2.29862e-05 -0.00023063 -0.000683262 -0.000493799 0.000602144 0.000793107 0.000595369 0.000271243 7.83513e-05 -7.50321e-05 -0.00103278 -0.000791685 0.000321869 0.000208722 -4.12939e-05 0.000297583 -0.00108329 -0.000938957 -0.000905018 0.000337768 5.85133e-05 2.86628e-05 -0.000625637 -0.000468267 7.58396e-06
internal_weight=158312 122235 83032 39203 52224 22690 19122 11228 29534 13518 36077 11714 22315 11975 5928 4961 2302 10340 4101 6267 16016 27489 13762 4096 9666 5384 10544 9942 602 1170 4948 2970 6047 3626 2141 2017 30808 5203 1850 754 825 22541 4497 1978 25605 7731 3552 5753 1520 3568 4179 3463 23097 6044 3104 2925 2145 898 2508 4640 2365 5440
internal_count=158312 122235 83032 39203 52224 22690 19122 11228 29534 13518 36077 11714 22315 11975 5928 4961 2302 10340 4101 6267 16016 27489 13762 4096 9666 5384 10544 9942 602 1170 4948 2970 6047 3626 2141 2017 30808 5203 1850 754 825 22541 4497 1978 25605 7731 3552 5753 1520 3568 4179 3463 23097 6044 3104 2925 2145 898 2508 4640 2365 5440
is_linear=0
shrinkage=0.03


Tree=7
num_leaves=63
num_cat=0
split_feature=6 10 6 7 6 7 3 4 8 7 6 7 8 7 10 8 3 7 8 8 8 8 7 8 7 7 8 8 8 9 4 8 7 7 8 8 5 8 10 7 8 7 8 7 8 3 8 7 10 8 5 7 7 5 8 8 7 8 4 4 8 8
split_gain=18.9439 4.05061 2.2773 1.83591 1.79506 1.56183 2.33371 1.72892 1.29363 1.2485 1.16733 0.900563 0.785091 1.91848 1.05228 0.683628 0.668055 0.627037 0.591428 0.495296 0.443882 0.422907 0.408604 0.701189 0.609846 0.355517 0.329754 0.941798 0.325395 0.603291 0.350031 0.319838 0.314771 0.309878 0.307952 0.863221 0.298363 0.359891 0.277165 0.245761 0.24297 0.249487 0.238276 0.216591 0.553545 0.171823 0.170024 0.174797 0.1645 0.163679 0.163095 0.186724 0.155016 0.153638 0.150893 0.149749 0.138667 0.136081 0.132731 0.165646 0.131593 0.598099
threshold=16.875000000000004 1.0000000180025095e-35 76.625000000000014 41.781250000000007 22.625000000000004 93.156250000000014 43.500000000000007 78.500000000000014 5.5000000000000009 16.843750000000004 15.375000000000002 17.031250000000004 5.5000000000000009 19.656250000000004 1.0000000180025095e-35 12.500000000000002 71.500000000000014 16.468750000000004 1.5000000000000002 8.5000000000000018 8.5000000000000018 20.500000000000004 16.281250000000004 5.5000000000000009 20.968750000000004 56.781250000000007 14.500000000000002 8.5000000000000018 22.500000000000004 4.5000000000000009 28.500000000000004 12.500000000000002 59.906250000000007 16.656250000000004 12.500000000000002 13.500000000000002 20.500000000000004 22.500000000000004 1.0000000180025095e-35 48.781250000000007 20.500000000000004 90.656250000000014 12.500000000000002 61.781250000000007 20.500000000000004 38.500000000000007 13.500000000000002 16.468750000000004 1.0000000180025095e-35 20.500000000000004 50.500000000000007 74.343750000000014 38.781250000000007 41.500000000000007 17.500000000000004 11.500000000000002 40.656250000000007 12.500000000000002 16.500000000000004 64.500000000000014 12.500000000000002 13.500000000000002
decision_type=2 2 2 2 2 2 2 2 2 2 2 2 2 2 2 2 2 2 2 2 2 2 2 2 2 2 2 2 2 2 2 2 2 2 2 2 2 2 2 2 2 2 2 2 2 2 2 2 2 2 2 2 2 2 2 2 2 2 2 2 2 2
left_child=10 2 3 8 11 6 -5 19 9 -2 12 31 17 14 34 33 -9 -1 56 -8 -10 -6 23 -12 -24 58 27 -4 29 57 -30 -3 48 -16 -14 -36 37 39 60 -23 54 -42 -40 -21 -45 -39 47 -22 -15 -7 51 -46 -48 -51 -28 -49 -19 -13 -26 -60 -25 -62
right_child=1 4 26 5 21 49 7 16 20 -11 22 28 13 32 15 -17 -18 18 -20 43 46 36 24 38 25 -27 40 -29 30 -31 -32 -33 -34 -35 35 -37 -38 45 42 -41 41 -43 -44 44 50 -47 52 55 -50 53 -52 -53 -54 -55 -56 -57 -58 -59 59 -61 61 -63
leaf_value=-0.072718456030301651 -0.072718456030301651 -0.073491316653431685 1.8566315312615109 0 0.61466339633331868 1.2546927232019967 1.2815668846073822 -0.072718456030301651 1.4062543547236022 -0.00074967480443614669 -0.072718456030301651 0 1.2846927232019967 -0.072718456030301651 -0.072718456030301651 0.70294507495958303 0 -0.072718456030301651 -0.025012345966563921 -0.096957941373735645 -0.13041499369184995 -0.073271640590471809 -9.6486014081662564e-05 1.3404443494342684 -0.072718456030301651 0.0014508045320021522 3.242427531261511 -0.031904468738488879 -0.072718456030301651 0.072719173117477748 0.076628215773735631 0.67693746015730916 -0.024989160147869924 -0.00077286062313003607 -0.072718456030301651 2.4966669903736913 0.086184266377848137 -0.00013728028690170645 -0.073320299986691664 0.02477370492915856 -0.099956640591480017 0 0.69970085319727826 0.024239485343433776 -0.072615219559301739 0.095164454498418358 3.0037229150445421 -0.12054309356753996 0.024169927887352217 0.0011095688017421779 -0.1017152195593017 -0.043515219559301772 -0.30845866925545767 -0.079130932556257749 1.5270875766363357 -0.00079750279412987618 0.0022722102320023294 1.0761930785737357 -0.047753198788301816 -0.10007400385930175 -0.22737956056573153 2.7561864394342686
leaf_weight=6239 1491 1035 3272 7848 22264 2455 213 887 8008 12027 2246 5123 1485 5665 1729 285 3203 2782 1176 3071 89 415 4282 464 2275 744 12217 2630 412 4714 222 137 294 288 630 1511 3311 352 652 370 114 2635 102 499 849 463 4072 41 88 376 1319 713 25 213 11343 3422 143 385 2261 104 137 495
leaf_count=6239 1491 1035 3272 7848 22264 2455 213 887 8008 12027 2246 5123 1485 5665 1729 285 3203 2782 1176 3071 89 415 4282 464 2275 744 12217 2630 412 4714 222 137 294 288 630 1511 3311 352 652 370 114 2635 102 499 849 463 4072 41 88 376 1319 713 25 213 11343 3422 143 385 2261 104 137 495
internal_value=-3.51605e-05 0.000143125 2.44607e-05 -0.00010062 0.000394457 -0.000309955 -0.000413039 -0.00070009 5.46937e-05 -0.000160297 -0.000639223 8.93237e-05 -0.000773235 -0.000607885 -0.000224373 -0.000726016 -0.000214545 -0.000964731 -0.00067658 -0.000998091 0.000240313 0.000529512 -0.000421922 -0.000673038 -0.00031551 -0.00052802 0.000221807 1.91472e-05 0.000174616 0.00021552 -0.000484885 -0.000700723 -0.000983849 -0.00092035 9.40995e-05 -0.000136153 0.000277527 -5.8852e-05 -0.000240547 -0.000517301 0.00026727 3.71556e-07 -0.000683262 -0.00104509 -0.000879393 0.000382722 7.68722e-05 -7.50321e-05 -0.00103278 0.000319997 -0.00103917 -0.00083175 0.00020857 -0.000129124 0.000298412 -4.12939e-05 -0.000905018 2.30701e-06 -0.000625637 -0.000468267 6.40217e-05 -0.000217643
internal_weight=158312 122235 83032 50821 39203 21646 18602 10754 29175 13518 36077 12028 22315 11975 5928 2302 4090 10340 4101 6664 15657 27175 13762 4096 9666 5384 32211 5902 10856 10222 634 1172 6047 2017 3626 2141 4911 1600 1850 785 26309 2749 754 6451 3380 815 7649 3552 5753 3044 2881 1562 4097 589 23560 3463 2925 5508 4640 2365 1096 632
internal_count=158312 122235 83032 50821 39203 21646 18602 10754 29175 13518 36077 12028 22315 11975 5928 2302 4090 10340 4101 6664 15657 27175 13762 4096 9666 5384 32211 5902 10856 10222 634 1172 6047 2017 3626 2141 4911 1600 1850 785 26309 2749 754 6451 3380 815 7649 3552 5753 3044 2881 1562 4097 589 23560 3463 2925 5508 4640 2365 1096 632
is_linear=0
shrinkage=0.03


Tree=8
num_leaves=63
num_cat=0
split_feature=6 10 6 7 6 7 3 4 8 7 6 7 8 7 10 8 3 7 8 8 8 8 7 8 7 7 8 8 8 7 8 9 4 5 0 7 7 8 8 10 8 7 8 4 7 8 8 7 10 8 5 7 7 8 7 5 8 7 9 4 4 8
split_gain=18.8769 3.94599 2.27739 1.8313 1.7527 1.55579 2.32521 1.7201 1.29434 1.2485 1.17073 0.891723 0.784304 1.91666 1.05077 0.683628 0.668055 0.627037 0.591428 0.493904 0.463114 0.437403 0.405422 0.706691 0.609846 0.355517 0.325857 0.933711 0.315365 0.314771 0.313362 0.547199 0.31035 0.309989 0.419072 0.355611 0.309878 0.306373 0.863221 0.281046 0.241787 0.244128 0.238276 0.231785 0.211221 0.553545 0.166665 0.175548 0.1645 0.163166 0.163095 0.186724 0.158561 0.15558 0.155016 0.153638 0.150543 0.138667 0.137609 0.132731 0.165646 0.129706
threshold=16.875000000000004 1.0000000180025095e-35 76.625000000000014 41.781250000000007 22.375000000000004 93.156250000000014 43.500000000000007 78.500000000000014 5.5000000000000009 16.843750000000004 15.375000000000002 17.031250000000004 5.5000000000000009 19.656250000000004 1.0000000180025095e-35 12.500000000000002 71.500000000000014 16.468750000000004 1.5000000000000002 8.5000000000000018 20.500000000000004 8.5000000000000018 16.281250000000004 5.5000000000000009 20.968750000000004 56.781250000000007 14.500000000000002 8.5000000000000018 12.500000000000002 59.906250000000007 22.500000000000004 4.5000000000000009 35.500000000000007 53.500000000000007 31.500000000000004 50.968750000000007 16.656250000000004 12.500000000000002 13.500000000000002 1.0000000180025095e-35 20.500000000000004 90.656250000000014 12.500000000000002 28.500000000000004 61.781250000000007 20.500000000000004 13.500000000000002 16.468750000000004 1.0000000180025095e-35 20.500000000000004 50.500000000000007 74.343750000000014 21.468750000000004 8.5000000000000018 38.781250000000007 41.500000000000007 17.500000000000004 40.656250000000007 4.5000000000000009 16.500000000000004 64.500000000000014 12.500000000000002
decision_type=2 2 2 2 2 2 2 2 2 2 2 2 2 2 2 2 2 2 2 2 2 2 2 2 2 2 2 2 2 2 2 2 2 2 2 2 2 2 2 2 2 2 2 2 2 2 2 2 2 2 2 2 2 2 2 2 2 2 2 2 2 2
left_child=10 2 3 8 11 6 -5 19 9 -2 12 28 17 14 37 36 -9 -1 57 -8 52 -10 23 -12 -24 59 27 -4 -3 48 31 61 -32 34 43 -36 -16 -14 -39 -25 56 -42 -41 -22 -21 -46 47 -23 -15 -7 51 -47 -6 58 -48 -51 -28 -19 -54 -26 -61 -13
right_child=1 4 26 5 20 49 7 16 21 -11 22 30 13 29 15 -17 -18 18 -20 44 33 46 24 39 25 -27 40 -29 -30 -31 32 -33 -34 -35 35 -37 -38 38 -40 42 41 -43 -44 -45 45 50 54 -49 -50 55 -52 -53 53 -55 -56 -57 -58 -59 -60 60 -62 -63
leaf_value=-0.070536902349392597 -0.070536902349392597 -0.071286577153828745 1.8009325853236657 0 0.036530174874088099 1.2170519415059367 1.2431198780691606 -0.070536902349392597 1.3640667240818942 -0.00072718456030308688 -0.070536902349392597 0 1.246151941505937 -0.070536902349392597 -0.070536902349392597 0.68185672271079556 0 -0.070536902349392597 -0.024261975587567049 -0.094049203132523615 -0.025334296605992641 -0.12650254388109441 -9.3591433659163665e-05 0.88993484625124031 -0.070536902349392597 0.0014072803960420899 3.1451547053236655 -0.030947334676334214 0.65842933635258993 -0.024239485343433776 -0.070536902349392597 0.070537597923953435 0.074329369300523598 0.26506769445140277 -0.071073491372757619 0.02403049378128376 -0.00074967480443614669 -0.070536902349392597 2.4217669806624804 -0.071120690987090951 -0.096957941373735645 0 0.67870982760135989 0.074304401821762872 0.023512300783130796 -0.070436762972522646 2.9136112275932056 -0.00077357771030602148 0.023444830050731617 0.0010762817376899392 -0.09866376297252262 -0.042209762972522671 -0.047753315024960087 0.83622349444331912 -0.29920490917779397 -0.076757004579570021 1.4812749493372455 0.002204043925042214 0.12774668497503994 -0.046320602824652717 -0.09707178374352271 1.0439072862165235
leaf_weight=6239 1491 1035 3272 7848 1129 2455 213 887 8008 12027 2246 5063 1485 5665 1729 285 3203 2782 1176 3071 355 89 4282 1096 2275 744 12217 2630 135 294 428 4502 174 1663 808 882 288 630 1511 652 114 2635 102 1240 499 849 4072 3463 88 376 1319 713 73 17428 25 213 11343 143 3911 2261 104 377
leaf_count=6239 1491 1035 3272 7848 1129 2455 213 887 8008 12027 2246 5063 1485 5665 1729 285 3203 2782 1176 3071 355 89 4282 1096 2275 744 12217 2630 135 294 428 4502 174 1663 808 882 288 630 1511 652 114 2635 102 1240 499 849 4072 3463 88 376 1319 713 73 17428 25 213 11343 143 3911 2261 104 377
internal_value=-3.61307e-05 0.000141839 2.47174e-05 -0.000100366 0.000389904 -0.000309438 -0.000412322 -0.00069885 5.47528e-05 -0.000160297 -0.000639124 8.26181e-05 -0.000773331 -0.000608064 -0.000224735 -0.000726016 -0.000214545 -0.000964731 -0.00067658 -0.000996091 0.000520849 0.000240423 -0.000421507 -0.000671643 -0.00031551 -0.00052802 0.000222067 2.0609e-05 -0.000703148 -0.000983849 0.00016981 0.000210054 -0.000494821 0.000258029 8.90793e-05 -0.000240102 -0.00092035 9.35085e-05 -0.000136153 -0.000237458 0.000267261 1.0135e-06 -0.000683262 0.000437867 -0.00104302 -0.000879393 7.81796e-05 -7.22168e-05 -0.00103278 0.000319293 -0.00103917 -0.00083175 0.000578541 0.000596811 0.00020857 -0.000129124 0.000298327 -0.000905018 0.000765946 -0.000625637 -0.000468267 7.58396e-06
internal_weight=158312 122235 83032 50821 39203 21646 18602 10754 29175 13518 36077 11714 22315 11975 5928 2302 4090 10340 4101 6664 27489 15657 13762 4096 9666 5384 32211 5902 1170 6047 10544 9942 602 4948 3285 1690 2017 3626 2141 1850 26309 2749 754 1595 6451 3380 7649 3552 5753 3044 2881 1562 22541 21412 4097 589 23560 2925 3984 4640 2365 5440
internal_count=158312 122235 83032 50821 39203 21646 18602 10754 29175 13518 36077 11714 22315 11975 5928 2302 4090 10340 4101 6664 27489 15657 13762 4096 9666 5384 32211 5902 1170 6047 10544 9942 602 4948 3285 1690 2017 3626 2141 1850 26309 2749 754 1595 6451 3380 7649 3552 5753 3044 2881 1562 22541 21412 4097 589 23560 2925 3984 4640 2365 5440
is_linear=0
shrinkage=0.03


Tree=9
num_leaves=63
num_cat=0
split_feature=6 10 6 7 6 7 3 4 8 7 6 7 8 7 10 8 3 7 8 8 8 8 7 8 7 7 8 8 8 7 7 8 8 8 9 4 0 5 7 10 8 7 8 7 8 4 8 7 10 8 5 7 7 8 7 5 8 9 7 8 8 4
split_gain=18.8742 3.94107 2.2741 1.82496 1.73467 1.55579 2.32521 1.7201 1.28675 1.2485 1.16899 0.893776 0.781267 1.90961 1.04492 0.683628 0.668055 0.627037 0.591428 0.493904 0.481505 0.431081 0.41028 0.698308 0.609846 0.355517 0.323933 0.933711 0.315365 0.314771 0.309878 0.300314 0.863221 0.297919 0.547199 0.316269 0.277436 0.422136 0.34358 0.275138 0.240465 0.244128 0.238276 0.211221 0.553545 0.196951 0.166665 0.175548 0.1645 0.163166 0.163095 0.186724 0.161713 0.167949 0.155016 0.153638 0.147208 0.140934 0.138667 0.133477 0.609851 0.132731
threshold=16.875000000000004 1.0000000180025095e-35 76.625000000000014 41.781250000000007 22.375000000000004 93.156250000000014 43.500000000000007 78.500000000000014 5.5000000000000009 16.843750000000004 15.375000000000002 17.031250000000004 5.5000000000000009 19.656250000000004 1.0000000180025095e-35 12.500000000000002 71.500000000000014 16.468750000000004 1.5000000000000002 8.5000000000000018 20.500000000000004 8.5000000000000018 16.281250000000004 5.5000000000000009 20.968750000000004 56.781250000000007 14.500000000000002 8.5000000000000018 12.500000000000002 59.906250000000007 16.656250000000004 12.500000000000002 13.500000000000002 22.500000000000004 4.5000000000000009 28.500000000000004 31.500000000000004 53.500000000000007 50.343750000000007 1.0000000180025095e-35 20.500000000000004 90.656250000000014 12.500000000000002 61.781250000000007 20.500000000000004 36.500000000000007 13.500000000000002 16.468750000000004 1.0000000180025095e-35 20.500000000000004 50.500000000000007 74.343750000000014 21.968750000000004 8.5000000000000018 38.781250000000007 41.500000000000007 17.500000000000004 4.5000000000000009 40.656250000000007 12.500000000000002 13.500000000000002 16.500000000000004
decision_type=2 2 2 2 2 2 2 2 2 2 2 2 2 2 2 2 2 2 2 2 2 2 2 2 2 2 2 2 2 2 2 2 2 2 2 2 2 2 2 2 2 2 2 2 2 2 2 2 2 2 2 2 2 2 2 2 2 2 2 2 2 2
left_child=10 2 3 8 11 6 -5 19 9 -2 12 28 17 14 31 30 -9 -1 58 -8 52 -10 23 -12 -24 61 27 -4 -3 48 -16 -14 -33 34 -13 -35 45 38 -38 59 56 -42 -41 -21 -45 -22 47 -23 -15 -7 51 -46 -6 57 -48 -51 -28 -54 -19 -25 -61 -26
right_child=1 4 26 5 20 49 7 16 21 -11 22 33 13 29 15 -17 -18 18 -20 43 36 46 24 39 25 -27 40 -29 -30 -31 -32 32 -34 35 -36 -37 37 -39 -40 42 41 -43 -44 44 50 -47 54 -49 -50 55 -52 -53 53 -55 -56 -57 -58 -59 -60 60 -62 -63
leaf_value=-0.068420795278910831 -0.068420795278910831 -0.069147979839213919 1.7469046077639558 0 0.047192596324340808 1.1805403832607586 1.2058262817270859 -0.068420795278910831 1.3231447223594375 -0.00070536902349395804 -0.068420795278910831 0 1.2087673832607586 -0.068420795278910831 -0.068420795278910831 0.66140102102947174 0 -0.068420795278910831 -0.023534116319940034 -0.091227727038547882 0.00062686701988511116 -0.12270746756466155 -9.0783690649338665e-05 1.2735329735637031 -0.068420795278910831 0.0013650619841608601 3.0508000641639557 -0.030018914636044194 0.63867645626201219 -0.023512300783130796 -0.00072718456030308688 -0.068420795278910831 2.3491139712426059 -0.068420795278910831 0.06842146998623487 0.061836765597578065 -0.06894128663157488 0.44774087775021104 0.023309578967845291 -0.068987070257478245 -0.094049203132523615 0 0.65834853277331917 0.022806931759636839 -0.068323660083346949 0.093049794452429987 2.8262028907654093 -0.00075037037899686957 0.022741485149209664 0.0010439932855592815 -0.095703850083347003 -0.040943470083347006 -0.046320715574211309 0.81113678961001945 -0.29022876190246011 -0.074454294442182947 1.4368367008571281 0.12391428442578874 0.0021379226072908964 -0.24725621913629683 2.6468028008637026 -0.044930984739913096
leaf_weight=6239 1491 1035 3272 7848 1298 2455 213 887 8008 12027 2246 5440 1485 5665 1729 285 3203 2782 1176 3071 489 89 4282 464 2275 744 12217 2630 135 294 288 630 1511 390 4502 212 769 1280 921 652 114 2635 102 499 849 1489 4072 3463 88 376 1319 713 70 17330 25 213 11343 3843 143 137 495 2365
leaf_count=6239 1491 1035 3272 7848 1298 2455 213 887 8008 12027 2246 5440 1485 5665 1729 285 3203 2782 1176 3071 489 89 4282 464 2275 744 12217 2630 135 294 288 630 1511 390 4502 212 769 1280 921 652 114 2635 102 499 849 1489 4072 3463 88 376 1319 713 70 17330 25 213 11343 3843 143 137 495 2365
internal_value=-3.66442e-05 0.000141313 2.42645e-05 -0.000100728 0.000389223 -0.000309438 -0.000412322 -0.00069885 5.41214e-05 -0.000160297 -0.000639594 8.3522e-05 -0.000773702 -0.000608755 -0.000226131 -0.000726016 -0.000214545 -0.000964731 -0.00067658 -0.000996091 0.000519493 0.000239246 -0.00042214 -0.000673771 -0.00031551 -0.00052802 0.000221472 2.0609e-05 -0.000703148 -0.000983849 -0.00092035 9.12261e-05 -0.000136153 0.000170814 0.000210054 -0.000477232 0.000251506 6.81803e-05 -0.000243085 -0.000242168 0.000266532 1.0135e-06 -0.000683262 -0.00104302 -0.000879393 0.000526772 7.81796e-05 -7.22168e-05 -0.00103278 0.000319293 -0.00103917 -0.00083175 0.000578319 0.000598181 0.00020857 -0.000129124 0.000297513 0.000775701 -0.000905018 6.12845e-05 -0.00022239 -0.000625637
internal_weight=158312 122235 83032 50821 39203 21646 18602 10754 29175 13518 36077 11714 22315 11975 5928 2302 4090 10340 4101 6664 27489 15657 13762 4096 9666 5384 32211 5902 1170 6047 2017 3626 2141 10544 9942 602 4948 2970 1690 1850 26309 2749 754 6451 3380 1978 7649 3552 5753 3044 2881 1562 22541 21243 4097 589 23560 3913 2925 1096 632 4640
internal_count=158312 122235 83032 50821 39203 21646 18602 10754 29175 13518 36077 11714 22315 11975 5928 2302 4090 10340 4101 6664 27489 15657 13762 4096 9666 5384 32211 5902 1170 6047 2017 3626 2141 10544 9942 602 4948 2970 1690 1850 26309 2749 754 6451 3380 1978 7649 3552 5753 3044 2881 1562 22541 21243 4097 589 23560 3913 2925 1096 632 4640
is_linear=0
shrinkage=0.03


Tree=10
num_leaves=63
num_cat=0
split_feature=6 10 6 8 7 0 6 8 8 8 8 7 0 8 7 10 7 8 7 8 7 7 8 7 7 3 7 7 8 7 7 7 8 8 7 4 0 10 0 5 7 1 8 7 8 6 9 8 9 7 8 10 4 8 8 7 4 6 3 8 8 4
split_gain=19.4067 3.34829 2.23138 1.67851 1.66761 1.33719 1.17159 0.914823 0.901638 1.06117 1.70034 1.3062 1.06767 0.778071 1.9022 1.03878 0.768166 0.683628 0.627037 0.591428 0.515829 0.41028 0.698308 0.609846 0.377826 0.759803 0.477184 0.400111 0.371225 0.355517 0.314771 0.309878 0.297329 0.860865 0.296985 0.28841 0.278864 0.275138 0.262875 0.378128 0.303293 0.261314 0.238276 0.194514 0.615418 0.189989 0.186884 0.178894 0.245398 0.173386 0.197798 0.1645 0.149755 0.144094 0.232994 0.138667 0.137504 0.134743 0.133726 0.133477 0.609851 0.132731
threshold=16.875000000000004 1.0000000180025095e-35 79.625000000000014 20.500000000000004 21.718750000000004 45.500000000000007 15.375000000000002 20.500000000000004 13.500000000000002 8.5000000000000018 5.5000000000000009 16.843750000000004 47.500000000000007 5.5000000000000009 19.656250000000004 1.0000000180025095e-35 17.031250000000004 12.500000000000002 16.468750000000004 1.5000000000000002 42.156250000000007 16.281250000000004 5.5000000000000009 20.968750000000004 82.968750000000014 51.500000000000007 50.656250000000007 74.343750000000014 12.500000000000002 56.781250000000007 59.906250000000007 16.656250000000004 12.500000000000002 13.500000000000002 95.656250000000014 28.500000000000004 12.500000000000002 1.0000000180025095e-35 31.500000000000004 54.500000000000007 50.343750000000007 48.500000000000007 12.500000000000002 61.406250000000007 10.500000000000002 20.125000000000004 4.5000000000000009 12.500000000000002 4.5000000000000009 34.593750000000007 1.0000000180025095e-35 1.0000000180025095e-35 13.500000000000002 20.500000000000004 17.500000000000004 40.656250000000007 37.500000000000007 21.125000000000004 116.50000000000001 12.500000000000002 13.500000000000002 16.500000000000004
decision_type=2 2 2 2 2 2 2 2 2 2 2 2 2 2 2 2 2 2 2 2 2 2 2 2 2 2 2 2 2 2 2 2 2 2 2 2 2 2 2 2 2 2 2 2 2 2 2 2 2 2 2 2 2 2 2 2 2 2 2 2 2 2
left_child=6 2 3 8 16 24 13 45 9 10 11 -2 36 18 15 32 28 31 -1 55 35 22 -8 -23 25 26 -5 -27 -3 61 51 -17 -15 -34 -7 -9 -11 59 56 40 -40 -29 -39 44 -38 46 -6 48 57 50 -13 -16 -46 54 -4 -20 -22 -18 -55 -24 -61 -25
right_child=1 4 53 5 7 34 21 20 -10 12 -12 49 -14 14 30 17 47 -19 19 -21 38 23 37 29 -26 27 -28 41 -30 -31 -32 -33 33 -35 -36 -37 43 42 39 -41 -42 -43 -44 -45 52 -47 -48 -49 -50 -51 -52 -53 -54 58 -56 -57 -58 -59 -60 60 -62 -63
leaf_value=-0.066368171420543506 -0.066368171420543506 -0.067073540444037461 0.24088165280303717 -0.11558099999999996 -0.028254000000000019 -0.092832734580846607 -0.066368171420543506 -0.066368171420543506 1.4751241717629358 -0.058490895227391433 1.3038503806886543 -0.058011207952789225 -0.078145713853655818 1.1725043617629358 -0.066368171420543506 -0.066368171420543506 0 0.64155899039858755 -0.066368171420543506 -0.022828092830341831 0.0027854962815905891 -8.8060179929883012e-05 1.235326984356792 -0.066368171420543506 0.029999999999999999 -0.078418300721544792 0 0 0.61951616257415187 0.0013241101246360641 -0.022806931759636839 -0.00070536902349395804 -0.066368171420543506 2.2786405521053279 0.00059167832648224564 0.0028479470187995656 -0.058490895227391433 -0.066917458149753917 -0.066873048032627655 0.46430865141770478 0.022610291598809978 -0.069715165980846552 0.63859807679011948 0 -0.054562859267626891 0.48680268592171883 0.06721644588664788 0.83004392130736626 0.038935445886647921 0.0019372220472107316 -0.00068420795278917974 0.022059240594733322 0 0 1.3937315998314141 0.002073784929072211 0.11728889497523998 -0.031612620000000043 -0.16772076000000002 -0.23983853256220794 2.5673987168377921 -0.043583055197715694
leaf_weight=6239 1491 1037 17338 308 622 2010 2246 412 7184 928 8769 514 2302 1485 5665 1729 3706 285 2782 1176 487 4282 464 2275 1217 1219 2615 632 161 744 294 288 630 1511 186 423 1277 652 726 1229 946 375 102 2951 1001 22667 787 776 3018 2030 10386 88 4829 2441 10962 143 1436 770 67 137 495 2365
leaf_count=6239 1491 1037 17338 308 622 2010 2246 412 7184 928 8769 514 2302 1485 5665 1729 3706 285 2782 1176 487 4282 464 2275 1217 1219 2615 632 161 744 294 288 630 1511 186 423 1277 652 726 1229 946 375 102 2951 1001 22667 787 776 3018 2030 10386 88 4829 2441 10962 143 1436 770 67 137 495 2365
internal_value=-2.84401e-05 0.00015201 4.41225e-05 -7.53264e-05 0.000380517 -0.000459398 -0.000639836 0.000490926 -1.09042e-08 -6.05106e-05 6.19728e-05 -0.000138344 -0.000274267 -0.000774093 -0.000609484 -0.000227603 3.37685e-05 -0.000726016 -0.000964731 -0.00067658 0.000147701 -0.00042214 -0.000673771 -0.00031551 -0.000239201 -0.000351562 -3.35395e-05 -0.000769164 -0.000676208 -0.00052802 -0.000983849 -0.00092035 8.88193e-05 -0.000137427 -0.00109773 -0.000540737 -0.000151171 -0.000242168 0.000266865 8.65599e-05 -0.000207087 -0.000326641 -0.000683262 -0.00010526 -0.000190272 0.0005716 0.000233585 0.000136616 9.17169e-05 -4.13889e-05 -8.87982e-05 -0.00103278 -5.96179e-05 0.000246605 0.00026592 -0.000905018 0.00053887 -4.92491e-05 2.86628e-05 6.12845e-05 -0.00022239 -0.000625637
internal_weight=158312 122235 83032 52224 39203 8562 36077 29735 43662 36478 23190 14421 13288 22315 11975 5928 9468 2302 10340 4101 5659 13762 4096 9666 6366 5149 2923 2226 1198 5384 6047 2017 3626 2141 2196 835 10986 1850 4824 2901 1672 1007 754 10058 7107 24076 1409 8270 7494 12930 10900 5753 5830 30808 28300 2925 1923 4476 2508 1096 632 4640
internal_count=158312 122235 83032 52224 39203 8562 36077 29735 43662 36478 23190 14421 13288 22315 11975 5928 9468 2302 10340 4101 5659 13762 4096 9666 6366 5149 2923 2226 1198 5384 6047 2017 3626 2141 2196 835 10986 1850 4824 2901 1672 1007 754 10058 7107 24076 1409 8270 7494 12930 10900 5753 5830 30808 28300 2925 1923 4476 2508 1096 632 4640
is_linear=0
shrinkage=0.03


Tree=11
num_leaves=63
num_cat=0
split_feature=6 10 8 8 6 8 8 7 6 7 3 7 4 8 8 7 10 8 7 8 7 8 7 7 8 7 7 8 9 4 8 7 7 5 0 7 8 8 10 5 7 8 8 6 10 1 8 7 7 3 3 8 8 4 4 8 2 6 7 8 4 3
split_gain=18.9115 3.15153 2.17274 2.3566 1.57451 1.49329 2.00187 1.28048 1.17635 0.892798 0.83955 1.08756 0.808423 1.05037 0.77225 1.88869 1.0276 0.683628 0.627037 0.591428 0.584359 0.488928 0.454145 0.41028 0.698308 0.609846 0.355517 0.331519 0.548606 0.345787 0.327603 0.314771 0.309878 0.303644 0.352493 0.339468 0.289068 0.85859 0.275138 0.242833 0.239048 0.238276 0.212395 0.167632 0.1645 0.163716 0.140712 0.140238 0.138667 0.134676 0.228478 0.133477 0.609851 0.132731 0.165646 0.129697 0.129263 0.113615 0.112147 0.197798 0.110913 0.110745
threshold=16.875000000000004 1.0000000180025095e-35 20.500000000000004 13.500000000000002 23.125000000000004 8.5000000000000018 5.5000000000000009 16.843750000000004 15.375000000000002 17.031250000000004 49.500000000000007 60.281250000000007 80.500000000000014 22.500000000000004 5.5000000000000009 19.656250000000004 1.0000000180025095e-35 12.500000000000002 16.468750000000004 1.5000000000000002 95.656250000000014 20.500000000000004 50.656250000000007 16.281250000000004 5.5000000000000009 20.968750000000004 56.781250000000007 22.500000000000004 4.5000000000000009 28.500000000000004 12.500000000000002 59.906250000000007 16.656250000000004 53.500000000000007 31.500000000000004 50.968750000000007 12.500000000000002 13.500000000000002 1.0000000180025095e-35 48.500000000000007 74.343750000000014 12.500000000000002 17.500000000000004 78.875000000000014 1.0000000180025095e-35 27.500000000000004 12.500000000000002 16.281250000000004 40.656250000000007 75.500000000000014 28.500000000000004 12.500000000000002 13.500000000000002 16.500000000000004 64.500000000000014 1.5000000000000002 79.500000000000014 21.875000000000004 34.593750000000007 1.0000000180025095e-35 12.500000000000002 48.500000000000007
decision_type=2 2 2 2 2 2 2 2 2 2 2 2 2 2 2 2 2 2 2 2 2 2 2 2 2 2 2 2 2 2 2 2 2 2 2 2 2 2 2 2 2 2 2 2 2 2 2 2 2 2 2 2 2 2 2 2 2 2 2 2 2 2
left_child=8 2 3 5 9 6 7 -2 14 30 47 -12 13 20 18 16 36 32 -1 48 39 -6 -15 24 -10 55 53 28 46 -29 -3 44 -18 34 61 -36 -16 -38 51 40 -4 -40 -5 -13 -17 -42 57 -7 -20 50 -14 -26 -53 -27 -55 -25 -52 -11 59 -9 -49 -23
right_child=1 4 12 42 21 10 -8 58 23 27 11 43 49 22 15 31 17 -19 19 -21 -22 33 -24 25 38 26 -28 29 -30 -31 -32 -33 -34 -35 35 -37 37 -39 41 -41 45 -43 -44 -45 -46 -47 -48 60 -50 -51 56 52 -54 54 -56 -57 -58 -59 -60 -61 -62 -63
leaf_value=-0.064377126277927244 -0.064377126277927244 -0.065061334230716306 -0.063921401259200192 2.8867630788895595 0.56219860534406718 -0.12077224353772166 1.387271019946946 -0.056270871714205591 -0.064377126277927244 0 -0.066344796781053927 0 0.029999999999999999 -0.11211357 1.137329230910048 -0.064377126277927244 -0.064377126277927244 0.62231222068662995 -0.064377126277927244 -0.022143250045431592 0 0.023770228125982805 0 -0.054947346982921981 1.198267174826088 -0.064377126277927244 0.001284386820897012 -0.064377126277927244 0.063697779037390698 0.059898097741202992 0.59913067769692741 -0.022122723806847766 -0.00068420795278917974 0.2403793918751736 -0.064866856591648869 0.021931982850845699 -0.064377126277927244 2.210281335542168 -0.064909934405261327 -0.090047752543421247 0.029999999999999999 0.61944013448641588 1.2808704466100478 -0.036344796781053929 0.021397463376891357 -0.059887326513007544 0.9671447499908068 -0.052925973489598092 0.0020115713811999923 0 -0.067268171420543546 -0.23264337658534173 2.4903767553326577 -0.042275563541784252 -0.09150420903308816 -8.5418374531975869e-05 -0.014884415958711939 -0.030664241400000021 0.0018791053857944106 -0.00066368171420545959 0 0.11093527082559987
leaf_weight=6239 1491 1036 1240 16289 21668 82 11644 514 2246 4886 4380 1989 379 308 1485 5665 1729 285 2782 1176 672 789 2044 286 464 2275 744 451 5174 249 140 294 288 1660 804 882 630 1511 652 1706 277 102 13992 1634 88 601 399 792 143 3191 387 137 495 2261 104 3996 265 361 2030 10386 6739 704
leaf_count=6239 1491 1036 1240 16289 21668 82 11644 514 2246 4886 4380 1989 379 308 1485 5665 1729 285 2782 1176 672 789 2044 286 464 2275 744 451 5174 249 140 294 288 1660 804 882 630 1511 652 1706 277 102 13992 1634 88 601 399 792 143 3191 387 137 495 2261 104 3996 265 361 2030 10386 6739 704
internal_value=-3.67333e-05 0.0001414 3.673e-05 9.692e-05 0.00036309 -4.94082e-05 8.95809e-05 -0.000146665 -0.000640278 8.83762e-05 -0.000281398 -0.000495939 -0.000354543 -0.000555843 -0.000774808 -0.000610815 -0.000230293 -0.000726016 -0.000964731 -0.00067658 -0.000824573 0.00049467 -4.21489e-05 -0.00042214 -0.000673771 -0.00031551 -0.00052802 0.000168755 0.000209689 -0.000463968 -0.000699009 -0.000983849 -0.00092035 0.000222027 5.03012e-05 -0.00024697 8.44221e-05 -0.000138659 -0.000242168 -0.000967948 -0.000753391 -0.000683262 0.000298337 -0.000111414 -0.00103278 -0.00037463 5.19504e-06 -5.58661e-05 -0.000905018 -2.80383e-05 -0.000326124 6.12845e-05 -0.00022239 -0.000625637 -0.000468267 -4.83098e-05 -0.000666618 -3.61048e-05 -5.06696e-05 -8.87982e-05 -4.24305e-05 0.000386
internal_weight=158312 122235 83032 71962 39203 41681 26065 14421 36077 12696 15616 8003 11070 6848 22315 11975 5928 2302 10340 4101 4496 26507 2352 13762 4096 9666 5384 11520 10820 700 1176 6047 2017 4839 3179 1686 3626 2141 1850 3824 2118 754 30281 3623 5753 878 5646 7613 2925 4222 1031 1096 632 4640 2365 4282 652 5247 12930 10900 7531 1493
internal_count=158312 122235 83032 71962 39203 41681 26065 14421 36077 12696 15616 8003 11070 6848 22315 11975 5928 2302 10340 4101 4496 26507 2352 13762 4096 9666 5384 11520 10820 700 1176 6047 2017 4839 3179 1686 3626 2141 1850 3824 2118 754 30281 3623 5753 878 5646 7613 2925 4222 1031 1096 632 4640 2365 4282 652 5247 12930 10900 7531 1493
is_linear=0
shrinkage=0.03


Tree=12
num_leaves=63
num_cat=0
split_feature=6 0 10 8 6 7 3 8 8 7 0 8 7 10 8 0 7 8 8 8 10 3 5 7 8 7 8 7 7 4 7 10 7 7 8 8 10 8 7 4 7 8 10 8 7 8 7 10 5 7 4 7 6 3 7 8 9 8 8 8 8 8
split_gain=18.7885 2.87119 1.88806 1.51277 1.20398 1.17711 0.942116 0.903561 2.19702 0.796061 0.871217 0.769344 1.88195 1.02202 0.683628 0.65708 0.627037 0.608403 0.602666 0.591428 0.590097 0.865041 0.478594 0.420214 0.701189 0.587041 0.380466 0.373483 0.34502 0.339925 0.314771 0.314707 0.309878 0.291735 0.286428 0.856413 0.277165 0.238276 0.232805 0.232644 0.216201 0.194136 0.190406 0.175895 0.166528 0.164637 0.294515 0.1645 0.159978 0.153553 0.151355 0.150671 0.145816 0.143142 0.138667 0.136713 0.134732 0.391171 0.160333 0.131593 0.598099 0.129697
threshold=16.875000000000004 22.500000000000004 1.0000000180025095e-35 20.500000000000004 15.375000000000002 16.843750000000004 51.500000000000007 13.500000000000002 8.5000000000000018 98.281250000000014 45.500000000000007 5.5000000000000009 19.656250000000004 1.0000000180025095e-35 12.500000000000002 48.500000000000007 16.468750000000004 5.5000000000000009 20.500000000000004 1.5000000000000002 1.0000000180025095e-35 79.500000000000014 17.500000000000004 16.281250000000004 5.5000000000000009 20.968750000000004 5.5000000000000009 20.781250000000004 56.781250000000007 15.500000000000002 59.906250000000007 1.0000000180025095e-35 16.656250000000004 58.093750000000007 12.500000000000002 13.500000000000002 1.0000000180025095e-35 12.500000000000002 16.468750000000004 76.500000000000014 46.343750000000007 17.500000000000004 1.0000000180025095e-35 12.500000000000002 76.906250000000014 21.500000000000004 61.781250000000007 1.0000000180025095e-35 55.500000000000007 50.093750000000007 18.500000000000004 53.593750000000007 19.375000000000004 115.50000000000001 40.656250000000007 12.500000000000002 4.5000000000000009 22.500000000000004 12.500000000000002 12.500000000000002 13.500000000000002 1.5000000000000002
decision_type=2 2 2 2 2 2 2 2 2 2 2 2 2 2 2 2 2 2 2 2 2 2 2 2 2 2 2 2 2 2 2 2 2 2 2 2 2 2 2 2 2 2 2 2 2 2 2 2 2 2 2 2 2 2 2 2 2 2 2 2 2 2
left_child=4 5 3 7 11 26 29 8 17 10 49 16 13 34 32 -10 -1 38 27 54 21 44 40 24 -6 61 -2 55 50 52 47 -28 -15 -17 -13 -36 59 -38 -3 -23 -20 -9 -31 -33 45 46 -8 -14 51 -5 -27 -24 -7 -11 -18 -4 58 -58 -44 -26 -61 -25
right_child=1 2 18 9 23 6 20 41 15 53 -12 12 30 14 -16 33 19 -19 22 -21 -22 39 48 25 36 28 31 -29 -30 42 -32 43 -34 -35 35 -37 37 -39 -40 -41 -42 -43 56 -45 -46 -47 -48 -49 -50 -51 -52 -53 -54 -55 -56 -57 57 -59 -60 60 -62 -63
leaf_value=-0.062445812489589372 -0.06310949420379483 -0.092445812489589371 0 -0.11316916290000008 -0.062445812489589372 -0.028810417335117914 -0.062623100660290226 2.7905601865228729 0 0 -0.087346319967118599 1.1032093539827466 -0.062445812489589372 -0.062445812489589372 0.60364285406603102 -0.070924170711260434 -0.062445812489589372 1.3156528893485377 -0.065012480745442178 -0.021478952544068654 0.11044217000121481 -0.054220704167969078 -0.0092884243551680616 -0.053298926573434359 1.1623191595813056 -0.043520726635530624 0.47611673866958654 0.54533264718374519 0.0012458552162701508 0.00017214073237312277 -0.021459042092642305 -0.06310949420379483 -0.00066368171420545959 -0.035254452877622279 -0.062445812489589372 2.1439728954759034 -0.062962636373103495 0.60085693045182331 -0.00064377126277932457 0 -0.0001886107229386269 1.2424443332117463 0 0.61085675736601952 -0.0095216389417821998 -0.065827091206030988 0.014741113969698353 0.020755539475584575 0.31328691251891833 0.027996240778575831 -0.041007296635530675 0.052938237866179808 0.00017214073237312277 -0.16268913719999997 0.0019512242397640022 0.64115675736601951 0.063289019138926747 -0.032778257122881092 0.10377487707913605 -0.22566407528778154 2.4156654526726786 -8.2855823296021925e-05
leaf_weight=6239 1557 150 1852 48 2246 4409 1251 14479 2179 2470 2165 1485 5665 1729 285 2476 2782 9839 432 1176 502 609 1042 286 464 2972 715 21335 744 15632 294 536 288 2121 630 1511 652 102 3045 2309 400 13991 3156 68 374 1211 286 88 1417 1067 1668 702 2689 50 143 443 4109 406 713 137 495 3996
leaf_count=6239 1557 150 1852 48 2246 4409 1251 14479 2179 2470 2165 1485 5665 1729 285 2476 2782 9839 432 1176 502 609 1042 286 464 2972 715 21335 744 15632 294 536 288 2121 630 1511 652 102 3045 2309 400 13991 3156 68 374 1211 286 88 1417 1067 1668 702 2689 50 143 443 4109 406 713 137 495 3996
internal_value=-3.74851e-05 0.000140068 0.000242476 0.000139407 -0.000639065 -6.63627e-05 -2.16832e-05 0.000194402 3.8817e-05 -0.000318375 -0.000626441 -0.000775165 -0.000611482 -0.000231639 -0.000726016 -0.000399358 -0.000964731 0.000266612 0.000444263 -0.00067658 -0.000348933 -0.000431074 0.000103379 -0.000418379 -0.000673038 -0.000310467 -0.00065136 0.000501866 -0.000518965 4.7124e-05 -0.000983849 -0.000276468 -0.00092035 -0.000602751 8.2221e-05 -0.000139839 -0.000240547 -0.000683262 -9.30699e-05 -5.9714e-05 -0.000536806 0.000302661 0.000101032 -0.000780649 -0.000778168 -0.000858999 -0.000652883 -0.00103278 0.000271881 5.48599e-05 -0.000615131 7.95045e-05 -0.000135273 8.25999e-05 -0.000905018 0.000138219 0.000216375 0.000327702 8.64599e-05 6.40217e-05 -0.000217643 -4.83098e-05
internal_weight=158312 122235 81703 54080 36077 40532 37656 48280 19810 5800 3280 22315 11975 5928 2302 6776 10340 13034 27623 4101 6542 6040 3993 13762 4096 9666 2876 23630 5384 31114 6047 1319 2017 4597 3626 2141 1850 754 3195 2918 832 28470 24016 604 3122 2748 1537 5753 3161 1115 4640 1744 7098 2520 2925 2295 8384 4515 3869 1096 632 4282
internal_count=158312 122235 81703 54080 36077 40532 37656 48280 19810 5800 3280 22315 11975 5928 2302 6776 10340 13034 27623 4101 6542 6040 3993 13762 4096 9666 2876 23630 5384 31114 6047 1319 2017 4597 3626 2141 1850 754 3195 2918 832 28470 24016 604 3122 2748 1537 5753 3161 1115 4640 1744 7098 2520 2925 2295 8384 4515 3869 1096 632 4282
is_linear=0
shrinkage=0.03


Tree=13
num_leaves=63
num_cat=0
split_feature=6 0 8 10 6 7 3 8 7 10 8 8 8 10 4 7 8 7 7 4 8 5 7 10 0 7 7 7 10 8 8 8 7 9 8 8 5 6 8 8 7 10 3 9 5 8 7 7 5 7 7 3 7 7 7 7 8 5 10 8 7 7
split_gain=18.1948 2.8757 1.98641 1.51529 1.37933 1.28876 0.886774 0.76783 1.87844 1.01912 0.739816 2.66007 0.683628 0.656856 0.910145 0.627037 0.591428 0.53082 1.21641 0.4967 0.379103 0.361515 0.344466 0.335243 0.328605 0.326416 0.314771 0.309878 0.305988 0.286357 0.854348 0.272458 0.261585 0.254028 0.619484 0.265983 0.206539 0.190943 0.188462 0.181804 0.173155 0.1645 0.162329 0.160992 0.155999 0.143745 0.273989 0.18904 0.150953 0.139284 0.138667 0.128711 0.124194 0.120825 0.326623 0.186602 0.160534 0.118922 0.117731 0.135782 0.139515 0.11478
threshold=16.875000000000004 24.500000000000004 20.500000000000004 1.0000000180025095e-35 15.375000000000002 16.843750000000004 54.500000000000007 5.5000000000000009 19.656250000000004 1.0000000180025095e-35 13.500000000000002 8.5000000000000018 12.500000000000002 1.0000000180025095e-35 76.500000000000014 16.468750000000004 1.5000000000000002 70.781250000000014 95.656250000000014 15.500000000000002 5.5000000000000009 55.500000000000007 63.781250000000007 1.0000000180025095e-35 48.500000000000007 46.343750000000007 59.906250000000007 16.656250000000004 1.0000000180025095e-35 12.500000000000002 13.500000000000002 5.5000000000000009 58.093750000000007 4.5000000000000009 22.500000000000004 12.500000000000002 29.500000000000004 24.625000000000004 17.500000000000004 12.500000000000002 42.531250000000007 1.0000000180025095e-35 70.500000000000014 4.5000000000000009 14.500000000000002 5.5000000000000009 18.718750000000004 15.968750000000002 19.500000000000004 82.968750000000014 40.656250000000007 116.50000000000001 56.156250000000007 21.468750000000004 17.031250000000004 59.531250000000007 13.500000000000002 12.500000000000002 1.0000000180025095e-35 12.500000000000002 15.468750000000002 55.218750000000007
decision_type=2 2 2 2 2 2 2 2 2 2 2 2 2 2 2 2 2 2 2 2 2 2 2 2 2 2 2 2 2 2 2 2 2 2 2 2 2 2 2 2 2 2 2 2 2 2 2 2 2 2 2 2 2 2 2 2 2 2 2 2 2 2
left_child=4 5 3 10 7 20 23 15 9 29 11 31 27 14 49 -1 50 21 36 45 -2 25 -16 44 -13 -4 41 -11 -22 -9 -31 -3 57 35 -35 -25 -19 43 -12 -30 -36 -10 -24 -5 -7 47 58 -6 -49 -8 -17 -20 -48 54 56 -55 -21 -26 -47 60 -60 -27
right_child=1 2 17 37 19 6 13 8 26 12 38 24 -14 -15 22 16 -18 18 51 53 28 -23 42 33 32 61 -28 -29 39 30 -32 -33 -34 34 40 -37 -38 -39 -40 -41 -42 -43 -44 -45 -46 46 52 48 -50 -51 -52 -53 -54 55 -56 -57 -58 -59 59 -61 -62 -63
leaf_value=-0.060572438114901705 -0.062271527663475511 -0.00062445812489592351 -0.06097047647153616 -0.00096405999316395707 -0.060572438114901705 -0.025634960623124741 -0.060028946485243213 1.070113073363264 -0.060572438114901705 -0.060572438114901705 2.6917299146925728 0 0.58553356844405013 0.12255701429816866 -0.060123167624940202 -0.060572438114901705 -0.020834583967746595 -0.00083988722335732286 0 -0.059699438114901714 0.24227214073237313 0.34376940274335083 -0.060132182956243126 0 -0.26353755955962094 -0.0069372203961084716 -0.020815270829863088 -0.00064377126277932457 -0.061216209377681033 -0.060572438114901705 2.0796537086116258 1.2532471519891304 -0.034196819291293569 0.058280402522362135 -0.063235464775902944 0.11634650905213952 -0.084725930368105065 0.64897266776823281 1.2051710032153939 0.59283105464503894 9.0042007716455421e-05 0.020132873291317067 0 0.072366837739529108 0.00016697651040189498 0.058099846951402974 -0.061140190690523427 -0.061910787790523468 -0.024146465269987087 0.018770483187406803 0.0018926875125710651 -0.18780846308399993 0.0037496952597821931 -0.039777077736464751 0.0023561805644028767 0.0012616695597820991 2.3943874890924981 -0.062226727756284496 -0.061073757281910369 0.58460422253826871 -0.025014678169987051 0.049685876229334978
leaf_weight=6239 1674 1709 667 896 1228 4069 2608 1485 5665 1729 14227 1184 285 493 415 2782 1176 223 2561 1866 774 1369 231 4866 30 1004 294 288 577 630 1511 9593 2121 6104 359 962 2090 19150 13990 76 241 88 3030 1564 19827 874 1317 1016 494 114 143 48 115 2832 2643 468 268 2446 284 82 275 943
leaf_count=6239 1674 1709 667 896 1228 4069 2608 1485 5665 1729 14227 1184 285 493 415 2782 1176 223 2561 1866 774 1369 231 4866 30 1004 294 288 577 630 1511 9593 2121 6104 359 962 2090 19150 13990 76 241 88 3030 1564 19827 874 1317 1016 494 114 143 48 115 2832 2643 468 268 2446 284 82 275 943
internal_value=-3.76803e-05 0.000137045 0.000250904 0.000306925 -0.000629678 -4.89156e-05 -6.62271e-06 -0.000775352 -0.000611829 -0.000232342 0.000208319 5.25051e-05 -0.000726016 -0.000318702 -0.000400007 -0.000964731 -0.00067658 -0.000170023 -0.000378382 -0.000393469 -0.00063972 8.74576e-05 -9.21064e-05 5.24126e-05 -0.000470928 -0.000119379 -0.000983849 -0.00092035 -0.000280455 8.10725e-05 -0.00014096 0.000320243 -0.000585716 0.000178084 0.000304018 3.32204e-05 -0.000879269 0.000513628 0.000302652 -0.000758728 -0.000615798 -0.00103278 1.14926e-05 0.000264821 -1.34943e-05 -0.000608295 -0.00046289 -0.000764799 -0.000540001 -0.00081582 -0.000905018 6.56782e-05 -0.000760422 -0.000242263 -0.000145824 -0.000381866 -0.000421893 -0.000795169 -0.000181659 -0.000490466 -0.000657696 7.68365e-05
internal_weight=158312 122235 75815 66910 36077 46420 43319 22315 11975 5928 45300 17083 2302 6891 6398 10340 4101 8905 4922 13762 3101 3983 3676 36428 5781 2614 6047 2017 1427 3626 2141 11302 4597 12532 6704 5828 2313 21610 28217 653 600 5753 3261 2460 23896 5685 2947 2738 1510 2722 2925 2609 1432 8077 4777 3300 2134 2476 1515 641 559 1947
internal_count=158312 122235 75815 66910 36077 46420 43319 22315 11975 5928 45300 17083 2302 6891 6398 10340 4101 8905 4922 13762 3101 3983 3676 36428 5781 2614 6047 2017 1427 3626 2141 11302 4597 12532 6704 5828 2313 21610 28217 653 600 5753 3261 2460 23896 5685 2947 2738 1510 2722 2925 2609 1432 8077 4777 3300 2134 2476 1515 641 559 1947
is_linear=0
shrinkage=0.03


Tree=14
num_leaves=63
num_cat=0
split_feature=6 10 8 8 8 8 6 6 8 7 8 7 4 3 10 8 2 8 7 4 7 8 7 9 8 7 8 8 8 7 7 7 7 5 0 7 8 8 5 6 10 7 5 7 8 3 4 3 6 6 7 4 2 7 9 8 4 3 7 8 6 7
split_gain=10.8932 2.29676 1.76511 1.63434 2.00117 1.04039 0.992686 0.911945 0.758304 1.065 0.585078 1.32916 0.555295 0.613972 0.520497 0.483463 0.423443 0.399381 0.384862 0.366196 0.34224 0.31489 0.273536 0.26954 0.503742 0.259468 0.242435 0.234368 0.599426 0.226527 0.248147 0.221917 0.217239 0.215306 0.282533 0.259226 0.199193 0.196759 0.175906 0.15495 0.151181 0.124654 0.124559 0.120812 0.154212 0.115214 0.112674 0.108984 0.12024 0.10863 0.101441 0.0984088 0.096062 0.0928009 0.0899787 0.0895003 0.117508 0.0889829 0.0884621 0.157077 0.0853331 0.0850025
threshold=17.875000000000004 1.0000000180025095e-35 20.500000000000004 13.500000000000002 8.5000000000000018 5.5000000000000009 15.875000000000002 23.875000000000004 10.500000000000002 60.281250000000007 5.5000000000000009 19.656250000000004 80.500000000000014 35.500000000000007 1.0000000180025095e-35 12.500000000000002 82.500000000000014 20.500000000000004 16.468750000000004 15.500000000000002 16.843750000000004 2.5000000000000004 49.781250000000007 4.5000000000000009 22.500000000000004 59.531250000000007 12.500000000000002 12.500000000000002 13.500000000000002 16.843750000000004 20.968750000000004 16.656250000000004 16.281250000000004 52.500000000000007 31.500000000000004 54.593750000000007 17.500000000000004 5.5000000000000009 16.500000000000004 78.875000000000014 1.0000000180025095e-35 43.531250000000007 15.500000000000002 20.593750000000004 5.5000000000000009 87.500000000000014 15.500000000000002 75.500000000000014 22.625000000000004 22.125000000000004 17.468750000000004 93.500000000000014 79.500000000000014 52.843750000000007 5.5000000000000009 10.500000000000002 19.500000000000004 115.50000000000001 33.843750000000007 1.0000000180025095e-35 29.375000000000004 54.593750000000007
decision_type=2 2 2 2 2 2 2 2 2 2 2 2 2 2 2 2 2 2 2 2 2 2 2 2 2 2 2 2 2 2 2 2 2 2 2 2 2 2 2 2 2 2 2 2 2 2 2 2 2 2 2 2 2 2 2 2 2 2 2 2 2 2
left_child=6 2 3 4 5 20 10 23 9 51 18 14 13 22 27 31 45 60 -1 38 -2 46 -4 26 -25 40 32 -12 -29 37 -31 -16 -3 34 53 -36 -5 -21 43 -11 55 -26 -32 44 50 -15 -20 48 -14 -34 -8 -6 -50 -19 -44 -13 61 -49 59 -22 -9 -57
right_child=1 7 12 36 8 -7 19 17 -10 39 11 25 47 16 15 -17 -18 33 21 29 58 -23 -24 24 41 -27 -28 28 -30 30 42 -33 49 -35 35 -37 -38 -39 -40 -41 -42 -43 54 -45 -46 -47 -48 57 52 -51 -52 -53 -54 -55 -56 56 -58 -59 -60 -61 -62 -63
leaf_value=-0.058755264971454668 -0.059653704371154775 -0.089348063547776788 -0.11153580156125271 2.6656914834864089 -0.066929643757233981 1.2756497374294566 -0.058755264971454668 0.082897657706482095 0 0 1.0506495893853243 -0.088755264971454667 0.029089826482716637 -0.078305478330454856 -0.058755264971454668 0.56796756139072868 0 0.030792035730516323 -0.058755264971454668 -0.060167063547776747 -0.054592919080062786 -0.00017805556552918488 0.0016333613387473633 0.055150857396543559 -0.059565400832625813 0.0011706294729886579 0.30175836232684206 -0.059807169885701228 2.077264097353277 0.0022093664890880404 -0.03945676540437084 0.028948944434470825 0 0.1938824317209073 -0.059141362177390099 0.048195299942454889 1.1690158731189324 -0.028479723096350662 -0.02913568747994642 -0.033170914712554803 0.047843234595629162 0.017565735534757786 -1.0173517283327271e-05 -0.060178984969807732 -0.028479723096350662 -0.02336412695218856 -0.038583765404370848 0 -0.063160511620986556 -0.056535324968149323 -0.022215186514881431 -0.0026231006602902341 -0.014437883479950599 0.16061723717185036 -0.038481362504370793 -0.058755264971454668 -0.058755264971454668 -0.062174209191479937 0.029875336659726557 -0.00060572438114903093 0.7195034877351858 -0.028755264971454666
leaf_weight=7221 679 288 116 15733 4291 11080 892 3582 5134 2429 1742 360 287 3142 2027 355 852 1124 1906 1095 246 1142 1825 5340 377 462 619 749 1803 4935 1412 450 4029 1724 1051 591 13992 971 3650 1647 122 144 2629 1144 797 320 2165 3125 403 360 247 239 265 251 975 4790 1339 66 1755 8337 17302 187
leaf_count=7221 679 288 116 15733 4291 11080 892 3582 5134 2429 1742 360 287 3142 2027 355 852 1124 1906 1095 246 1142 1825 5340 377 462 619 749 1803 4935 1412 450 4029 1724 1051 591 13992 971 3650 1647 122 144 2629 1144 797 320 2165 3125 403 360 247 239 265 251 975 4790 1339 66 1755 8337 17302 187
internal_value=1.17622e-05 0.000169966 7.57454e-05 0.000133345 -3.07003e-06 0.000173706 -0.000379677 0.000364553 -0.000287366 -0.000459504 -0.000496746 -0.000366479 -0.000287328 -0.00046579 -7.54167e-05 -0.000391129 -0.000665157 0.00046312 -0.000647463 -0.000212197 -3.27325e-05 -0.000451026 -2.26825e-05 0.000138169 0.000278337 -0.000652169 -1.6952e-05 0.000132804 -5.0311e-05 -0.000112971 -5.36221e-05 -0.00053952 -9.07946e-05 0.000214546 6.1721e-05 -0.000203943 0.000297809 -0.00039883 -0.000389372 -0.000107679 -0.000698923 -0.000612076 -0.000202218 -0.000556337 -0.000411905 -0.000812604 -0.000574518 -1.80846e-05 -0.000299242 -3.84201e-05 -0.000635878 -0.000776069 -0.000519889 0.000378972 -0.000108644 -0.000718048 -0.000691824 6.606e-05 1.01195e-05 -2.95631e-05 0.00051955 -0.000758942
internal_weight=158312 112745 75963 65562 35837 22097 45567 36782 13740 8606 26820 14386 10401 6255 7126 2832 4314 25625 12434 18747 11017 5213 1941 11157 5861 7260 5296 4294 2552 12017 9951 2477 4677 4741 3017 1642 29725 2066 6730 4076 6798 521 5016 3080 1936 3462 4071 4146 955 4389 1139 4530 668 1375 3604 6676 6316 3191 10338 8583 20884 4977
internal_count=158312 112745 75963 65562 35837 22097 45567 36782 13740 8606 26820 14386 10401 6255 7126 2832 4314 25625 12434 18747 11017 5213 1941 11157 5861 7260 5296 4294 2552 12017 9951 2477 4677 4741 3017 1642 29725 2066 6730 4076 6798 521 5016 3080 1936 3462 4071 4146 955 4389 1139 4530 668 1375 3604 6676 6316 3191 10338 8583 20884 4977
is_linear=0
shrinkage=0.03


Tree=15
num_leaves=63
num_cat=0
split_feature=6 10 7 8 6 6 1 8 8 8 8 7 8 7 10 8 7 8 7 9 8 8 7 8 7 8 7 8 7 8 8 3 7 7 7 5 0 7 6 5 10 7 1 6 5 10 8 7 8 8 3 0 7 4 6 7 8 4 1 4 7 6
split_gain=10.3877 2.23401 1.57939 1.54268 1.03117 0.962798 0.845351 0.655283 1.75079 1.27378 0.729451 1.02293 0.570146 1.33168 0.514327 0.47976 0.468154 0.435547 0.414891 0.335063 0.506381 0.296639 0.2583 0.255292 0.25465 0.318671 0.316377 0.253347 0.23663 0.232872 0.586089 0.23068 0.55463 0.228613 0.218585 0.185678 0.293774 0.256338 0.158298 0.156564 0.141967 0.130001 0.1298 0.125382 0.146732 0.115777 0.133217 0.114527 0.103865 0.42443 0.101127 0.0988229 0.0985233 0.101347 0.0966839 0.0962681 0.0903766 0.115282 0.090294 0.0888554 0.0864054 0.0863346
threshold=17.625000000000004 1.0000000180025095e-35 93.156250000000014 20.500000000000004 23.875000000000004 15.875000000000002 44.500000000000007 13.500000000000002 8.5000000000000018 5.5000000000000009 10.500000000000002 60.281250000000007 5.5000000000000009 19.656250000000004 1.0000000180025095e-35 12.500000000000002 16.843750000000004 20.500000000000004 16.468750000000004 4.5000000000000009 22.500000000000004 2.5000000000000004 59.531250000000007 12.500000000000002 16.281250000000004 5.5000000000000009 20.968750000000004 20.500000000000004 50.093750000000007 12.500000000000002 13.500000000000002 36.500000000000007 74.343750000000014 17.343750000000004 16.656250000000004 57.500000000000007 33.500000000000007 55.218750000000007 78.875000000000014 15.500000000000002 1.0000000180025095e-35 52.843750000000007 81.500000000000014 76.625000000000014 17.500000000000004 1.0000000180025095e-35 12.500000000000002 43.531250000000007 12.500000000000002 13.500000000000002 115.50000000000001 137.50000000000003 55.843750000000007 69.500000000000014 22.375000000000004 16.656250000000004 10.500000000000002 19.500000000000004 95.500000000000014 15.500000000000002 17.218750000000004 30.375000000000004
decision_type=2 2 2 2 2 2 2 2 2 2 2 2 2 2 2 2 2 2 2 2 2 2 2 2 2 2 2 2 2 2 2 2 2 2 2 2 2 2 2 2 2 2 2 2 2 2 2 2 2 2 2 2 2 2 2 2 2 2 2 2 2 2
left_child=5 2 3 7 19 12 28 8 9 16 11 43 18 14 29 34 -2 61 -1 23 -21 59 40 33 25 -7 60 -4 -5 -14 -31 -30 -33 -3 -16 36 41 -38 -13 -28 56 -19 -8 -10 -45 48 -47 -22 -27 -50 51 -29 53 -41 -35 -12 -15 -58 -52 -20 -26 -6
right_child=1 4 27 6 17 24 42 -9 10 -11 55 38 13 22 15 -17 -18 35 21 20 47 -23 -24 -25 26 45 39 50 31 30 -32 32 -34 54 -36 -37 37 -39 -40 52 -42 -43 -44 44 -46 46 -48 -49 49 -51 58 -53 -54 -55 -56 -57 57 -59 -60 -61 -62 -63
leaf_value=-0.056992607022311043 -0.086014681153862807 -0.056699281189917308 1.1749946021517885 -0.10643302326147459 0.08041072797528763 -0.057810311209172925 -0.079834988107148272 2.4710072727472032 -0.078153763641606755 1.237380245306573 -0.11111190991978041 0 1.0191301017037646 -0.086092607022311002 -0.056992607022311043 0.55092853454900681 -0.00058755264971456001 0.029101403138717286 -0.056992607022311043 0.053496331674647235 -0.057778438807647062 -0.00017271389856325924 0.001135510588799029 0.30136028557502853 -0.028037397413639444 1.0965806600097228 -0.052036697930852145 0.00011267348699245616 0.0094309908326303572 -0.05801295478913019 2.0149461744326791 -0.058132958466782382 0.012306432121111576 0 0.028080476101436672 0.33568829300942299 -0.057367121312068378 0.044272813744425682 -0.032175787271178105 -0.029331914345409264 0.046407937557760306 0.14520664709547734 -0.031714690606656645 -0.29231271165677886 -0.030263025399837849 -0.05836747393905465 0.53792048755501121 0.017038763468715103 -0.20449859781329191 2.2823068853768467 -0.15030898291573555 -0.23999999999999999 0.0028954315798189966 -0.17895424632541715 -0.061065052511426535 0 -0.056992607022311043 -0.056992607022311043 0.11782579080852006 -0.037426252442239689 0.0013994041527982403 0.69791838310313026
leaf_weight=7221 850 755 16219 157 3756 1922 2255 13631 3652 11206 54 2454 1742 360 2027 355 11012 1221 1906 5480 386 1142 462 659 1237 437 2085 3087 2225 749 1803 1085 1246 4072 450 1404 1110 644 1647 3496 122 362 394 23 859 590 90 144 123 424 54 25 910 24 279 5494 4977 1339 20 2165 5105 17128
leaf_count=7221 850 755 16219 157 3756 1922 2255 13631 3652 11206 54 2454 1742 360 2027 355 11012 1221 1906 5480 386 1142 462 659 1237 437 2085 3087 2225 749 1803 1085 1246 4072 450 1404 1110 644 1647 3496 122 362 394 23 859 590 90 144 123 424 54 25 910 24 279 5494 4977 1339 20 2165 5105 17128
internal_value=1.38461e-05 0.000162865 7.11184e-05 -6.97769e-06 0.000353347 -0.000382439 -0.000412877 5.17509e-05 -1.33743e-05 0.000147894 -0.00027567 -0.000448123 -0.000493253 -0.000364659 -7.3321e-05 -0.000387157 -6.87816e-05 0.00046013 -0.000642034 0.000120965 0.000277701 -0.000438078 -0.000650619 -4.24305e-05 -0.000201693 -0.000425239 -0.000139343 0.000305523 -0.000171867 0.000133662 -4.88676e-05 -0.000132406 -0.000340965 -0.000114151 -0.000534979 0.000200545 7.87663e-05 -0.000188643 -0.000104796 -0.000286171 -0.000697268 0.000375061 -0.000841671 -0.000758662 -0.000437645 -0.0001213 -0.000422322 -0.000607772 8.67238e-05 -0.000188766 6.09487e-05 8.7012e-05 -0.000185278 -0.000257213 -3.05308e-05 -7.26005e-06 -0.000715801 -0.000689449 -0.00103512 -0.000557938 1.14907e-05 0.00051906
internal_weight=158312 115049 77649 58244 37400 43263 7362 50882 37251 23068 14183 8635 26820 14386 7126 2832 11862 25625 12434 11775 6010 5213 7260 5765 16443 3586 12857 19405 4713 4294 2552 4556 2331 5106 2477 4741 3337 1754 4101 6515 6798 1583 2649 4534 882 1664 680 530 984 547 3186 3112 4430 3520 4351 5548 6676 6316 74 4071 6342 20884
internal_count=158312 115049 77649 58244 37400 43263 7362 50882 37251 23068 14183 8635 26820 14386 7126 2832 11862 25625 12434 11775 6010 5213 7260 5765 16443 3586 12857 19405 4713 4294 2552 4556 2331 5106 2477 4741 3337 1754 4101 6515 6798 1583 2649 4534 882 1664 680 530 984 547 3186 3112 4430 3520 4351 5548 6676 6316 74 4071 6342 20884
is_linear=0
shrinkage=0.03


Tree=16
num_leaves=63
num_cat=0
split_feature=6 10 8 8 8 8 6 6 8 7 8 7 10 8 7 7 8 4 3 7 8 7 8 7 7 7 8 8 7 6 7 8 8 9 7 8 5 0 7 5 6 10 7 5 4 5 10 8 7 8 7 8 8 7 7 8 6 7 7 9 5 8
split_gain=10.1563 2.13875 1.81114 1.73314 1.68559 1.26046 1.16007 0.990289 0.687904 0.95459 0.558129 1.31839 0.513031 0.482082 0.457322 0.420482 0.414344 0.374985 0.628539 0.308581 0.292657 0.259166 0.319011 0.284285 0.2583 0.249527 0.230258 0.582567 0.221245 0.211745 0.209303 0.196129 0.19367 0.213816 0.204353 0.174957 0.174635 0.285392 0.196203 0.158996 0.154069 0.141967 0.128462 0.127445 0.122543 0.116342 0.113282 0.131854 0.111649 0.128838 0.107635 0.103865 0.42443 0.0962681 0.0954946 0.0930916 0.0982781 0.0917308 0.0912165 0.103178 0.127019 0.0903766
threshold=17.625000000000004 1.0000000180025095e-35 20.500000000000004 13.500000000000002 8.5000000000000018 5.5000000000000009 23.875000000000004 15.875000000000002 10.500000000000002 59.906250000000007 5.5000000000000009 19.656250000000004 1.0000000180025095e-35 12.500000000000002 16.843750000000004 16.468750000000004 20.500000000000004 77.500000000000014 35.500000000000007 50.093750000000007 2.5000000000000004 16.281250000000004 5.5000000000000009 21.468750000000004 59.531250000000007 17.843750000000004 12.500000000000002 13.500000000000002 94.406250000000014 76.625000000000014 16.656250000000004 17.500000000000004 22.500000000000004 4.5000000000000009 43.531250000000007 12.500000000000002 62.500000000000007 31.500000000000004 54.593750000000007 15.500000000000002 78.875000000000014 1.0000000180025095e-35 67.906250000000014 17.500000000000004 52.500000000000007 50.500000000000007 1.0000000180025095e-35 12.500000000000002 22.281250000000004 2.5000000000000004 36.468750000000007 12.500000000000002 13.500000000000002 16.656250000000004 74.343750000000014 12.500000000000002 22.125000000000004 43.531250000000007 55.843750000000007 5.5000000000000009 57.500000000000007 10.500000000000002
decision_type=2 2 2 2 2 2 2 2 2 2 2 2 2 2 2 2 2 2 2 2 2 2 2 2 2 2 2 2 2 2 2 2 2 2 2 2 2 2 2 2 2 2 2 2 2 2 2 2 2 2 2 2 2 2 2 2 2 2 2 2 2 2
left_child=7 2 3 4 5 14 25 10 9 29 15 12 26 30 -2 -1 -8 18 19 -4 57 22 -9 -23 41 35 -12 -28 45 -6 -14 -5 33 55 -34 -3 37 44 -39 -25 -11 61 -19 -31 -18 54 51 -48 -35 50 -50 -24 -53 -10 -20 56 -27 -17 59 -41 -61 -13
right_child=1 6 17 31 8 -7 16 21 53 40 11 24 13 -15 -16 20 36 42 28 -21 -22 23 46 39 -26 32 27 -29 -30 43 -32 -33 34 48 -36 -37 -38 38 -40 58 -42 -43 -44 -45 -46 -47 47 -49 49 -51 -52 52 -54 -55 -56 -57 -58 -59 -60 60 -62 -63
leaf_value=-0.055282828811641718 -0.083434240719246919 -0.030005164221971227 -0.10324003256363039 2.516449050318581 -0.075809150732358541 1.2002588379473758 0.52698083161003639 -0.056076001872897761 -0.10777855262218697 0 0.98855619865265165 -0.083509828811641693 -0.055282828811641718 0.53440067851253659 -0.00056992607022309015 -0.055282828811641718 0.025911709053580159 -0.084226049032335798 -0.054483116597910754 0.00086133763286888154 -0.00016753248160632949 0.0001107921006807544 1.0636832402094309 -0.050668657997222935 0.0011014452711350486 0 -0.056272566145456254 1.9544977891996986 -3.3802046097619607e-06 -0.28354333030707546 0.027238061818393573 1.0986955588608107 -0.056045085643417654 0.028949950816952279 0.042741572692604951 0.58741076530251579 0.58756919891914039 -0.055646107672706308 0.039494493538049902 -0.021939656444182134 -0.031210513653042751 0.045015699431027512 -3.3802046097619607e-06 -0.029355134637842752 0.10551671478046486 -0.077439938463933836 -0.05661644972088304 0.52178287292836079 0.011921211975607733 0.12677534362226731 0.14189144172440779 -0.19836363987889316 2.2138376788155409 0 -0.042699049551136556 0.93266458647008821 -0.050585191095477419 0.0053083430470070424 0.0028085686324244106 -0.058451956915046989 0.0043323312795022061 -0.055282828811641718
leaf_weight=7221 850 1216 157 15858 3616 11206 20884 1922 54 2492 1742 360 2027 355 11012 3962 888 188 988 1875 1142 6477 437 2045 462 3633 749 1803 512 23 450 13992 483 2642 244 169 1115 1172 823 2504 1693 122 4674 811 743 1467 590 90 1051 1324 371 123 424 5494 687 293 349 109 910 710 211 6316
leaf_count=7221 850 1216 157 15858 3616 11206 20884 1922 54 2492 1742 360 2027 355 11012 3962 888 188 988 1875 1142 6477 437 2045 462 3633 749 1803 512 23 450 13992 483 2642 244 169 1115 1172 823 2504 1693 122 4674 811 743 1467 590 90 1051 1324 371 123 424 5494 687 293 349 109 910 710 211 6316
