{"learner":{"attributes":{"scikit_learn":"{\"_estimator_type\": \"regressor\"}"},"feature_names":["vehicle_count","lag_1","lag_2","lag_3","lag_4","lag_96","rolling_mean_1h","rolling_mean_4h","hour","day_of_week","is_weekend","is_holiday","trend_15m","trend_1h"],"feature_types":["int","float","float","float","float","float","float","float","int","int","int","int","float","float"],"gradient_booster":{"model":{"cats":{"enc":[],"feature_segments":[],"sorted_idx":[]},"gbtree_model_param":{"num_parallel_tree":"1","num_trees":"500"},"iteration_indptr":[0,1,2,3,4,5,6,7,8,9,10,11,12,13,14,15,16,17,18,19,20,21,22,23,24,25,26,27,28,29,30,31,32,33,34,35,36,37,38,39,40,41,42,43,44,45,46,47,48,49,50,51,52,53,54,55,56,57,58,59,60,61,62,63,64,65,66,67,68,69,70,71,72,73,74,75,76,77,78,79,80,81,82,83,84,85,86,87,88,89,90,91,92,93,94,95,96,97,98,99,100,101,102,103,104,105,106,107,108,109,110,111,112,113,114,115,116,117,118,119,120,121,122,123,124,125,126,127,128,129,130,131,132,133,134,135,136,137,138,139,140,141,142,143,144,145,146,147,148,149,150,151,152,153,154,155,156,157,158,159,160,161,162,163,164,165,166,167,168,169,170,171,172,173,174,175,176,177,178,179,180,181,182,183,184,185,186,187,188,189,190,191,192,193,194,195,196,197,198,199,200,201,202,203,204,205,206,207,208,209,210,211,212,213,214,215,216,217,218,219,220,221,222,223,224,225,226,227,228,229,230,231,232,233,234,235,236,237,238,239,240,241,242,243,244,245,246,247,248,249,250,251,252,253,254,255,256,257,258,259,260,261,262,263,264,265,266,267,268,269,270,271,272,273,274,275,276,277,278,279,280,281,282,283,284,285,286,287,288,289,290,291,292,293,294,295,296,297,298,299,300,301,302,303,304,305,306,307,308,309,310,311,312,313,314,315,316,317,318,319,320,321,322,323,324,325,326,327,328,329,330,331,332,333,334,335,336,337,338,339,340,341,342,343,344,345,346,347,348,349,350,351,352,353,354,355,356,357,358,359,360,361,362,363,364,365,366,367,368,369,370,371,372,373,374,375,376,377,378,379,380,381,382,383,384,385,386,387,388,389,390,391,392,393,394,395,396,397,398,399,400,401,402,403,404,405,406,407,408,409,410,411,412,413,414,415,416,417,418,419,420,421,422,423,424,425,426,427,428,429,430,431,432,433,434,435,436,437,438,439,440,441,442,443,444,445,446,447,448,449,450,451,452,453,454,455,456,457,458,459,460,461,462,463,464,465,466,467,468,469,470,471,472,473,474,475,476,477,478,479,480,481,482,483,484,485,486,487,488,489,490,491,492,493,494,495,496,497,498,499,500],"tree_info":[0,0,0,0,0,0,0,0,0,0,0,0,0,0,0,0,0,0,0,0,0,0,0,0,0,0,0,0,0,0,0,0,0,0,0,0,0,0,0,0,0,0,0,0,0,0,0,0,0,0,0,0,0,0,0,0,0,0,0,0,0,0,0,0,0,0,0,0,0,0,0,0,0,0,0,0,0,0,0,0,0,0,0,0,0,0,0,0,0,0,0,0,0,0,0,0,0,0,0,0,0,0,0,0,0,0,0,0,0,0,0,0,0,0,0,0,0,0,0,0,0,0,0,0,0,0,0,0,0,0,0,0,0,0,0,0,0,0,0,0,0,0,0,0,0,0,0,0,0,0,0,0,0,0,0,0,0,0,0,0,0,0,0,0,0,0,0,0,0,0,0,0,0,0,0,0,0,0,0,0,0,0,0,0,0,0,0,0,0,0,0,0,0,0,0,0,0,0,0,0,0,0,0,0,0,0,0,0,0,0,0,0,0,0,0,0,0,0,0,0,0,0,0,0,0,0,0,0,0,0,0,0,0,0,0,0,0,0,0,0,0,0,0,0,0,0,0,0,0,0,0,0,0,0,0,0,0,0,0,0,0,0,0,0,0,0,0,0,0,0,0,0,0,0,0,0,0,0,0,0,0,0,0,0,0,0,0,0,0,0,0,0,0,0,0,0,0,0,0,0,0,0,0,0,0,0,0,0,0,0,0,0,0,0,0,0,0,0,0,0,0,0,0,0,0,0,0,0,0,0,0,0,0,0,0,0,0,0,0,0,0,0,0,0,0,0,0,0,0,0,0,0,0,0,0,0,0,0,0,0,0,0,0,0,0,0,0,0,0,0,0,0,0,0,0,0,0,0,0,0,0,0,0,0,0,0,0,0,0,0,0,0,0,0,0,0,0,0,0,0,0,0,0,0,0,0,0,0,0,0,0,0,0,0,0,0,0,0,0,0,0,0,0,0,0,0,0,0,0,0,0,0,0,0,0,0,0,0,0,0,0,0,0,0,0,0,0,0,0,0,0,0,0,0,0,0,0,0,0,0,0,0,0,0,0,0,0,0,0,0,0,0,0,0,0,0,0,0,0,0,0,0,0,0,0,0,0,0,0,0,0,0,0,0,0,0,0,0,0,0],"trees":[{"base_weights":[2.0699501E-2,-5.884559E-1,8.370213E-1,-6.6188216E-1,-3.906543E-1,9.12536E-1,2.4677524E-1,-7.822514E-1,-5.7416993E-1,-6.888447E-2,-6.5457916E-1,6.6657615E-1,9.925531E-1,1.5885456E-1,8.069164E-1,-9.2991084E-1,-7.146742E-1,-3.440731E-1,-7.512376E-1,-3.3541247E-1,1.485311E-1,-5.3372526E-1,-7.657363E-1,9.0858227E-1,5.619321E-2,3.9846742E-1,9.959772E-1,-1.0595303E-1,4.8486885E-1,8.305745E-1,-8.666667E-1,-9.303283E-1,-1.6666667E-1,-8.5226566E-1,-6.867493E-1,-6.290503E-2,-6.713933E-1,-7.6705605E-1,8.194444E-1,-3.0359492E-1,-6.8948656E-1,-4.0494296E-1,2.0079023E-1,-7.9653573E-1,-7.819104E-2,-8.7043583E-1,-7.059875E-1,-6.282722E-2,9.643036E-1,-6.950852E-1,2.9127434E-1,-2.9357797E-1,8.888889E-1,8.9873415E-1,2.9909706E-2,-6.72956E-1,9.376153E-2,2.0338982E-1,8.3597887E-1,8.62173E-1,-1.1764706E-1,-2.7857142E-2,-0E0,-2.7924873E-2,-1.2E-2,-2.2499999E-2,2E-2,-2.6957404E-2,-2.1015832E-2,-2.1935022E-2,-1.9730853E-2,3.617311E-3,-5.7191583E-3,-2.351086E-2,3.3229813E-3,-2.3477942E-2,-1.3251534E-2,-1.8333333E-2,2.8341707E-2,-1.0761671E-2,4.563894E-3,-2.575E-2,-1.3411764E-2,-1.647982E-2,1.1851852E-2,8.962772E-3,-3.651772E-3,-2.7488371E-2,-2.0674365E-2,-6.123755E-3,3.184183E-3,-2.694555E-2,-1.951557E-2,-2.125392E-2,1.0909091E-2,-1.3548386E-2,2.4343675E-3,2.9278107E-2,1.2403846E-2,-9.305555E-3,-2.4015345E-2,2.2727272E-2,-1.6354075E-2,2.1428572E-2,-1.9024389E-2,-7.5E-3,2.9366197E-2,-2.117647E-2,2.8689954E-2,-2.3144044E-2,-1.0944205E-2,1.8238483E-2,-7.841547E-3,-1.869565E-2,8.356435E-3,2.8243093E-2,1.8186156E-2,2.312849E-2,2.9017467E-2,1.6E-2,-1.8000001E-2],"categories":[],"categories_nodes":[],"categories_segments":[],"categories_sizes":[],"default_left":[0,0,0,0,0,0,0,0,0,0,0,0,0,0,0,0,0,0,0,0,0,0,0,0,0,0,0,0,0,0,0,0,0,0,0,0,0,0,0,0,0,0,0,0,0,0,0,0,0,0,0,0,0,0,0,0,0,0,0,0,0,0,0,0,0,0,0,0,0,0,0,0,0,0,0,0,0,0,0,0,0,0,0,0,0,0,0,0,0,0,0,0,0,0,0,0,0,0,0,0,0,0,0,0,0,0,0,0,0,0,0,0,0,0,0,0,0,0,0,0,0],"id":0,"left_children":[1,3,5,7,9,11,13,15,17,19,21,23,25,27,29,31,33,35,37,39,41,43,45,47,49,51,53,55,57,59,61,63,65,67,69,71,73,75,77,79,81,83,85,87,89,91,93,95,97,99,101,103,105,107,-1,109,111,113,115,117,119,-1,-1,-1,-1,-1,-1,-1,-1,-1,-1,-1,-1,-1,-1,-1,-1,-1,-1,-1,-1,-1,-1,-1,-1,-1,-1,-1,-1,-1,-1,-1,-1,-1,-1,-1,-1,-1,-1,-1,-1,-1,-1,-1,-1,-1,-1,-1,-1,-1,-1,-1,-1,-1,-1,-1,-1,-1,-1,-1,-1],"loss_changes":[7.872429E4,1.3164863E3,3.0152227E3,6.9759375E2,2.084476E3,1.1797812E3,3.7785025E2,2.7740234E2,1.5581504E3,6.4106323E2,1.807456E2,2.1752207E3,9.166016E1,5.7285803E2,4.193689E1,2.6323242E0,7.288574E1,1.5310017E3,5.376719E2,5.5781616E1,1.7631569E2,7.738025E2,4.331299E1,5.708428E2,7.387913E2,8.884277E1,3.5390625E0,4.147434E2,2.9375067E2,3.0872864E1,8.047619E-1,1.9492188E0,3.4166667E0,2.2013672E1,2.004004E1,2.0978255E2,6.7529834E2,1.0786133E2,3.9288605E1,1.14665405E2,1.6357925E1,6.097432E1,1.7596577E2,5.2078613E1,5.4944805E1,1.4958862E1,1.2114014E1,3.2110073E1,6.3503906E1,4.0208496E1,1.2430143E3,3.786683E1,1.59244995E1,4.4483185E1,0E0,2.8678589E1,4.948548E2,1.0280242E2,3.1487427E1,8.7821045E0,1.09960785E1,0E0,0E0,0E0,0E0,0E0,0E0,0E0,0E0,0E0,0E0,0E0,0E0,0E0,0E0,0E0,0E0,0E0,0E0,0E0,0E0,0E0,0E0,0E0,0E0,0E0,0E0,0E0,0E0,0E0,0E0,0E0,0E0,0E0,0E0,0E0,0E0,0E0,0E0,0E0,0E0,0E0,0E0,0E0,0E0,0E0,0E0,0E0,0E0,0E0,0E0,0E0,0E0,0E0,0E0,0E0,0E0,0E0,0E0,0E0,0E0],"parents":[2147483647,0,0,1,1,2,2,3,3,4,4,5,5,6,6,7,7,8,8,9,9,10,10,11,11,12,12,13,13,14,14,15,15,16,16,17,17,18,18,19,19,20,20,21,21,22,22,23,23,24,24,25,25,26,26,27,27,28,28,29,29,30,30,31,31,32,32,33,33,34,34,35,35,36,36,37,37,38,38,39,39,40,40,41,41,42,42,43,43,44,44,45,45,46,46,47,47,48,48,49,49,50,50,51,51,52,52,53,53,55,55,56,56,57,57,58,58,59,59,60,60],"right_children":[2,4,6,8,10,12,14,16,18,20,22,24,26,28,30,32,34,36,38,40,42,44,46,48,50,52,54,56,58,60,62,64,66,68,70,72,74,76,78,80,82,84,86,88,90,92,94,96,98,100,102,104,106,108,-1,110,112,114,116,118,120,-1,-1,-1,-1,-1,-1,-1,-1,-1,-1,-1,-1,-1,-1,-1,-1,-1,-1,-1,-1,-1,-1,-1,-1,-1,-1,-1,-1,-1,-1,-1,-1,-1,-1,-1,-1,-1,-1,-1,-1,-1,-1,-1,-1,-1,-1,-1,-1,-1,-1,-1,-1,-1,-1,-1,-1,-1,-1,-1,-1],"split_conditions":[3.2E1,5E0,2.1E1,6E0,6E0,1E1,1.104375E2,1.65625E1,2.175E1,2.2E1,2.20625E1,5.0875E1,2.575E1,1E0,1.43E2,3.1E1,1.55E1,4E0,4.4E1,2.3E1,2.15E1,6E0,1.725E1,7E0,7.55E1,1.4E1,3.7E1,8.60625E1,5.3E1,1.11E2,1.29E2,1.8E1,1.2E1,2E0,2E0,8E0,1.3E1,4E0,2.4E1,9E0,3.85625E1,9E0,2.1E1,1.75E1,1.4E1,5.6625E1,1.06E2,2.26875E1,1E0,5.21875E1,6.40625E1,1.1E1,3E0,2E1,1.68E0,8.45625E1,7.675E1,3.2E1,5E0,1.143125E2,2E0,-1.7999999E-1,0E0,-2.4E-1,-2.6999998E-1,-1.7999999E-1,2.1E-1,-2.4E-1,-1.4999999E-1,-1.4999999E-1,-1.4999999E-1,3.2999998E-1,-8.9999996E-2,-1.7999999E-1,2.6999998E-1,-1.7999999E-1,-8.9999996E-2,-8.9999996E-2,8.4E-1,-6E-2,6E-2,-2.4E-1,-8.9999996E-2,-1.2E-1,4.35E-1,6E-2,-3E-2,-2.4E-1,-1.4999999E-1,-1.2E-1,7.9499996E-1,-2.4E-1,-1.7999999E-1,-1.4999999E-1,7.4999996E-2,-1.2E-1,3E-2,1.62E0,8.9999996E-2,-1.7999999E-1,-2.4E-1,1.86E0,-1.2E-1,7.5E-1,-1.2E-1,-1.4999999E-1,7.8E-1,-1.95E-1,7.5E-1,-2.4E-1,-1.7999999E-1,1.35E0,-8.9999996E-2,-1.7999999E-1,3.2999998E-1,8.1E-1,4.05E-1,1.89E0,1.92E0,1.9499999E0,-1.2E-1],"split_indices":[0,9,8,8,9,8,7,7,7,6,7,7,6,10,3,1,6,9,5,8,7,8,6,8,6,8,0,7,5,2,1,12,2,8,8,8,8,9,6,8,7,8,8,7,8,7,1,7,10,7,7,8,9,1,0,7,6,4,9,7,9,0,0,0,0,0,0,0,0,0,0,0,0,0,0,0,0,0,0,0,0,0,0,0,0,0,0,0,0,0,0,0,0,0,0,0,0,0,0,0,0,0,0,0,0,0,0,0,0,0,0,0,0,0,0,0,0,0,0,0,0],"split_type":[0,0,0,0,0,0,0,0,0,0,0,0,0,0,0,0,0,0,0,0,0,0,0,0,0,0,0,0,0,0,0,0,0,0,0,0,0,0,0,0,0,0,0,0,0,0,0,0,0,0,0,0,0,0,0,0,0,0,0,0,0,0,0,0,0,0,0,0,0,0,0,0,0,0,0,0,0,0,0,0,0,0,0,0,0,0,0,0,0,0,0,0,0,0,0,0,0,0,0,0,0,0,0,0,0,0,0,0,0,0,0,0,0,0,0,0,0,0,0,0,0],"sum_hessian":[1.58312E5,9.066E4,6.7652E4,6.6115E4,2.4545E4,5.9978E4,7.674E3,2.7866E4,3.8249E4,1.1061E4,1.3484E4,1.4725E4,4.5253E4,6.634E3,1.04E3,8.745E3,1.9121E4,1.6635E4,2.1614E4,4.969E3,6.092E3,6.463E3,7.021E3,1.0544E4,4.181E3,2.6E2,4.4993E4,3.661E3,2.973E3,1.026E3,1.4E1,8.74E3,5E0,3.221E3,1.59E4,8.949E3,7.686E3,2.1399E4,2.15E2,4.561E3,4.08E2,5.25E2,5.567E3,4.098E3,2.365E3,2.546E3,4.475E3,5.72E2,9.972E3,9.96E2,3.185E3,1.08E2,1.52E2,4.73E2,4.452E4,9.53E2,2.708E3,1.651E3,1.322E3,9.93E2,3.3E1,1.3E1,1E0,8.731E3,9E0,3E0,2E0,2.464E3,7.57E2,6.278E3,9.622E3,3.673E3,5.276E3,6.721E3,9.65E2,2.0422E4,9.77E2,1.7E1,1.98E2,4.069E3,4.92E2,2.39E2,1.69E2,4.45E2,8E1,4.27E3,1.297E3,1.934E3,2.164E3,1.405E3,9.6E2,2.258E3,2.88E2,4.465E3,1E1,1.54E2,4.18E2,9.765E3,2.07E2,2.15E2,7.81E2,2.045E3,1.14E3,2.7E1,8.1E1,1.1E1,1.41E2,1.6E1,4.57E2,7.21E2,2.32E2,1.106E3,1.602E3,1.37E2,1.514E3,9.04E2,4.18E2,5.36E2,4.57E2,1.4E1,1.9E1],"tree_param":{"num_deleted":"0","num_feature":"14","num_nodes":"121","size_leaf_vector":"1"}},{"base_weights":[3.6112007E-2,-5.612998E-1,8.366961E-1,-6.711571E-1,-4.2555973E-1,9.118525E-1,2.4925081E-1,-7.9543704E-1,-5.625724E-1,-5.6064135E-1,-1.9041827E-1,6.665082E-1,9.9166924E-1,1.6247174E-1,8.0211335E-1,-9.1503465E-1,-7.089018E-1,-3.3527976E-1,-7.95188E-1,-3.830273E-1,-6.668114E-1,-4.832732E-1,1.4824178E-2,9.045045E-1,6.623625E-2,4.2145595E-1,9.949549E-1,-8.547242E-2,4.6772024E-1,8.2570595E-1,-8.666667E-1,-9.155519E-1,-4.1666666E-1,-7.853388E-1,-6.262843E-1,-9.568699E-2,-6.5589356E-1,-8.7240905E-1,-7.2005963E-1,-6.194042E-1,5.8281295E-2,-6.1799103E-1,-7.3078024E-1,-5.2071106E-1,2.2950819E-1,1.0614604E-1,-3.8781852E-1,-9.773124E-2,9.619974E-1,-6.8405217E-1,3.0100438E-1,-2.5688073E-1,9.019608E-1,8.9662445E-1,9.959794E-1,-6.593291E-1,1.1664821E-1,1.7877094E-1,8.0865103E-1,8.561368E-1,-8.82353E-2,-2.7857142E-2,-0E0,-2.7660046E-2,-2.676168E-2,-1.6363636E-2,1.5E-2,-2.6292365E-2,-2.1616897E-2,-2.2530813E-2,-1.7926484E-2,2.374169E-3,-6.4827735E-3,-2.2337561E-2,9.516616E-4,-2.6581906E-2,-1.9472295E-2,-2.2044225E-2,-9.5397495E-3,-2.684636E-2,-1.8059928E-2,-1.6333332E-2,2.2449603E-3,-1.9408705E-2,-1.7395148E-2,-2.5602449E-2,-1.896614E-2,-1.9331936E-2,-1.05738705E-2,5.512367E-3,2.347826E-2,-4.2616823E-3,7.690045E-3,-2.0067567E-2,-4.448276E-3,-1.3700787E-2,1.3422819E-4,2.9253531E-2,1.0240384E-2,-9.305555E-3,-2.359335E-2,2.31155E-2,-1.3899422E-2,2.0357141E-2,-1.719512E-2,-2.5E-3,2.9366197E-2,-2.117647E-2,2.8624453E-2,2.9592149E-2,2.995941E-2,-2.272853E-2,-1.055794E-2,1.804878E-2,-6.550218E-3,-1.6985293E-2,7.418699E-3,2.8112583E-2,1.6601307E-2,2.2793295E-2,2.9017467E-2,1.6E-2,-1.65E-2],"categories":[],"categories_nodes":[],"categories_segments":[],"categories_sizes":[],"default_left":[0,0,0,0,0,0,0,0,0,0,0,0,0,0,0,0,0,0,0,0,0,0,0,0,0,0,0,0,0,0,0,0,0,0,0,0,0,0,0,0,0,0,0,0,0,0,0,0,0,0,0,0,0,0,0,0,0,0,0,0,0,0,0,0,0,0,0,0,0,0,0,0,0,0,0,0,0,0,0,0,0,0,0,0,0,0,0,0,0,0,0,0,0,0,0,0,0,0,0,0,0,0,0,0,0,0,0,0,0,0,0,0,0,0,0,0,0,0,0,0,0,0,0],"id":1,"left_children":[1,3,5,7,9,11,13,15,17,19,21,23,25,27,29,31,33,35,37,39,41,43,45,47,49,51,53,55,57,59,61,63,65,67,69,71,73,75,77,79,81,83,85,87,89,91,93,95,97,99,101,103,105,107,109,111,113,115,117,119,121,-1,-1,-1,-1,-1,-1,-1,-1,-1,-1,-1,-1,-1,-1,-1,-1,-1,-1,-1,-1,-1,-1,-1,-1,-1,-1,-1,-1,-1,-1,-1,-1,-1,-1,-1,-1,-1,-1,-1,-1,-1,-1,-1,-1,-1,-1,-1,-1,-1,-1,-1,-1,-1,-1,-1,-1,-1,-1,-1,-1,-1,-1],"loss_changes":[7.571815E4,1.3516582E3,2.9866719E3,6.7572656E2,1.288085E3,1.1738828E3,3.6809238E2,2.4113281E2,1.41379E3,4.854707E2,8.8951984E2,2.1037334E3,8.436719E1,5.022072E2,4.1700623E1,2.1445312E0,8.513379E1,1.039191E3,7.605078E1,1.0055298E3,4.9890625E1,1.6284473E2,3.200144E2,6.0771094E2,7.3683936E2,8.53031E1,3.6367188E0,4.24826E2,2.9282922E2,2.863855E1,8.047619E-1,6.621094E-1,1.689394E0,4.0894043E1,2.2925537E1,1.6302832E2,3.5288794E2,1.9286133E1,3.952466E1,2.9559814E1,3.3588486E1,9.735596E0,8.374365E1,1.203468E2,7.576153E0,2.644807E2,1.082437E2,2.1024189E1,8.087891E1,3.7922546E1,1.1436753E3,3.263922E1,1.1676125E1,4.4368073E1,1.5234375E-1,2.8557251E1,4.402413E2,8.237039E1,4.4201782E1,9.907654E0,1.0051962E1,0E0,0E0,0E0,0E0,0E0,0E0,0E0,0E0,0E0,0E0,0E0,0E0,0E0,0E0,0E0,0E0,0E0,0E0,0E0,0E0,0E0,0E0,0E0,0E0,0E0,0E0,0E0,0E0,0E0,0E0,0E0,0E0,0E0,0E0,0E0,0E0,0E0,0E0,0E0,0E0,0E0,0E0,0E0,0E0,0E0,0E0,0E0,0E0,0E0,0E0,0E0,0E0,0E0,0E0,0E0,0E0,0E0,0E0,0E0,0E0,0E0,0E0],"parents":[2147483647,0,0,1,1,2,2,3,3,4,4,5,5,6,6,7,7,8,8,9,9,10,10,11,11,12,12,13,13,14,14,15,15,16,16,17,17,18,18,19,19,20,20,21,21,22,22,23,23,24,24,25,25,26,26,27,27,28,28,29,29,30,30,31,31,32,32,33,33,34,34,35,35,36,36,37,37,38,38,39,39,40,40,41,41,42,42,43,43,44,44,45,45,46,46,47,47,48,48,49,49,50,50,51,51,52,52,53,53,54,54,55,55,56,56,57,57,58,58,59,59,60,60],"right_children":[2,4,6,8,10,12,14,16,18,20,22,24,26,28,30,32,34,36,38,40,42,44,46,48,50,52,54,56,58,60,62,64,66,68,70,72,74,76,78,80,82,84,86,88,90,92,94,96,98,100,102,104,106,108,110,112,114,116,118,120,122,-1,-1,-1,-1,-1,-1,-1,-1,-1,-1,-1,-1,-1,-1,-1,-1,-1,-1,-1,-1,-1,-1,-1,-1,-1,-1,-1,-1,-1,-1,-1,-1,-1,-1,-1,-1,-1,-1,-1,-1,-1,-1,-1,-1,-1,-1,-1,-1,-1,-1,-1,-1,-1,-1,-1,-1,-1,-1,-1,-1,-1,-1],"split_conditions":[3.2E1,1.85E1,2.1E1,6E0,1E0,1E1,1.104375E2,1.65625E1,2.0875E1,2.20625E1,2.20625E1,5.0875E1,2.575E1,1E0,1.43E2,1.8E1,2E0,1E0,1.575E1,6E0,4.3E1,1.3E1,2.3E1,7E0,7.55E1,1.4E1,3.7E1,8.60625E1,5.2E1,1.11E2,1.29E2,1.56875E1,2E1,1.55E1,1.73125E1,8E0,1.3E1,5.96875E1,1E0,1.66875E1,1E1,2.05E1,7.8E1,5E0,2.8E1,3E0,4.4125E1,2.0875E1,1E0,5.21875E1,6.35625E1,1.1E1,3E0,2E1,5.7E1,8.45625E1,7.675E1,3.2E1,5E0,1.143125E2,2E0,-1.7459999E-1,0E0,-2.328E-1,-2.328E-1,-2.4734999E-1,3.810001E-2,-2.328E-1,-1.755E-1,-1.755E-1,-1.455E-1,2.3009999E-1,-1.173E-1,-1.782E-1,2.1899985E-2,-2.346E-1,-1.4459999E-1,-1.7459999E-1,-8.775E-2,-2.328E-1,-1.455E-1,-1.7729999E-1,3.2700002E-2,-1.4459999E-1,-1.1550001E-1,-2.346E-1,-1.4459999E-1,-1.4459999E-1,-8.820001E-2,5.919E-1,9.219E-1,-3.1799983E-2,6.0900018E-2,-1.4909998E-1,-5.7299994E-2,-1.1639997E-1,3.600025E-3,1.5713999E0,8.7299995E-2,-1.7459999E-1,-2.328E-1,1.8041999E0,-1.1639997E-1,7.2749996E-1,-1.1639997E-1,-1.455E-1,7.5659996E-1,-1.8915E-1,7.2749996E-1,7.8959996E-1,2.1095998E0,-2.328E-1,-1.7459999E-1,1.3095E0,-8.7299995E-2,-1.7459999E-1,3.201E-1,7.857E-1,3.9284998E-1,1.8333E0,1.8624E0,1.8915E0,-1.1639997E-1],"split_indices":[0,6,8,8,10,8,7,7,7,7,7,7,6,10,3,12,8,10,6,8,3,8,8,8,6,8,0,7,5,2,1,7,3,6,7,8,8,7,10,7,5,6,3,9,1,8,7,7,10,7,7,8,9,1,0,7,6,4,9,7,9,0,0,0,0,0,0,0,0,0,0,0,0,0,0,0,0,0,0,0,0,0,0,0,0,0,0,0,0,0,0,0,0,0,0,0,0,0,0,0,0,0,0,0,0,0,0,0,0,0,0,0,0,0,0,0,0,0,0,0,0,0,0],"split_type":[0,0,0,0,0,0,0,0,0,0,0,0,0,0,0,0,0,0,0,0,0,0,0,0,0,0,0,0,0,0,0,0,0,0,0,0,0,0,0,0,0,0,0,0,0,0,0,0,0,0,0,0,0,0,0,0,0,0,0,0,0,0,0,0,0,0,0,0,0,0,0,0,0,0,0,0,0,0,0,0,0,0,0,0,0,0,0,0,0,0,0,0,0,0,0,0,0,0,0,0,0,0,0,0,0,0,0,0,0,0,0,0,0,0,0,0,0,0,0,0,0,0,0],"sum_hessian":[1.58312E5,9.066E4,6.7652E4,5.0105E4,4.0555E4,5.9978E4,7.674E3,2.3361E4,2.6744E4,2.5757E4,1.4798E4,1.4725E4,4.5253E4,6.634E3,1.04E3,9.803E3,1.3558E4,1.3528E4,1.3216E4,9.638E3,1.6119E4,6.097E3,8.701E3,1.0544E4,4.181E3,2.6E2,4.4993E4,3.661E3,2.973E3,1.026E3,1.4E1,9.792E3,1.1E1,7.038E3,6.52E3,7.743E3,5.785E3,6.512E3,6.704E3,6.276E3,3.362E3,9.148E3,6.971E3,5.793E3,3.04E2,7.093E3,1.608E3,5.72E2,9.972E3,9.96E2,3.185E3,1.08E2,1.52E2,4.73E2,4.452E4,9.53E2,2.708E3,1.61E3,1.363E3,9.93E2,3.3E1,1.3E1,1E0,7.653E3,2.139E3,1E1,1E0,2.92E3,4.118E3,1.216E3,5.304E3,3.158E3,4.585E3,5.124E3,6.61E2,6.134E3,3.78E2,6.466E3,2.38E2,3.7E2,5.906E3,8.9E1,3.273E3,5.191E3,3.957E3,3.103E3,3.868E3,3.337E3,2.456E3,2.82E2,2.2E1,2.674E3,4.419E3,7.39E2,8.69E2,1.26E2,4.46E2,9.765E3,2.07E2,2.15E2,7.81E2,1.973E3,1.212E3,2.7E1,8.1E1,1.1E1,1.41E2,1.6E1,4.57E2,9.782E3,3.4738E4,7.21E2,2.32E2,1.106E3,1.602E3,1.35E2,1.475E3,9.05E2,4.58E2,5.36E2,4.57E2,1.4E1,1.9E1],"tree_param":{"num_deleted":"0","num_feature":"14","num_nodes":"123","size_leaf_vector":"1"}},{"base_weights":[3.4532856E-2,-5.6293225E-1,8.351884E-1,-6.8873835E-1,-4.4814277E-1,9.103853E-1,2.474267E-1,-8.166816E-1,-5.780738E-1,-5.603807E-1,-2.402238E-1,6.6501427E-1,9.9021083E-1,1.6066314E-1,8.001921E-1,-9.1404164E-1,-7.313447E-1,-3.4193382E-1,-8.1692827E-1,-3.949918E-1,-6.686012E-1,-5.3870916E-1,-4.7425743E-2,9.0355617E-1,6.336681E-2,4.2145595E-1,9.93488E-1,-8.601857E-2,4.6435776E-1,8.2375854E-1,-8.666667E-1,-9.1460025E-1,-3E-1,-8.023922E-1,-6.42572E-1,-1.0517013E-1,-6.713817E-1,-8.420742E-1,-6.296567E-1,-6.326248E-1,5.177305E-2,-7.6832604E-1,-6.4417547E-1,-6.5722597E-1,-9.203798E-2,-3.6571643E-1,6.67115E-2,-9.773124E-2,9.6099466E-1,-6.8405217E-1,2.972379E-1,-2.5688073E-1,9.019608E-1,8.9662445E-1,9.94497E-1,-6.593291E-1,1.1590993E-1,1.8583535E-1,8.1179136E-1,8.541247E-1,-8.82353E-2,-2.7857142E-2,-0E0,-2.7639039E-2,-2.6659824E-2,-2.4E-2,5E-3,-2.4737319E-2,-1.5619266E-2,-2.2726387E-2,-1.8323064E-2,2.1583515E-3,-6.80666E-3,-2.3034465E-2,1.1282051E-3,-2.5622668E-2,-1.0688258E-2,-2.0253967E-2,-1.5811766E-2,-2.7358739E-2,-1.8089278E-2,-1.0340532E-3,4.9698297E-3,-2.1126984E-2,-2.5093377E-2,-1.9379979E-2,2.2499999E-2,-2.6418785E-2,-1.8975243E-2,1.2349624E-2,-1.2350835E-2,-1.3556218E-2,8.087774E-3,4.830063E-3,-7.34375E-3,-1.3700787E-2,1.3422819E-4,2.9222813E-2,1.0240384E-2,-9.305555E-3,-2.359335E-2,2.3523262E-2,-1.3021978E-2,2.0357141E-2,-1.719512E-2,-2.5E-3,2.9366197E-2,-2.117647E-2,2.8624453E-2,2.9607808E-2,2.9976932E-2,-2.272853E-2,-1.055794E-2,1.7994579E-2,-6.550218E-3,-1.7173912E-2,7.643564E-3,2.7845304E-2,1.6754176E-2,2.2793295E-2,2.8886462E-2,1.6E-2,-1.65E-2],"categories":[],"categories_nodes":[],"categories_segments":[],"categories_sizes":[],"default_left":[0,0,0,0,0,0,0,0,0,0,0,0,0,0,0,0,0,0,0,0,0,0,0,0,0,0,0,0,0,0,0,0,0,0,0,0,0,0,0,0,0,0,0,0,0,0,0,0,0,0,0,0,0,0,0,0,0,0,0,0,0,0,0,0,0,0,0,0,0,0,0,0,0,0,0,0,0,0,0,0,0,0,0,0,0,0,0,0,0,0,0,0,0,0,0,0,0,0,0,0,0,0,0,0,0,0,0,0,0,0,0,0,0,0,0,0,0,0,0,0,0,0,0],"id":2,"left_children":[1,3,5,7,9,11,13,15,17,19,21,23,25,27,29,31,33,35,37,39,41,43,45,47,49,51,53,55,57,59,61,63,65,67,69,71,73,75,77,79,81,83,85,87,89,91,93,95,97,99,101,103,105,107,109,111,113,115,117,119,121,-1,-1,-1,-1,-1,-1,-1,-1,-1,-1,-1,-1,-1,-1,-1,-1,-1,-1,-1,-1,-1,-1,-1,-1,-1,-1,-1,-1,-1,-1,-1,-1,-1,-1,-1,-1,-1,-1,-1,-1,-1,-1,-1,-1,-1,-1,-1,-1,-1,-1,-1,-1,-1,-1,-1,-1,-1,-1,-1,-1,-1,-1],"loss_changes":[7.573167E4,1.3089473E3,2.9898945E3,6.119375E2,1.1062207E3,1.1741406E3,3.6796365E2,1.6598047E2,1.3080469E3,5.5079395E2,9.5652734E2,2.1133906E3,8.393359E1,4.97107E2,4.1606323E1,2.9379883E0,6.693213E1,9.098927E2,5.3770508E1,1.2931357E3,4.4833984E1,3.4525427E2,3.669455E2,6.065625E2,7.312157E2,8.53031E1,3.5039062E0,4.2401788E2,2.8763733E2,2.8516907E1,8.047619E-1,8.076172E-1,2.4666667E0,3.667505E1,1.693872E1,1.4637494E2,3.3354004E2,5.901416E1,6.031555E0,6.529956E1,4.1552204E1,1.5373291E1,3.8509277E1,2.7908936E1,2.2059007E2,1.4604968E2,2.1841891E2,2.1024189E1,8.061621E1,3.7922546E1,1.1347173E3,3.263922E1,1.1676125E1,4.4368073E1,6.1328125E-1,2.8557251E1,4.3830353E2,8.6520386E1,3.848712E1,9.467957E0,1.0051962E1,0E0,0E0,0E0,0E0,0E0,0E0,0E0,0E0,0E0,0E0,0E0,0E0,0E0,0E0,0E0,0E0,0E0,0E0,0E0,0E0,0E0,0E0,0E0,0E0,0E0,0E0,0E0,0E0,0E0,0E0,0E0,0E0,0E0,0E0,0E0,0E0,0E0,0E0,0E0,0E0,0E0,0E0,0E0,0E0,0E0,0E0,0E0,0E0,0E0,0E0,0E0,0E0,0E0,0E0,0E0,0E0,0E0,0E0,0E0,0E0,0E0,0E0],"parents":[2147483647,0,0,1,1,2,2,3,3,4,4,5,5,6,6,7,7,8,8,9,9,10,10,11,11,12,12,13,13,14,14,15,15,16,16,17,17,18,18,19,19,20,20,21,21,22,22,23,23,24,24,25,25,26,26,27,27,28,28,29,29,30,30,31,31,32,32,33,33,34,34,35,35,36,36,37,37,38,38,39,39,40,40,41,41,42,42,43,43,44,44,45,45,46,46,47,47,48,48,49,49,50,50,51,51,52,52,53,53,54,54,55,55,56,56,57,57,58,58,59,59,60,60],"right_children":[2,4,6,8,10,12,14,16,18,20,22,24,26,28,30,32,34,36,38,40,42,44,46,48,50,52,54,56,58,60,62,64,66,68,70,72,74,76,78,80,82,84,86,88,90,92,94,96,98,100,102,104,106,108,110,112,114,116,118,120,122,-1,-1,-1,-1,-1,-1,-1,-1,-1,-1,-1,-1,-1,-1,-1,-1,-1,-1,-1,-1,-1,-1,-1,-1,-1,-1,-1,-1,-1,-1,-1,-1,-1,-1,-1,-1,-1,-1,-1,-1,-1,-1,-1,-1,-1,-1,-1,-1,-1,-1,-1,-1,-1,-1,-1,-1,-1,-1,-1,-1,-1,-1],"split_conditions":[3.2E1,1.775E1,2.1E1,6E0,1E0,1E1,1.104375E2,1.65625E1,2.05E1,2.175E1,5E0,5.0875E1,2.575E1,1E0,1.43E2,1.8E1,2E0,1E0,5.8875E1,6E0,1.5E1,1.3E1,2.175E1,7E0,7.55E1,1.4E1,3.7E1,8.60625E1,5.3E1,1.11E2,1.29E2,1.56875E1,1.3E1,4.20625E1,1.73125E1,8E0,1.3E1,1E0,2.3E1,1.66875E1,1.4E1,4.2E1,1.04E2,1.6875E1,2.2E1,9E0,2.2E1,2.0875E1,1E0,5.21875E1,6.3125E1,1.1E1,3E0,2E1,6.9E1,8.45625E1,7.675E1,3.2E1,5E0,1.143125E2,2E0,-1.6936196E-1,0E0,-2.2581601E-1,-2.2581601E-1,-2.6992947E-1,1.55205345E-2,-1.9753498E-1,-1.1023498E-1,-1.7023498E-1,-1.41135E-1,2.83197E-1,-1.1378099E-1,-1.9925399E-1,2.124298E-2,-1.9981198E-1,-8.736751E-2,-1.3936196E-1,-1.09811984E-1,-2.2581601E-1,-1.41135E-1,-2.3780994E-2,1.261719E0,-1.41135E-1,-2.00262E-1,-1.40262E-1,1.3291379E0,-2.2846201E-1,-1.40262E-1,6.51243E-1,-1.1282701E-1,-8.5554026E-2,1.90221E-1,5.6373022E-2,-5.738096E-2,-1.12907976E-1,3.49205E-3,1.524258E0,8.468101E-2,-1.6936196E-1,-2.2581601E-1,1.780074E0,-1.12907976E-1,7.0567495E-1,-1.12907976E-1,-1.41135E-1,7.33902E-1,-1.8347551E-1,7.0567495E-1,8.8591194E-1,2.646312E0,-2.2581601E-1,-1.6936196E-1,1.2702149E0,-8.468101E-2,-1.6936196E-1,3.10497E-1,7.62129E-1,3.8106444E-1,1.778301E0,1.8065279E0,1.834755E0,-1.12907976E-1],"split_indices":[0,6,8,8,10,8,7,7,7,7,9,7,6,10,3,12,8,10,7,8,5,8,7,8,6,8,0,7,5,2,1,7,3,7,7,8,8,10,5,7,8,3,7,7,8,8,8,7,10,7,7,8,9,1,0,7,6,4,9,7,9,0,0,0,0,0,0,0,0,0,0,0,0,0,0,0,0,0,0,0,0,0,0,0,0,0,0,0,0,0,0,0,0,0,0,0,0,0,0,0,0,0,0,0,0,0,0,0,0,0,0,0,0,0,0,0,0,0,0,0,0,0,0],"split_type":[0,0,0,0,0,0,0,0,0,0,0,0,0,0,0,0,0,0,0,0,0,0,0,0,0,0,0,0,0,0,0,0,0,0,0,0,0,0,0,0,0,0,0,0,0,0,0,0,0,0,0,0,0,0,0,0,0,0,0,0,0,0,0,0,0,0,0,0,0,0,0,0,0,0,0,0,0,0,0,0,0,0,0,0,0,0,0,0,0,0,0,0,0,0,0,0,0,0,0,0,0,0,0,0,0,0,0,0,0,0,0,0,0,0,0,0,0,0,0,0,0,0,0],"sum_hessian":[1.58312E5,9.066E4,6.7652E4,4.3252E4,4.7408E4,5.9978E4,7.674E3,2.0057E4,2.3195E4,3.0787E4,1.6621E4,1.4725E4,4.5253E4,6.634E3,1.04E3,9.364E3,1.0693E4,1.1665E4,1.153E4,1.2179E4,1.8608E4,6.522E3,1.0099E4,1.0544E4,4.181E3,2.6E2,4.4993E4,3.661E3,2.973E3,1.026E3,1.4E1,9.355E3,9E0,5.935E3,4.758E3,6.788E3,4.877E3,1.0162E4,1.368E3,7.95E3,4.229E3,3.655E3,1.4953E4,5.154E3,1.368E3,2.665E3,7.434E3,5.72E2,9.972E3,9.96E2,3.185E3,1.08E2,1.52E2,4.73E2,4.452E4,9.53E2,2.708E3,1.651E3,1.322E3,9.93E2,3.3E1,1.3E1,1E0,7.407E3,1.948E3,4E0,5E0,5.5E3,4.35E2,1.026E3,3.732E3,2.765E3,4.023E3,4.293E3,5.84E2,9.916E3,2.46E2,9.44E2,4.24E2,7.6E2,7.19E3,2.407E3,1.822E3,1.889E3,1.766E3,1.4934E4,1.9E1,5.1E2,4.644E3,5.31E2,8.37E2,2.347E3,3.18E2,5.707E3,1.727E3,1.26E2,4.46E2,9.765E3,2.07E2,2.15E2,7.81E2,1.912E3,1.273E3,2.7E1,8.1E1,1.1E1,1.41E2,1.6E1,4.57E2,1.721E4,2.731E4,7.21E2,2.32E2,1.106E3,1.602E3,1.37E2,1.514E3,9.04E2,4.18E2,5.36E2,4.57E2,1.4E1,1.9E1],"tree_param":{"num_deleted":"0","num_feature":"14","num_nodes":"123","size_leaf_vector":"1"}},{"base_weights":[3.3357967E-2,-5.636602E-1,8.334146E-1,-6.715563E-1,-4.3034324E-1,9.092516E-1,2.4065146E-1,-7.9543704E-1,-5.633202E-1,-5.6592125E-1,-1.9433746E-1,6.643352E-1,9.8892915E-1,1.5373021E-1,7.944284E-1,-9.1503465E-1,-7.089018E-1,-3.3705375E-1,-7.948854E-1,-3.9692914E-1,-6.669355E-1,-4.9477112E-1,1.1152002E-3,9.0260786E-1,6.336681E-2,4.2145595E-1,9.9219894E-1,-8.601857E-2,4.488904E-1,8.179163E-1,-8.666667E-1,-9.155519E-1,-4.1666666E-1,-7.853388E-1,-6.262843E-1,-1.0007748E-1,-6.541652E-1,-8.7240905E-1,-7.194631E-1,-6.194042E-1,1.843592E-2,-6.1799103E-1,-7.310671E-1,-5.3335744E-1,2.1122113E-1,-3.9298892E-1,8.8395536E-2,-9.773124E-2,9.59992E-1,-6.8405217E-1,2.972379E-1,-2.5688073E-1,9.019608E-1,9.221748E-1,9.936673E-1,-6.593291E-1,1.1590993E-1,2.1283598E-1,8.220486E-1,8.480885E-1,-8.82353E-2,-2.7857142E-2,-0E0,-2.7660046E-2,-2.676168E-2,-1.6363636E-2,1.5E-2,-2.6292365E-2,-2.1616897E-2,-2.2530813E-2,-1.7926484E-2,2.260209E-3,-6.62669E-3,-2.2279022E-2,9.516616E-4,-2.6581906E-2,-1.9472295E-2,-2.2034945E-2,-9.288702E-3,-2.684636E-2,-1.8059928E-2,4.8643146E-3,-2.8095238E-3,-1.9408705E-2,-1.7395148E-2,-2.5602449E-2,-1.8981649E-2,-1.9348089E-2,-1.1051925E-2,4.911032E-3,2.347826E-2,-1.6041236E-2,2.4244186E-2,4.233945E-3,-1.0236612E-2,-1.3700787E-2,1.3422819E-4,2.9192096E-2,1.0240384E-2,-9.305555E-3,-2.359335E-2,2.3523262E-2,-1.3021978E-2,2.0357141E-2,-1.719512E-2,-2.5E-3,2.9366197E-2,2.9307691E-2,-2.4827586E-2,2.117647E-2,2.9819345E-2,-2.272853E-2,-1.055794E-2,1.7994579E-2,-6.550218E-3,-1.6267605E-2,8.293698E-3,2.7398648E-2,1.5396226E-2,2.2569831E-2,2.8755458E-2,1.6E-2,-1.65E-2],"categories":[],"categories_nodes":[],"categories_segments":[],"categories_sizes":[],"default_left":[0,0,0,0,0,0,0,0,0,0,0,0,0,0,0,0,0,0,0,0,0,0,0,0,0,0,0,0,0,0,0,0,0,0,0,0,0,0,0,0,0,0,0,0,0,0,0,0,0,0,0,0,0,0,0,0,0,0,0,0,0,0,0,0,0,0,0,0,0,0,0,0,0,0,0,0,0,0,0,0,0,0,0,0,0,0,0,0,0,0,0,0,0,0,0,0,0,0,0,0,0,0,0,0,0,0,0,0,0,0,0,0,0,0,0,0,0,0,0,0,0,0,0],"id":3,"left_children":[1,3,5,7,9,11,13,15,17,19,21,23,25,27,29,31,33,35,37,39,41,43,45,47,49,51,53,55,57,59,61,63,65,67,69,71,73,75,77,79,81,83,85,87,89,91,93,95,97,99,101,103,105,107,109,111,113,115,117,119,121,-1,-1,-1,-1,-1,-1,-1,-1,-1,-1,-1,-1,-1,-1,-1,-1,-1,-1,-1,-1,-1,-1,-1,-1,-1,-1,-1,-1,-1,-1,-1,-1,-1,-1,-1,-1,-1,-1,-1,-1,-1,-1,-1,-1,-1,-1,-1,-1,-1,-1,-1,-1,-1,-1,-1,-1,-1,-1,-1,-1,-1,-1],"loss_changes":[7.561842E4,1.3038145E3,3.0410078E3,6.713906E2,1.2975693E3,1.1697969E3,3.6931387E2,2.4113281E2,1.4010479E3,4.3943945E2,8.69006E2,2.1086226E3,8.355078E1,4.695597E2,4.1324036E1,2.1445312E0,8.513379E1,1.01661035E3,7.665332E1,8.907356E2,5.0146973E1,1.5901318E2,3.0847748E2,6.0541406E2,7.312157E2,8.53031E1,3.7070312E0,4.2401788E2,2.6179175E2,2.8153687E1,8.047619E-1,6.621094E-1,1.689394E0,4.0894043E1,2.2925537E1,1.6413217E2,3.5111646E2,1.9286133E1,4.1088623E1,2.9559814E1,5.4185535E1,9.735596E0,8.334985E1,1.01566284E2,8.099054E0,2.7721423E2,1.6639006E2,2.1024189E1,8.035547E1,3.7922546E1,1.1347173E3,3.263922E1,1.1676125E1,9.066547E1,3.2382812E0,2.8557251E1,4.3830353E2,8.772549E1,3.1992981E1,9.789978E0,1.0051962E1,0E0,0E0,0E0,0E0,0E0,0E0,0E0,0E0,0E0,0E0,0E0,0E0,0E0,0E0,0E0,0E0,0E0,0E0,0E0,0E0,0E0,0E0,0E0,0E0,0E0,0E0,0E0,0E0,0E0,0E0,0E0,0E0,0E0,0E0,0E0,0E0,0E0,0E0,0E0,0E0,0E0,0E0,0E0,0E0,0E0,0E0,0E0,0E0,0E0,0E0,0E0,0E0,0E0,0E0,0E0,0E0,0E0,0E0,0E0,0E0,0E0,0E0],"parents":[2147483647,0,0,1,1,2,2,3,3,4,4,5,5,6,6,7,7,8,8,9,9,10,10,11,11,12,12,13,13,14,14,15,15,16,16,17,17,18,18,19,19,20,20,21,21,22,22,23,23,24,24,25,25,26,26,27,27,28,28,29,29,30,30,31,31,32,32,33,33,34,34,35,35,36,36,37,37,38,38,39,39,40,40,41,41,42,42,43,43,44,44,45,45,46,46,47,47,48,48,49,49,50,50,51,51,52,52,53,53,54,54,55,55,56,56,57,57,58,58,59,59,60,60],"right_children":[2,4,6,8,10,12,14,16,18,20,22,24,26,28,30,32,34,36,38,40,42,44,46,48,50,52,54,56,58,60,62,64,66,68,70,72,74,76,78,80,82,84,86,88,90,92,94,96,98,100,102,104,106,108,110,112,114,116,118,120,122,-1,-1,-1,-1,-1,-1,-1,-1,-1,-1,-1,-1,-1,-1,-1,-1,-1,-1,-1,-1,-1,-1,-1,-1,-1,-1,-1,-1,-1,-1,-1,-1,-1,-1,-1,-1,-1,-1,-1,-1,-1,-1,-1,-1,-1,-1,-1,-1,-1,-1,-1,-1,-1,-1,-1,-1,-1,-1,-1,-1,-1,-1],"split_conditions":[3.2E1,1.85E1,2.1E1,6E0,1E0,1E1,1.104375E2,1.65625E1,2.0875E1,2.20625E1,2.15E1,5.0875E1,2.575E1,1E0,1.43E2,1.8E1,2E0,1E0,1.575E1,6E0,4.3E1,1.3E1,5E0,7E0,7.55E1,1.4E1,1.1E1,8.60625E1,5.8E1,1.11E2,1.29E2,1.56875E1,2E1,1.55E1,1.73125E1,8E0,1.3E1,5.96875E1,1E0,1.66875E1,8E0,2.05E1,7.8E1,5E0,2.8E1,3.7E1,2.3E1,2.0875E1,1E0,5.21875E1,6.3125E1,1.1E1,3E0,4.5E1,2.7E1,8.45625E1,7.675E1,3.2E1,5E0,1.143125E2,2E0,-1.6428113E-1,0E0,-2.1904151E-1,-2.1904151E-1,-2.3249327E-1,3.649143E-2,-2.1988998E-1,-1.6430895E-1,-1.6600095E-1,-1.3690098E-1,2.1930572E-1,-1.1036757E-1,-1.6687642E-1,2.0605717E-2,-2.2156763E-1,-1.3608111E-1,-1.6512795E-1,-8.2946286E-2,-2.1904151E-1,-1.3690098E-1,4.3983242E-1,-3.6132544E-2,-1.3605411E-1,-1.0782715E-1,-2.2155412E-1,-1.3605411E-1,-1.3605411E-1,-8.2987405E-2,5.5460566E-1,8.747057E-1,-1.12196155E-1,6.734357E-1,3.0794447E-2,-8.565954E-2,-1.09520756E-1,3.3872793E-3,1.4785302E0,8.2140595E-2,-1.6428113E-1,-2.1904151E-1,1.7266717E0,-1.09520756E-1,6.845047E-1,-1.09520756E-1,-1.3690098E-1,7.118849E-1,8.593346E-1,-1.9181831E-1,9.043346E-1,1.5169226E0,-2.1904151E-1,-1.6428113E-1,1.2321086E0,-8.2140595E-2,-1.3428114E-1,3.3118206E-1,7.3926514E-1,4.596325E-1,1.7249519E0,1.7523321E0,1.7797123E0,-1.09520756E-1],"split_indices":[0,6,8,8,10,8,7,7,7,7,7,7,6,10,3,12,8,10,6,8,3,8,9,8,6,8,8,7,5,2,1,7,3,6,7,8,8,7,10,7,8,6,3,9,1,5,8,7,10,7,7,8,9,4,6,7,6,4,9,7,9,0,0,0,0,0,0,0,0,0,0,0,0,0,0,0,0,0,0,0,0,0,0,0,0,0,0,0,0,0,0,0,0,0,0,0,0,0,0,0,0,0,0,0,0,0,0,0,0,0,0,0,0,0,0,0,0,0,0,0,0,0,0],"split_type":[0,0,0,0,0,0,0,0,0,0,0,0,0,0,0,0,0,0,0,0,0,0,0,0,0,0,0,0,0,0,0,0,0,0,0,0,0,0,0,0,0,0,0,0,0,0,0,0,0,0,0,0,0,0,0,0,0,0,0,0,0,0,0,0,0,0,0,0,0,0,0,0,0,0,0,0,0,0,0,0,0,0,0,0,0,0,0,0,0,0,0,0,0,0,0,0,0,0,0,0,0,0,0,0,0,0,0,0,0,0,0,0,0,0,0,0,0,0,0,0,0,0,0],"sum_hessian":[1.58312E5,9.066E4,6.7652E4,5.0105E4,4.0555E4,5.9978E4,7.674E3,2.3361E4,2.6744E4,2.5757E4,1.4798E4,1.4725E4,4.5253E4,6.634E3,1.04E3,9.803E3,1.3558E4,1.3528E4,1.3216E4,9.638E3,1.6119E4,5.832E3,8.966E3,1.0544E4,4.181E3,2.6E2,4.4993E4,3.661E3,2.973E3,1.026E3,1.4E1,9.792E3,1.1E1,7.038E3,6.52E3,7.743E3,5.785E3,6.512E3,6.704E3,6.276E3,3.362E3,9.148E3,6.971E3,5.53E3,3.02E2,1.625E3,7.341E3,5.72E2,9.972E3,9.96E2,3.185E3,1.08E2,1.52E2,9.37E2,4.4056E4,9.53E2,2.708E3,1.822E3,1.151E3,9.93E2,3.3E1,1.3E1,1E0,7.653E3,2.139E3,1E1,1E0,2.92E3,4.118E3,1.216E3,5.304E3,3.158E3,4.585E3,5.124E3,6.61E2,6.134E3,3.78E2,6.466E3,2.38E2,3.7E2,5.906E3,1.473E3,1.889E3,5.191E3,3.957E3,3.103E3,3.868E3,3.297E3,2.233E3,2.8E2,2.2E1,1.454E3,1.71E2,6.539E3,8.02E2,1.26E2,4.46E2,9.765E3,2.07E2,2.15E2,7.81E2,1.912E3,1.273E3,2.7E1,8.1E1,1.1E1,1.41E2,9.09E2,2.8E1,5E1,4.4006E4,7.21E2,2.32E2,1.106E3,1.602E3,1.41E2,1.681E3,8.87E2,2.64E2,5.36E2,4.57E2,1.4E1,1.9E1],"tree_param":{"num_deleted":"0","num_feature":"14","num_nodes":"123","size_leaf_vector":"1"}},{"base_weights":[3.123559E-2,-5.6538093E-1,8.30754E-1,-6.897556E-1,-4.5189732E-1,9.07651E-1,2.2970684E-1,-8.166816E-1,-5.7997066E-1,-5.6551254E-1,-2.4142702E-1,6.624338E-1,9.874265E-1,1.4137152E-1,7.9250723E-1,-9.1404164E-1,-7.313447E-1,-3.458769E-1,-8.167548E-1,-4.0779966E-1,-6.687087E-1,-5.402422E-1,-4.8415843E-2,9.003319E-1,6.241033E-2,4.2145595E-1,9.9068767E-1,-8.711087E-2,4.226631E-1,8.159688E-1,-8.666667E-1,-9.1460025E-1,-3E-1,-8.023922E-1,-6.42572E-1,-1.1194579E-1,-6.713817E-1,-8.418774E-1,-6.296567E-1,-6.326248E-1,1.48936175E-2,-7.688731E-1,-6.4417547E-1,-6.5722597E-1,-9.9342585E-2,-3.5826772E-1,7.00698E-2,-9.773124E-2,9.5758545E-1,-6.8405217E-1,2.9598242E-1,-2.5688073E-1,9.019608E-1,9.2004263E-1,9.9216926E-1,-6.593291E-1,1.1443337E-1,1.3619855E-1,7.8004533E-1,8.460765E-1,-8.82353E-2,-2.7857142E-2,-0E0,-2.7639039E-2,-2.6659824E-2,-2.4E-2,5E-3,-2.4737319E-2,-1.5619266E-2,-2.2726387E-2,-1.8323064E-2,-7.1318215E-3,2.0957869E-3,-2.3034465E-2,1.1282051E-3,-2.5616618E-2,-1.0688258E-2,-2.0253967E-2,-1.5811766E-2,-2.7358739E-2,-1.8089278E-2,4.3756724E-3,-2.6295828E-3,-2.115873E-2,-2.5093377E-2,-1.9379979E-2,2.2499999E-2,-2.6418785E-2,-1.8975243E-2,1.1785714E-2,-1.2350835E-2,-1.3298088E-2,7.946429E-3,5.0268816E-3,-7.34375E-3,-1.3700787E-2,1.3422819E-4,2.911837E-2,1.0240384E-2,-9.305555E-3,-2.359335E-2,2.3460532E-2,-1.3021978E-2,2.0357141E-2,-1.719512E-2,-2.5E-3,2.9366197E-2,2.9241757E-2,-2.4827586E-2,2.117647E-2,2.9774355E-2,-2.272853E-2,-1.055794E-2,1.7886179E-2,-6.550218E-3,-1.673913E-2,5.9801983E-3,2.7447512E-2,1.4606205E-2,2.601047E-2,9.749999E-3,1.6E-2,-1.65E-2],"categories":[],"categories_nodes":[],"categories_segments":[],"categories_sizes":[],"default_left":[0,0,0,0,0,0,0,0,0,0,0,0,0,0,0,0,0,0,0,0,0,0,0,0,0,0,0,0,0,0,0,0,0,0,0,0,0,0,0,0,0,0,0,0,0,0,0,0,0,0,0,0,0,0,0,0,0,0,0,0,0,0,0,0,0,0,0,0,0,0,0,0,0,0,0,0,0,0,0,0,0,0,0,0,0,0,0,0,0,0,0,0,0,0,0,0,0,0,0,0,0,0,0,0,0,0,0,0,0,0,0,0,0,0,0,0,0,0,0,0,0,0,0],"id":4,"left_children":[1,3,5,7,9,11,13,15,17,19,21,23,25,27,29,31,33,35,37,39,41,43,45,47,49,51,53,55,57,59,61,63,65,67,69,71,73,75,77,79,81,83,85,87,89,91,93,95,97,99,101,103,105,107,109,111,113,115,117,119,121,-1,-1,-1,-1,-1,-1,-1,-1,-1,-1,-1,-1,-1,-1,-1,-1,-1,-1,-1,-1,-1,-1,-1,-1,-1,-1,-1,-1,-1,-1,-1,-1,-1,-1,-1,-1,-1,-1,-1,-1,-1,-1,-1,-1,-1,-1,-1,-1,-1,-1,-1,-1,-1,-1,-1,-1,-1,-1,-1,-1,-1,-1],"loss_changes":[7.5516695E4,1.2793223E3,3.126629E3,6.022383E2,1.1335371E3,1.1726758E3,3.8145178E2,1.6598047E2,1.2854648E3,5.0081348E2,9.586423E2,2.1019985E3,8.3109375E1,4.264694E2,4.1230103E1,2.9379883E0,6.693213E1,8.882407E2,5.367041E1,1.1575001E3,4.52334E1,3.3637854E2,3.7082635E2,6.026631E2,7.293459E2,8.53031E1,3.796875E0,4.22404E2,3.0436395E2,2.8033142E1,8.047619E-1,8.076172E-1,2.4666667E0,3.667505E1,1.693872E1,1.5526587E2,3.3354004E2,5.896631E1,6.031555E0,6.529956E1,5.6820385E1,1.5117676E1,3.8509277E1,2.7908936E1,2.1063116E2,1.481123E2,2.2434229E2,2.1024189E1,7.9728516E1,3.7922546E1,1.1308256E3,3.263922E1,1.1676125E1,9.044653E1,3.1953125E0,2.8557251E1,4.3444083E2,7.251976E1,5.186682E1,1.056366E1,1.0051962E1,0E0,0E0,0E0,0E0,0E0,0E0,0E0,0E0,0E0,0E0,0E0,0E0,0E0,0E0,0E0,0E0,0E0,0E0,0E0,0E0,0E0,0E0,0E0,0E0,0E0,0E0,0E0,0E0,0E0,0E0,0E0,0E0,0E0,0E0,0E0,0E0,0E0,0E0,0E0,0E0,0E0,0E0,0E0,0E0,0E0,0E0,0E0,0E0,0E0,0E0,0E0,0E0,0E0,0E0,0E0,0E0,0E0,0E0,0E0,0E0,0E0,0E0],"parents":[2147483647,0,0,1,1,2,2,3,3,4,4,5,5,6,6,7,7,8,8,9,9,10,10,11,11,12,12,13,13,14,14,15,15,16,16,17,17,18,18,19,19,20,20,21,21,22,22,23,23,24,24,25,25,26,26,27,27,28,28,29,29,30,30,31,31,32,32,33,33,34,34,35,35,36,36,37,37,38,38,39,39,40,40,41,41,42,42,43,43,44,44,45,45,46,46,47,47,48,48,49,49,50,50,51,51,52,52,53,53,54,54,55,55,56,56,57,57,58,58,59,59,60,60],"right_children":[2,4,6,8,10,12,14,16,18,20,22,24,26,28,30,32,34,36,38,40,42,44,46,48,50,52,54,56,58,60,62,64,66,68,70,72,74,76,78,80,82,84,86,88,90,92,94,96,98,100,102,104,106,108,110,112,114,116,118,120,122,-1,-1,-1,-1,-1,-1,-1,-1,-1,-1,-1,-1,-1,-1,-1,-1,-1,-1,-1,-1,-1,-1,-1,-1,-1,-1,-1,-1,-1,-1,-1,-1,-1,-1,-1,-1,-1,-1,-1,-1,-1,-1,-1,-1,-1,-1,-1,-1,-1,-1,-1,-1,-1,-1,-1,-1,-1,-1,-1,-1,-1,-1],"split_conditions":[3.2E1,1.775E1,2.1E1,6E0,1E0,1E1,1.104375E2,1.65625E1,2.05E1,2.175E1,5E0,5.0875E1,2.575E1,1E0,1.43E2,1.8E1,2E0,1E0,5.8875E1,6E0,1.5E1,1.3E1,2.20625E1,7E0,7.55E1,1.4E1,1.1E1,8.60625E1,5.3E1,1.11E2,1.29E2,1.56875E1,1.3E1,4.20625E1,1.73125E1,1.4E1,1.3E1,1E0,2.3E1,1.66875E1,8E0,4.2E1,1.04E2,1.6875E1,2.2E1,9E0,2.2E1,2.0875E1,1E0,5.21875E1,6.3125E1,1.1E1,3E0,4.5E1,2.7E1,8.45625E1,7.675E1,3.2E1,5E0,1.2E2,2E0,-1.5935268E-1,0E0,-2.1247026E-1,-2.1247026E-1,-2.548568E-1,2.2029705E-2,-1.8667968E-1,-1.0199867E-1,-1.6014794E-1,-1.3279392E-1,-1.3615654E-1,6.4294344E-1,-1.8827012E-1,1.9987565E-2,-1.8841375E-1,-8.225807E-2,-1.3022724E-1,-1.0156377E-1,-2.1247026E-1,-1.3279392E-1,3.6733124E-1,-5.5227555E-2,-1.3366619E-1,-1.9017248E-1,-1.3197246E-1,1.2933456E0,-2.1739385E-1,-1.3197246E-1,6.084645E-1,-1.06076315E-1,-8.0497794E-2,1.7762895E-1,5.375799E-2,-5.308977E-2,-1.0623516E-1,3.285656E-3,1.4341742E0,7.96764E-2,-1.5935268E-1,-2.1247026E-1,1.6748717E0,-1.0623516E-1,6.639695E-1,-1.0623516E-1,-1.3279392E-1,6.9052833E-1,8.3355457E-1,-1.8606377E-1,8.7720454E-1,1.4714149E0,-2.1247026E-1,-1.5935268E-1,1.1951452E0,-7.96764E-2,-1.602527E-1,2.912466E-1,7.1708715E-1,3.647522E-1,1.6997621E0,1.6132033E0,1.7263209E0,-1.0623516E-1],"split_indices":[0,6,8,8,10,8,7,7,7,7,9,7,6,10,3,12,8,10,7,8,5,8,7,8,6,8,8,7,5,2,1,7,3,7,7,8,8,10,5,7,8,3,7,7,8,8,8,7,10,7,7,8,9,4,6,7,6,4,9,1,9,0,0,0,0,0,0,0,0,0,0,0,0,0,0,0,0,0,0,0,0,0,0,0,0,0,0,0,0,0,0,0,0,0,0,0,0,0,0,0,0,0,0,0,0,0,0,0,0,0,0,0,0,0,0,0,0,0,0,0,0,0,0],"split_type":[0,0,0,0,0,0,0,0,0,0,0,0,0,0,0,0,0,0,0,0,0,0,0,0,0,0,0,0,0,0,0,0,0,0,0,0,0,0,0,0,0,0,0,0,0,0,0,0,0,0,0,0,0,0,0,0,0,0,0,0,0,0,0,0,0,0,0,0,0,0,0,0,0,0,0,0,0,0,0,0,0,0,0,0,0,0,0,0,0,0,0,0,0,0,0,0,0,0,0,0,0,0,0,0,0,0,0,0,0,0,0,0,0,0,0,0,0,0,0,0,0,0,0],"sum_hessian":[1.58312E5,9.066E4,6.7652E4,4.3252E4,4.7408E4,5.9978E4,7.674E3,2.0057E4,2.3195E4,3.0787E4,1.6621E4,1.4725E4,4.5253E4,6.634E3,1.04E3,9.364E3,1.0693E4,1.1665E4,1.153E4,1.2179E4,1.8608E4,6.522E3,1.0099E4,1.0544E4,4.181E3,2.6E2,4.4993E4,3.661E3,2.973E3,1.026E3,1.4E1,9.355E3,9E0,5.935E3,4.758E3,6.788E3,4.877E3,1.0162E4,1.368E3,7.95E3,4.229E3,3.655E3,1.4953E4,5.154E3,1.368E3,2.793E3,7.306E3,5.72E2,9.972E3,9.96E2,3.185E3,1.08E2,1.52E2,9.37E2,4.4056E4,9.53E2,2.708E3,1.651E3,1.322E3,9.93E2,3.3E1,1.3E1,1E0,7.407E3,1.948E3,4E0,5E0,5.5E3,4.35E2,1.026E3,3.732E3,4.012E3,2.776E3,4.293E3,5.84E2,9.916E3,2.46E2,9.44E2,4.24E2,7.6E2,7.19E3,1.857E3,2.372E3,1.889E3,1.766E3,1.4934E4,1.9E1,5.1E2,4.644E3,5.31E2,8.37E2,2.458E3,3.35E2,5.579E3,1.727E3,1.26E2,4.46E2,9.765E3,2.07E2,2.15E2,7.81E2,1.912E3,1.273E3,2.7E1,8.1E1,1.1E1,1.41E2,9.09E2,2.8E1,5E1,4.4006E4,7.21E2,2.32E2,1.106E3,1.602E3,1.37E2,1.514E3,9.04E2,4.18E2,9.54E2,3.9E1,1.4E1,1.9E1],"tree_param":{"num_deleted":"0","num_feature":"14","num_nodes":"123","size_leaf_vector":"1"}},{"base_weights":[3.613727E-2,-5.5578476E-1,8.2936454E-1,-6.235858E-1,-3.7313616E-1,9.059504E-1,2.3074919E-1,-7.2946495E-1,-5.4643136E-1,-7.313325E-2,-6.1920655E-1,6.6324866E-1,9.849074E-1,1.4257725E-1,7.9250723E-1,-8.68397E-1,-6.6588223E-1,-3.4401298E-1,-7.0219755E-1,-3.1488934E-1,1.24076806E-1,-5.119121E-1,-7.178866E-1,8.993836E-1,6.767097E-2,4.2145595E-1,9.88154E-1,-8.055707E-2,4.1728312E-1,8.159688E-1,-8.666667E-1,-8.7904936E-1,-8.230036E-1,-7.6736563E-1,-6.338948E-1,-8.480447E-2,-6.457656E-1,-7.1752334E-1,8.194444E-1,-2.8430513E-1,-6.5525675E-1,-3.555133E-1,1.6936064E-1,-7.4798733E-1,-1.0270499E-1,-8.1900275E-1,-6.6018766E-1,-9.773124E-2,9.565828E-1,-6.6198593E-1,2.9598242E-1,-2.5688073E-1,9.019608E-1,9.753764E-1,2.994629E-2,-6.341719E-1,1.1443337E-1,1.3619855E-1,7.679516E-1,8.460765E-1,-8.82353E-2,-2.7857142E-2,-0E0,-2.6386412E-2,-0E0,-2.5386166E-2,-1.9105263E-2,-2.453284E-2,-1.9333832E-2,-2.0897739E-2,-1.8534059E-2,2.6374522E-3,-6.151222E-3,-2.2497768E-2,2.3913044E-3,-2.1995788E-2,-1.1687117E-2,-1.8333333E-2,2.8341707E-2,-1.0076167E-2,4.2596348E-3,-2.5124999E-2,-1.1823529E-2,-1.4596412E-2,1.111111E-2,7.0662606E-3,-1.4560863E-3,-2.5767442E-2,-1.9454965E-2,2.4819027E-3,-6.9214287E-3,-2.5471447E-2,-1.7439445E-2,-1.9957168E-2,-2.926829E-3,-1.3700787E-2,1.3422819E-4,2.908765E-2,1.0240384E-2,-9.305555E-3,-2.274936E-2,2.3460532E-2,-1.3021978E-2,2.0357141E-2,-1.719512E-2,-2.5E-3,2.9366197E-2,2.5185185E-2,2.934464E-2,-2.1731302E-2,-1.055794E-2,1.7886179E-2,-6.550218E-3,-1.673913E-2,5.9801983E-3,2.7447512E-2,1.346062E-2,2.601047E-2,9.749999E-3,1.6E-2,-1.65E-2],"categories":[],"categories_nodes":[],"categories_segments":[],"categories_sizes":[],"default_left":[0,0,0,0,0,0,0,0,0,0,0,0,0,0,0,0,0,0,0,0,0,0,0,0,0,0,0,0,0,0,0,0,0,0,0,0,0,0,0,0,0,0,0,0,0,0,0,0,0,0,0,0,0,0,0,0,0,0,0,0,0,0,0,0,0,0,0,0,0,0,0,0,0,0,0,0,0,0,0,0,0,0,0,0,0,0,0,0,0,0,0,0,0,0,0,0,0,0,0,0,0,0,0,0,0,0,0,0,0,0,0,0,0,0,0,0,0,0,0,0,0],"id":5,"left_children":[1,3,5,7,9,11,13,15,17,19,21,23,25,27,29,31,33,35,37,39,41,43,45,47,49,51,53,55,57,59,61,63,65,67,69,71,73,75,77,79,81,83,85,87,89,91,93,95,97,99,101,103,105,107,-1,109,111,113,115,117,119,-1,-1,-1,-1,-1,-1,-1,-1,-1,-1,-1,-1,-1,-1,-1,-1,-1,-1,-1,-1,-1,-1,-1,-1,-1,-1,-1,-1,-1,-1,-1,-1,-1,-1,-1,-1,-1,-1,-1,-1,-1,-1,-1,-1,-1,-1,-1,-1,-1,-1,-1,-1,-1,-1,-1,-1,-1,-1,-1,-1],"loss_changes":[7.433296E4,1.1224902E3,3.101375E3,5.3970703E2,1.8119851E3,1.1487227E3,3.8003967E2,2.4559082E2,1.2057783E3,5.274391E2,1.4240967E2,2.0709556E3,8.236328E1,4.0673462E2,4.1230103E1,3.505371E0,6.1586914E1,1.3011608E3,5.0465918E2,5.155072E1,1.3238599E2,6.2436914E2,4.042798E1,6.0151855E2,6.968713E2,8.53031E1,4.8085938E0,3.95384E2,2.9303516E2,2.8033142E1,8.047619E-1,3.0927734E0,6.7088623E0,2.782837E1,1.4244629E1,1.8588406E2,5.809324E2,1.0968652E2,3.9288605E1,1.0033276E2,1.9134583E1,5.0210846E1,8.0305984E1,4.4679443E1,5.618181E1,1.7695679E1,1.2655762E1,2.1024189E1,7.946777E1,3.355069E1,1.1308256E3,3.263922E1,1.1676125E1,6.673828E0,0E0,2.4033386E1,4.3444083E2,7.251976E1,6.166577E1,1.056366E1,1.0051962E1,0E0,0E0,0E0,0E0,0E0,0E0,0E0,0E0,0E0,0E0,0E0,0E0,0E0,0E0,0E0,0E0,0E0,0E0,0E0,0E0,0E0,0E0,0E0,0E0,0E0,0E0,0E0,0E0,0E0,0E0,0E0,0E0,0E0,0E0,0E0,0E0,0E0,0E0,0E0,0E0,0E0,0E0,0E0,0E0,0E0,0E0,0E0,0E0,0E0,0E0,0E0,0E0,0E0,0E0,0E0,0E0,0E0,0E0,0E0,0E0],"parents":[2147483647,0,0,1,1,2,2,3,3,4,4,5,5,6,6,7,7,8,8,9,9,10,10,11,11,12,12,13,13,14,14,15,15,16,16,17,17,18,18,19,19,20,20,21,21,22,22,23,23,24,24,25,25,26,26,27,27,28,28,29,29,30,30,31,31,32,32,33,33,34,34,35,35,36,36,37,37,38,38,39,39,40,40,41,41,42,42,43,43,44,44,45,45,46,46,47,47,48,48,49,49,50,50,51,51,52,52,53,53,55,55,56,56,57,57,58,58,59,59,60,60],"right_children":[2,4,6,8,10,12,14,16,18,20,22,24,26,28,30,32,34,36,38,40,42,44,46,48,50,52,54,56,58,60,62,64,66,68,70,72,74,76,78,80,82,84,86,88,90,92,94,96,98,100,102,104,106,108,-1,110,112,114,116,118,120,-1,-1,-1,-1,-1,-1,-1,-1,-1,-1,-1,-1,-1,-1,-1,-1,-1,-1,-1,-1,-1,-1,-1,-1,-1,-1,-1,-1,-1,-1,-1,-1,-1,-1,-1,-1,-1,-1,-1,-1,-1,-1,-1,-1,-1,-1,-1,-1,-1,-1,-1,-1,-1,-1,-1,-1,-1,-1,-1,-1],"split_conditions":[3.2E1,5E0,2.1E1,6E0,6E0,1E1,1.104375E2,1.65625E1,2.175E1,2.2E1,2.20625E1,5.0875E1,2.575E1,1E0,1.43E2,1.9E1,1.625E1,4E0,4.4E1,2.3E1,2.15E1,6E0,1.725E1,7E0,7.55E1,1.4E1,7.4E1,8.60625E1,5.3E1,1.11E2,1.29E2,3.1E1,1.6125E1,2E0,1.5E1,8E0,1.3E1,4E0,2.4E1,9E0,3.85625E1,9E0,2.1E1,1.75E1,7E0,5.6625E1,9.8E1,2.0875E1,1E0,5.21875E1,6.3125E1,1.1E1,3E0,2.6E1,2.5972724E0,8.45625E1,7.675E1,3.2E1,5E0,1.2E2,2E0,-1.5457208E-1,0E0,-2.0609613E-1,-5.120038E-2,-2.0609613E-1,-1.7609613E-1,-2.0769286E-1,-1.2881012E-1,-1.2883632E-1,-1.2881012E-1,2.9561752E-1,-9.634489E-2,-1.5608065E-1,2.5938794E-1,-1.5801327E-1,-7.5647965E-2,-9.499798E-2,7.5497866E-1,-6.1473828E-2,6.358649E-2,-2.2244316E-1,-7.969711E-2,-1.0628282E-1,4.1605008E-1,5.49262E-2,-2.85367E-2,-2.0609613E-1,-1.2881012E-1,8.107066E-1,-1.228949E-1,-2.0746821E-1,-1.4926821E-1,-1.3063316E-1,-8.913288E-3,-1.0304809E-1,3.187065E-3,1.391149E0,7.7286124E-2,-1.5457208E-1,-2.0609613E-1,1.6246254E0,-1.0304809E-1,6.440505E-1,-1.0304809E-1,-1.2881012E-1,6.698125E-1,7.9008454E-1,7.9008454E-1,-2.0609613E-1,-1.5457208E-1,1.1592909E0,-7.7286124E-2,-1.554451E-1,2.8250918E-1,6.955746E-1,3.5380965E-1,1.6487693E0,1.5648073E0,1.6745313E0,-1.0304809E-1],"split_indices":[0,9,8,8,9,8,7,7,7,6,7,7,6,10,3,5,6,9,5,8,7,8,6,8,6,8,0,7,5,2,1,1,7,8,5,8,8,9,6,8,7,8,8,7,8,7,1,7,10,7,7,8,9,1,0,7,6,4,9,1,9,0,0,0,0,0,0,0,0,0,0,0,0,0,0,0,0,0,0,0,0,0,0,0,0,0,0,0,0,0,0,0,0,0,0,0,0,0,0,0,0,0,0,0,0,0,0,0,0,0,0,0,0,0,0,0,0,0,0,0,0],"split_type":[0,0,0,0,0,0,0,0,0,0,0,0,0,0,0,0,0,0,0,0,0,0,0,0,0,0,0,0,0,0,0,0,0,0,0,0,0,0,0,0,0,0,0,0,0,0,0,0,0,0,0,0,0,0,0,0,0,0,0,0,0,0,0,0,0,0,0,0,0,0,0,0,0,0,0,0,0,0,0,0,0,0,0,0,0,0,0,0,0,0,0,0,0,0,0,0,0,0,0,0,0,0,0,0,0,0,0,0,0,0,0,0,0,0,0,0,0,0,0,0,0],"sum_hessian":[1.58312E5,9.066E4,6.7652E4,6.6115E4,2.4545E4,5.9978E4,7.674E3,2.7866E4,3.8249E4,1.1061E4,1.3484E4,1.4725E4,4.5253E4,6.634E3,1.04E3,8.745E3,1.9121E4,1.6635E4,2.1614E4,4.969E3,6.092E3,6.463E3,7.021E3,1.0544E4,4.181E3,2.6E2,4.4993E4,3.661E3,2.973E3,1.026E3,1.4E1,7.068E3,1.677E3,4.577E3,1.4544E4,8.949E3,7.686E3,2.1399E4,2.15E2,4.561E3,4.08E2,5.25E2,5.567E3,4.098E3,2.365E3,2.546E3,4.475E3,5.72E2,9.972E3,9.96E2,3.185E3,1.08E2,1.52E2,1.9858E4,2.5135E4,9.53E2,2.708E3,1.651E3,1.322E3,9.93E2,3.3E1,1.3E1,1E0,7.064E3,4E0,1.488E3,1.89E2,3.242E3,1.335E3,2.962E3,1.1582E4,3.673E3,5.276E3,6.721E3,9.65E2,2.0422E4,9.77E2,1.7E1,1.98E2,4.069E3,4.92E2,2.39E2,1.69E2,4.45E2,8E1,4.27E3,1.297E3,1.934E3,2.164E3,9.66E2,1.399E3,2.258E3,2.88E2,4.435E3,4E1,1.26E2,4.46E2,9.765E3,2.07E2,2.15E2,7.81E2,1.912E3,1.273E3,2.7E1,8.1E1,1.1E1,1.41E2,4.04E2,1.9454E4,7.21E2,2.32E2,1.106E3,1.602E3,1.37E2,1.514E3,9.04E2,4.18E2,9.54E2,3.9E1,1.4E1,1.9E1],"tree_param":{"num_deleted":"0","num_feature":"14","num_nodes":"121","size_leaf_vector":"1"}},{"base_weights":[4.199908E-2,-5.442031E-1,8.2756126E-1,-6.112741E-1,-3.6352155E-1,9.041498E-1,2.2892508E-1,-7.2271866E-1,-5.3006536E-1,-6.31893E-2,-6.098628E-1,6.616189E-1,9.8305124E-1,1.4046723E-1,7.9250723E-1,-8.6793965E-1,-6.5625983E-1,-3.311493E-1,-6.831367E-1,-2.8953722E-1,1.2145085E-1,-5.0727105E-1,-7.0421535E-1,8.965386E-1,6.910569E-2,4.1379312E-1,9.863315E-1,-7.837247E-2,4.0988567E-1,8.159688E-1,-8.666667E-1,-8.787664E-1,-8.218117E-1,-7.849162E-1,-6.3014907E-1,-8.882681E-2,-6.1324316E-1,-6.9827104E-1,8.194444E-1,-2.5712407E-1,-6.503667E-1,-3.7072244E-1,1.6792385E-1,-7.3822886E-1,-1.0693153E-1,-8.589653E-1,-6.6518176E-1,-9.773124E-2,9.5357466E-1,-6.539619E-1,2.9535466E-1,-2.7522936E-1,9.019608E-1,9.7275794E-1,2.9910486E-2,-6.257862E-1,1.1443337E-1,1.6346681E-1,7.994792E-1,8.460765E-1,-8.82353E-2,-2.7857142E-2,-0E0,-2.637792E-2,-0E0,-2.534587E-2,-1.9105263E-2,-2.4754563E-2,-1.959103E-2,-2.086879E-2,-1.8376525E-2,2.26184E-3,-6.094372E-3,-2.1382028E-2,2.3913044E-3,-2.1390587E-2,-1.1687117E-2,-1.8333333E-2,2.8341707E-2,-9.162162E-3,4.2596348E-3,-2.6648935E-2,-1.3378378E-2,-1.4596412E-2,8.148148E-3,7.0100673E-3,-1.4560863E-3,-2.5333334E-2,-1.9288683E-2,-6.763869E-3,1.9979188E-3,-2.6589742E-2,-2.1694213E-2,-2.007717E-2,-2.926829E-3,-1.3700787E-2,1.3422819E-4,2.8995493E-2,1.0240384E-2,-8.194445E-3,-2.274936E-2,2.3429168E-2,-1.3021978E-2,-1.6022727E-2,2.3181817E-2,-2.5E-3,2.9366197E-2,2.5670627E-2,2.9288568E-2,-2.1731302E-2,-9.5278965E-3,1.7886179E-2,-6.550218E-3,-1.5845072E-2,6.6527943E-3,2.706081E-2,1.3584905E-2,2.601047E-2,9.749999E-3,1.6E-2,-1.65E-2],"categories":[],"categories_nodes":[],"categories_segments":[],"categories_sizes":[],"default_left":[0,0,0,0,0,0,0,0,0,0,0,0,0,0,0,0,0,0,0,0,0,0,0,0,0,0,0,0,0,0,0,0,0,0,0,0,0,0,0,0,0,0,0,0,0,0,0,0,0,0,0,0,0,0,0,0,0,0,0,0,0,0,0,0,0,0,0,0,0,0,0,0,0,0,0,0,0,0,0,0,0,0,0,0,0,0,0,0,0,0,0,0,0,0,0,0,0,0,0,0,0,0,0,0,0,0,0,0,0,0,0,0,0,0,0,0,0,0,0,0,0],"id":6,"left_children":[1,3,5,7,9,11,13,15,17,19,21,23,25,27,29,31,33,35,37,39,41,43,45,47,49,51,53,55,57,59,61,63,65,67,69,71,73,75,77,79,81,83,85,87,89,91,93,95,97,99,101,103,105,107,-1,109,111,113,115,117,119,-1,-1,-1,-1,-1,-1,-1,-1,-1,-1,-1,-1,-1,-1,-1,-1,-1,-1,-1,-1,-1,-1,-1,-1,-1,-1,-1,-1,-1,-1,-1,-1,-1,-1,-1,-1,-1,-1,-1,-1,-1,-1,-1,-1,-1,-1,-1,-1,-1,-1,-1,-1,-1,-1,-1,-1,-1,-1,-1,-1],"loss_changes":[7.290331E4,1.0984531E3,3.1015938E3,5.979844E2,1.8159783E3,1.1471094E3,3.825125E2,2.6838086E2,1.1644229E3,4.623484E2,1.301748E2,2.0496948E3,8.409766E1,3.912281E2,4.1230103E1,3.6455078E0,6.3742188E1,1.137144E3,4.9210938E2,5.7960022E1,1.3942606E2,5.975923E2,4.1844727E1,5.980908E2,6.8434033E2,8.803781E1,5.5546875E0,3.8657578E2,2.853828E2,2.8033142E1,8.047619E-1,3.0908203E0,6.616333E0,1.6558228E1,1.7896973E1,1.6803922E2,5.3001953E2,9.715527E1,3.9288605E1,8.795154E1,1.9496841E1,3.9265152E1,7.925058E1,4.0936768E1,4.8680103E1,4.602417E0,1.2859131E1,2.1024189E1,7.869043E1,3.941162E1,1.1288823E3,2.9981754E1,1.1676125E1,7.3652344E0,0E0,2.8756836E1,4.3444083E2,7.3615974E1,4.0542908E1,1.056366E1,1.0051962E1,0E0,0E0,0E0,0E0,0E0,0E0,0E0,0E0,0E0,0E0,0E0,0E0,0E0,0E0,0E0,0E0,0E0,0E0,0E0,0E0,0E0,0E0,0E0,0E0,0E0,0E0,0E0,0E0,0E0,0E0,0E0,0E0,0E0,0E0,0E0,0E0,0E0,0E0,0E0,0E0,0E0,0E0,0E0,0E0,0E0,0E0,0E0,0E0,0E0,0E0,0E0,0E0,0E0,0E0,0E0,0E0,0E0,0E0,0E0,0E0],"parents":[2147483647,0,0,1,1,2,2,3,3,4,4,5,5,6,6,7,7,8,8,9,9,10,10,11,11,12,12,13,13,14,14,15,15,16,16,17,17,18,18,19,19,20,20,21,21,22,22,23,23,24,24,25,25,26,26,27,27,28,28,29,29,30,30,31,31,32,32,33,33,34,34,35,35,36,36,37,37,38,38,39,39,40,40,41,41,42,42,43,43,44,44,45,45,46,46,47,47,48,48,49,49,50,50,51,51,52,52,53,53,55,55,56,56,57,57,58,58,59,59,60,60],"right_children":[2,4,6,8,10,12,14,16,18,20,22,24,26,28,30,32,34,36,38,40,42,44,46,48,50,52,54,56,58,60,62,64,66,68,70,72,74,76,78,80,82,84,86,88,90,92,94,96,98,100,102,104,106,108,-1,110,112,114,116,118,120,-1,-1,-1,-1,-1,-1,-1,-1,-1,-1,-1,-1,-1,-1,-1,-1,-1,-1,-1,-1,-1,-1,-1,-1,-1,-1,-1,-1,-1,-1,-1,-1,-1,-1,-1,-1,-1,-1,-1,-1,-1,-1,-1,-1,-1,-1,-1,-1,-1,-1,-1,-1,-1,-1,-1,-1,-1,-1,-1,-1],"split_conditions":[3.2E1,5E0,2.1E1,6E0,6E0,1E1,1.104375E2,1.65625E1,2.175E1,2.2E1,2.20625E1,5.0875E1,2.575E1,1E0,1.43E2,1.9E1,1.55E1,4E0,4.4E1,2.3E1,2.15E1,6E0,1.55E1,7E0,7.55E1,1.4E1,7.4E1,8.60625E1,5.8E1,1.11E2,1.29E2,3.1E1,1.6125E1,2E0,1.5E1,8E0,1.3E1,4E0,2.4E1,9E0,3.725E1,9E0,2.1E1,1.75E1,1.4E1,5.6E1,9.8E1,2.0875E1,1E0,5.21875E1,6.3125E1,4.1E1,3E0,3.1E1,2.5193543E0,8.45625E1,7.675E1,3.2E1,5E0,1.2E2,2E0,-1.4993493E-1,0E0,-1.9991323E-1,-4.9664352E-2,-1.9991323E-1,-1.7081325E-1,-2.0146208E-1,-1.2494579E-1,-1.475485E-1,-1.2494579E-1,2.86749E-1,-9.345457E-2,-1.5139824E-1,2.5160632E-1,-1.532729E-1,-7.337854E-2,-9.214805E-2,7.323293E-1,-5.962961E-2,6.1678875E-2,-2.1576987E-1,-9.591705E-2,-1.03094324E-1,4.0356857E-1,5.3278428E-2,-2.7680626E-2,-1.9991323E-1,-1.2494579E-1,-1.2838502E-1,7.657919E-1,-2.0124418E-1,-1.7124417E-1,-1.4485525E-1,-8.645897E-3,-9.995665E-2,3.0914496E-3,1.3494146E0,7.4967556E-2,-1.4993493E-1,-1.9991323E-1,1.5758867E0,-9.995665E-2,-9.995665E-2,7.1472895E-1,-1.2494579E-1,6.497181E-1,7.5115204E-1,7.66382E-1,-1.9991323E-1,-1.4993493E-1,1.1245122E0,-7.4967556E-2,-1.2078174E-1,3.0403394E-1,6.7470735E-1,4.2428666E-1,1.5993062E0,1.517863E0,1.6242954E0,-9.995665E-2],"split_indices":[0,9,8,8,9,8,7,7,7,6,7,7,6,10,3,5,6,9,5,8,7,8,6,8,6,8,0,7,5,2,1,1,7,8,5,8,8,9,6,8,7,8,8,7,8,5,1,7,10,7,7,0,9,1,0,7,6,4,9,1,9,0,0,0,0,0,0,0,0,0,0,0,0,0,0,0,0,0,0,0,0,0,0,0,0,0,0,0,0,0,0,0,0,0,0,0,0,0,0,0,0,0,0,0,0,0,0,0,0,0,0,0,0,0,0,0,0,0,0,0,0],"split_type":[0,0,0,0,0,0,0,0,0,0,0,0,0,0,0,0,0,0,0,0,0,0,0,0,0,0,0,0,0,0,0,0,0,0,0,0,0,0,0,0,0,0,0,0,0,0,0,0,0,0,0,0,0,0,0,0,0,0,0,0,0,0,0,0,0,0,0,0,0,0,0,0,0,0,0,0,0,0,0,0,0,0,0,0,0,0,0,0,0,0,0,0,0,0,0,0,0,0,0,0,0,0,0,0,0,0,0,0,0,0,0,0,0,0,0,0,0,0,0,0,0],"sum_hessian":[1.58312E5,9.066E4,6.7652E4,6.6115E4,2.4545E4,5.9978E4,7.674E3,2.7866E4,3.8249E4,1.1061E4,1.3484E4,1.4725E4,4.5253E4,6.634E3,1.04E3,8.745E3,1.9121E4,1.6635E4,2.1614E4,4.969E3,6.092E3,6.463E3,7.021E3,1.0544E4,4.181E3,2.6E2,4.4993E4,3.661E3,2.973E3,1.026E3,1.4E1,7.068E3,1.677E3,3.221E3,1.59E4,8.949E3,7.686E3,2.1399E4,2.15E2,4.561E3,4.08E2,5.25E2,5.567E3,4.098E3,2.365E3,1.41E3,5.611E3,5.72E2,9.972E3,9.96E2,3.185E3,1.08E2,1.52E2,1.9858E4,2.5135E4,9.53E2,2.708E3,1.822E3,1.151E3,9.93E2,3.3E1,1.3E1,1E0,7.064E3,4E0,1.488E3,1.89E2,2.464E3,7.57E2,3.36E3,1.254E4,3.673E3,5.276E3,6.721E3,9.65E2,2.0422E4,9.77E2,1.7E1,1.98E2,4.069E3,4.92E2,1.87E2,2.21E2,4.45E2,8E1,4.27E3,1.297E3,1.934E3,2.164E3,1.405E3,9.6E2,1.169E3,2.41E2,5.571E3,4E1,1.26E2,4.46E2,9.765E3,2.07E2,2.15E2,7.81E2,1.912E3,1.273E3,8.7E1,2.1E1,1.1E1,1.41E2,5.88E2,1.927E4,7.21E2,2.32E2,1.106E3,1.602E3,1.41E2,1.681E3,8.87E2,2.64E2,9.54E2,3.9E1,1.4E1,1.9E1],"tree_param":{"num_deleted":"0","num_feature":"14","num_nodes":"121","size_leaf_vector":"1"}},{"base_weights":[5.0501224E-2,-5.281874E-1,8.2599443E-1,-6.474464E-1,-4.1937184E-1,9.030827E-1,2.2345276E-1,-7.7081466E-1,-5.407398E-1,-5.293296E-1,-2.1567802E-1,6.605324E-1,9.819905E-1,1.3413715E-1,7.9250723E-1,-8.655633E-1,-6.877688E-1,-3.3216184E-1,-7.517128E-1,-4.050082E-1,-6.1067224E-1,-4.631983E-1,-9.482854E-3,8.955903E-1,6.767097E-2,4.1379312E-1,9.852647E-1,-7.837247E-2,3.9576328E-1,8.159688E-1,-8.666667E-1,-8.66289E-1,-1E-1,-8.0196154E-1,-6.5004975E-1,-1.2314037E-1,-6.230012E-1,-7.809459E-1,-5.119427E-1,-6.2356937E-1,5.9101656E-3,-6.936842E-1,-5.8217895E-1,-4.9491146E-1,1.3350785E-1,-4.0499148E-1,8.594499E-2,-9.773124E-2,9.525719E-1,-6.539619E-1,2.9347143E-1,-2.7522936E-1,9.019608E-1,9.7154945E-1,2.9881842E-2,-6.257862E-1,1.1443337E-1,1.4481623E-1,7.925347E-1,8.460765E-1,-8.82353E-2,-2.7857142E-2,-0E0,-2.6223244E-2,-2.4181984E-2,-2.4E-2,1.5E-2,-2.5365205E-2,-1.6488548E-2,-2.1611538E-2,-1.8490357E-2,1.5726681E-3,-7.313618E-3,-2.1385655E-2,1.1282051E-3,-2.3745762E-2,-1.0445344E-2,-1.8560605E-2,-1.3867595E-2,-2.6223479E-2,-1.7971015E-2,-2.2549834E-3,3.3900165E-3,-2.1889664E-2,-1.4979865E-2,-1.751752E-2,1.9499999E-2,-1.7349314E-2,-1.0919828E-2,2.1E-2,2.5495752E-3,-1.6037384E-2,2.716981E-2,4.2890296E-3,-1.0508876E-2,-1.3700787E-2,1.3422819E-4,2.8964777E-2,1.0240384E-2,-8.194445E-3,-2.274936E-2,2.3335075E-2,-1.3021978E-2,-1.6022727E-2,2.3181817E-2,-2.5E-3,2.9366197E-2,2.5365025E-2,2.9260546E-2,-2.1731302E-2,-9.5278965E-3,1.7886179E-2,-6.550218E-3,-1.5833333E-2,5.6118877E-3,2.6790539E-2,1.3584905E-2,2.601047E-2,9.749999E-3,1.6E-2,-1.65E-2],"categories":[],"categories_nodes":[],"categories_segments":[],"categories_sizes":[],"default_left":[0,0,0,0,0,0,0,0,0,0,0,0,0,0,0,0,0,0,0,0,0,0,0,0,0,0,0,0,0,0,0,0,0,0,0,0,0,0,0,0,0,0,0,0,0,0,0,0,0,0,0,0,0,0,0,0,0,0,0,0,0,0,0,0,0,0,0,0,0,0,0,0,0,0,0,0,0,0,0,0,0,0,0,0,0,0,0,0,0,0,0,0,0,0,0,0,0,0,0,0,0,0,0,0,0,0,0,0,0,0,0,0,0,0,0,0,0,0,0,0,0],"id":7,"left_children":[1,3,5,7,9,11,13,15,17,19,21,23,25,27,29,31,33,35,37,39,41,43,45,47,49,51,53,55,57,59,61,63,65,67,69,71,73,75,77,79,81,83,85,87,89,91,93,95,97,99,101,103,105,107,-1,109,111,113,115,117,119,-1,-1,-1,-1,-1,-1,-1,-1,-1,-1,-1,-1,-1,-1,-1,-1,-1,-1,-1,-1,-1,-1,-1,-1,-1,-1,-1,-1,-1,-1,-1,-1,-1,-1,-1,-1,-1,-1,-1,-1,-1,-1,-1,-1,-1,-1,-1,-1,-1,-1,-1,-1,-1,-1,-1,-1,-1,-1,-1,-1],"loss_changes":[7.104642E4,1.1762578E3,3.142207E3,5.689746E2,1.0617393E3,1.1472969E3,3.89979E2,1.5722949E2,1.0204741E3,3.111006E2,8.483407E2,2.052108E3,8.378516E1,3.689242E2,4.1230103E1,5.116699E0,4.5540527E1,7.09119E2,8.042383E1,1.0938993E3,4.361133E1,1.4301392E2,3.4232184E2,5.969512E2,6.8162805E2,8.803781E1,5.6953125E0,3.8657578E2,2.9600235E2,2.8033142E1,8.047619E-1,3.7006836E0,4.6E0,2.8665405E1,1.8625488E1,1.4381119E2,2.8957617E2,4.677295E1,6.3759155E0,4.8353516E1,3.6735424E1,3.284375E1,3.0068848E1,7.810693E1,1.0440674E1,2.9992032E2,1.8181625E2,2.1024189E1,7.8430664E1,3.941162E1,1.1230625E3,2.9981754E1,1.1676125E1,8.691406E0,0E0,2.8756836E1,4.3444083E2,5.189905E1,3.891864E1,1.056366E1,1.0051962E1,0E0,0E0,0E0,0E0,0E0,0E0,0E0,0E0,0E0,0E0,0E0,0E0,0E0,0E0,0E0,0E0,0E0,0E0,0E0,0E0,0E0,0E0,0E0,0E0,0E0,0E0,0E0,0E0,0E0,0E0,0E0,0E0,0E0,0E0,0E0,0E0,0E0,0E0,0E0,0E0,0E0,0E0,0E0,0E0,0E0,0E0,0E0,0E0,0E0,0E0,0E0,0E0,0E0,0E0,0E0,0E0,0E0,0E0,0E0,0E0],"parents":[2147483647,0,0,1,1,2,2,3,3,4,4,5,5,6,6,7,7,8,8,9,9,10,10,11,11,12,12,13,13,14,14,15,15,16,16,17,17,18,18,19,19,20,20,21,21,22,22,23,23,24,24,25,25,26,26,27,27,28,28,29,29,30,30,31,31,32,32,33,33,34,34,35,35,36,36,37,37,38,38,39,39,40,40,41,41,42,42,43,43,44,44,45,45,46,46,47,47,48,48,49,49,50,50,51,51,52,52,53,53,55,55,56,56,57,57,58,58,59,59,60,60],"right_children":[2,4,6,8,10,12,14,16,18,20,22,24,26,28,30,32,34,36,38,40,42,44,46,48,50,52,54,56,58,60,62,64,66,68,70,72,74,76,78,80,82,84,86,88,90,92,94,96,98,100,102,104,106,108,-1,110,112,114,116,118,120,-1,-1,-1,-1,-1,-1,-1,-1,-1,-1,-1,-1,-1,-1,-1,-1,-1,-1,-1,-1,-1,-1,-1,-1,-1,-1,-1,-1,-1,-1,-1,-1,-1,-1,-1,-1,-1,-1,-1,-1,-1,-1,-1,-1,-1,-1,-1,-1,-1,-1,-1,-1,-1,-1,-1,-1,-1,-1,-1,-1],"split_conditions":[3.2E1,1.775E1,2.1E1,6E0,1E0,1E1,1.104375E2,1.65625E1,2.05E1,2.175E1,2.20625E1,5.0875E1,2.575E1,1E0,1.43E2,1.8E1,1.475E1,1E0,5.96875E1,6E0,1.6E1,1.3E1,5E0,7E0,7.55E1,1.4E1,7.4E1,8.60625E1,5.8E1,1.11E2,1.29E2,1.6E1,1.3E1,3E0,1.6E1,8E0,1.3E1,1E0,6.3125E1,1.65625E1,1.4E1,8.4E1,1.04E2,5E0,1.2E1,3.7E1,2.3E1,2.0875E1,1E0,5.21875E1,6.3125E1,4.1E1,3E0,3.1E1,2.4437735E0,8.45625E1,7.675E1,2.9E1,5E0,1.2E2,2E0,-1.454369E-1,0E0,-1.9391584E-1,-1.9391584E-1,-2.3503083E-1,3.3549096E-2,-1.9541822E-1,-1.1773075E-1,-1.5119739E-1,-1.21197395E-1,2.547356E-1,-1.2065094E-1,-1.7339768E-1,4.058132E-3,-1.7539673E-1,-7.7618524E-2,-1.204997E-1,-8.9243084E-2,-1.9391584E-1,-1.2051859E-1,-4.9132805E-2,1.2323022E0,-1.5054479E-1,-1.1512876E-1,-1.1887642E-1,1.2099259E0,-1.1878893E-1,-7.444976E-2,6.8438375E-1,4.2938375E-1,-1.01177216E-1,6.053595E-1,3.215927E-2,-7.981058E-2,-9.695795E-2,2.9986952E-3,1.3089322E0,7.27185E-2,-1.454369E-1,-1.9391584E-1,1.5286102E0,-9.695795E-2,-9.695795E-2,6.932871E-1,-1.21197395E-1,6.3022655E-1,7.286175E-1,7.4339056E-1,-1.9391584E-1,-1.454369E-1,1.0907769E0,-7.27185E-2,-1.4715831E-1,2.3491292E-1,6.5446615E-1,4.115581E-1,1.551327E0,1.4723271E0,1.5755665E0,-9.695795E-2],"split_indices":[0,6,8,8,10,8,7,7,7,7,7,7,6,10,3,12,6,10,7,8,5,8,9,8,6,8,0,7,5,2,1,7,3,8,4,8,8,10,7,7,8,4,7,9,4,5,8,7,10,7,7,0,9,1,0,7,6,4,9,1,9,0,0,0,0,0,0,0,0,0,0,0,0,0,0,0,0,0,0,0,0,0,0,0,0,0,0,0,0,0,0,0,0,0,0,0,0,0,0,0,0,0,0,0,0,0,0,0,0,0,0,0,0,0,0,0,0,0,0,0,0],"split_type":[0,0,0,0,0,0,0,0,0,0,0,0,0,0,0,0,0,0,0,0,0,0,0,0,0,0,0,0,0,0,0,0,0,0,0,0,0,0,0,0,0,0,0,0,0,0,0,0,0,0,0,0,0,0,0,0,0,0,0,0,0,0,0,0,0,0,0,0,0,0,0,0,0,0,0,0,0,0,0,0,0,0,0,0,0,0,0,0,0,0,0,0,0,0,0,0,0,0,0,0,0,0,0,0,0,0,0,0,0,0,0,0,0,0,0,0,0,0,0,0,0],"sum_hessian":[1.58312E5,9.066E4,6.7652E4,4.3252E4,4.7408E4,5.9978E4,7.674E3,2.0057E4,2.3195E4,3.0787E4,1.6621E4,1.4725E4,4.5253E4,6.634E3,1.04E3,9.364E3,1.0693E4,1.1665E4,1.153E4,1.2179E4,1.8608E4,7.553E3,9.068E3,1.0544E4,4.181E3,2.6E2,4.4993E4,3.661E3,2.973E3,1.026E3,1.4E1,9.355E3,9E0,2.65E3,8.043E3,6.788E3,4.877E3,1.0275E4,1.255E3,7.95E3,4.229E3,4.749E3,1.3859E4,7.172E3,3.81E2,1.762E3,7.306E3,5.72E2,9.972E3,9.96E2,3.185E3,1.08E2,1.52E2,1.9858E4,2.5135E4,9.53E2,2.708E3,1.822E3,1.151E3,9.93E2,3.3E1,1.3E1,1E0,8.268E3,1.087E3,4E0,5E0,2.258E3,3.92E2,2.599E3,5.444E3,2.765E3,4.023E3,4.293E3,5.84E2,1.0029E4,2.46E2,3.95E2,8.6E2,7.06E2,7.244E3,2.407E3,1.822E3,4.005E3,7.44E2,1.384E4,1.9E1,4.379E3,2.793E3,2.9E1,3.52E2,1.604E3,1.58E2,6.462E3,8.44E2,1.26E2,4.46E2,9.765E3,2.07E2,2.15E2,7.81E2,1.912E3,1.273E3,8.7E1,2.1E1,1.1E1,1.41E2,5.88E2,1.927E4,7.21E2,2.32E2,1.106E3,1.602E3,1.07E2,1.715E3,8.87E2,2.64E2,9.54E2,3.9E1,1.4E1,1.9E1],"tree_param":{"num_deleted":"0","num_feature":"14","num_nodes":"121","size_leaf_vector":"1"}},{"base_weights":[6.4170346E-2,-5.031491E-1,8.244276E-1,-6.344531E-1,-3.8334495E-1,9.0181565E-1,2.1954398E-1,-7.4768174E-1,-5.3651494E-1,-4.8041445E-1,-2.0352545E-1,6.5931004E-1,9.807089E-1,1.2961568E-1,7.9250723E-1,-8.655633E-1,-6.4438003E-1,-3.2513288E-1,-7.503252E-1,-3.455665E-1,-5.686496E-1,-3.9175913E-1,4.5403745E-2,8.94073E-1,6.719273E-2,4.2145595E-1,9.839312E-1,-7.837247E-2,3.8567585E-1,8.159688E-1,-8.666667E-1,-8.66289E-1,-1E-1,-7.309636E-1,-5.3624713E-1,-1.1518633E-1,-6.172612E-1,-7.805566E-1,-5.0238854E-1,-5.211923E-1,-1.536643E-2,-5.204362E-1,-6.4919585E-1,-4.9108684E-1,-2.697105E-1,1.2508328E-1,-3.6883116E-1,-9.773124E-2,9.509676E-1,-6.539619E-1,2.928437E-1,-2.5688073E-1,9.019608E-1,9.694345E-1,2.9860359E-2,-6.257862E-1,1.1443337E-1,1.3933077E-1,7.751736E-1,8.460765E-1,-8.82353E-2,-2.7857142E-2,-0E0,-2.6223244E-2,-2.4181984E-2,-2.4E-2,1.5E-2,-2.5539951E-2,-1.9997416E-2,-2.0447906E-2,-1.4883471E-2,-7.1916273E-3,1.9445445E-3,-2.1190032E-2,1.1282051E-3,-2.3733798E-2,-1.0445344E-2,-1.840909E-2,-1.3519164E-2,-2.6223479E-2,-1.4600414E-2,3.0193755E-3,-3.1858406E-3,-1.7831085E-2,-1.4998356E-2,-2.4253877E-2,-1.5647454E-2,-1.6513646E-2,2.4439916E-3,-1.1181453E-2,-4.6337815E-3,-1.1555555E-2,6.610672E-3,-3.887195E-3,-2.0459998E-2,-1.3700787E-2,1.3422819E-4,2.8915625E-2,1.0240384E-2,-8.194445E-3,-2.274936E-2,2.3303712E-2,-1.3021978E-2,2.0357141E-2,-1.719512E-2,-2.5E-3,2.9366197E-2,2.5365025E-2,2.9195163E-2,-2.1731302E-2,-9.5278965E-3,1.7886179E-2,-6.550218E-3,-1.415493E-2,5.725327E-3,2.6790539E-2,1.1320755E-2,2.601047E-2,9.749999E-3,1.6E-2,-1.65E-2],"categories":[],"categories_nodes":[],"categories_segments":[],"categories_sizes":[],"default_left":[0,0,0,0,0,0,0,0,0,0,0,0,0,0,0,0,0,0,0,0,0,0,0,0,0,0,0,0,0,0,0,0,0,0,0,0,0,0,0,0,0,0,0,0,0,0,0,0,0,0,0,0,0,0,0,0,0,0,0,0,0,0,0,0,0,0,0,0,0,0,0,0,0,0,0,0,0,0,0,0,0,0,0,0,0,0,0,0,0,0,0,0,0,0,0,0,0,0,0,0,0,0,0,0,0,0,0,0,0,0,0,0,0,0,0,0,0,0,0,0,0],"id":8,"left_children":[1,3,5,7,9,11,13,15,17,19,21,23,25,27,29,31,33,35,37,39,41,43,45,47,49,51,53,55,57,59,61,63,65,67,69,71,73,75,77,79,81,83,85,87,89,91,93,95,97,99,101,103,105,107,-1,109,111,113,115,117,119,-1,-1,-1,-1,-1,-1,-1,-1,-1,-1,-1,-1,-1,-1,-1,-1,-1,-1,-1,-1,-1,-1,-1,-1,-1,-1,-1,-1,-1,-1,-1,-1,-1,-1,-1,-1,-1,-1,-1,-1,-1,-1,-1,-1,-1,-1,-1,-1,-1,-1,-1,-1,-1,-1,-1,-1,-1,-1,-1,-1],"loss_changes":[6.828219E4,1.4259238E3,3.1666875E3,4.7925E2,8.274263E2,1.1468789E3,3.953563E2,2.4369531E2,1.0481143E3,3.661289E2,7.7887244E2,2.04696E3,8.113281E1,3.5339362E2,4.1230103E1,5.116699E0,9.973047E1,7.1542004E2,8.6038574E1,7.063302E2,7.192822E1,1.1460986E2,2.3630339E2,5.951289E2,6.8072516E2,8.53031E1,6.4765625E0,3.8657578E2,2.8524985E2,2.8033142E1,8.047619E-1,3.7006836E0,4.6E0,4.543457E1,2.7421509E1,1.5220306E2,2.8456628E2,4.6688477E1,6.954315E0,9.641821E1,4.458302E1,1.7346191E1,1.4111938E2,1.7737769E2,5.0384003E1,2.9196652E2,8.645364E1,2.1024189E1,7.8018555E1,3.941162E1,1.1211259E3,3.263922E1,1.1676125E1,8.375E0,0E0,2.8756836E1,4.3444083E2,5.7483658E1,5.3669067E1,1.056366E1,1.0051962E1,0E0,0E0,0E0,0E0,0E0,0E0,0E0,0E0,0E0,0E0,0E0,0E0,0E0,0E0,0E0,0E0,0E0,0E0,0E0,0E0,0E0,0E0,0E0,0E0,0E0,0E0,0E0,0E0,0E0,0E0,0E0,0E0,0E0,0E0,0E0,0E0,0E0,0E0,0E0,0E0,0E0,0E0,0E0,0E0,0E0,0E0,0E0,0E0,0E0,0E0,0E0,0E0,0E0,0E0,0E0,0E0,0E0,0E0,0E0,0E0],"parents":[2147483647,0,0,1,1,2,2,3,3,4,4,5,5,6,6,7,7,8,8,9,9,10,10,11,11,12,12,13,13,14,14,15,15,16,16,17,17,18,18,19,19,20,20,21,21,22,22,23,23,24,24,25,25,26,26,27,27,28,28,29,29,30,30,31,31,32,32,33,33,34,34,35,35,36,36,37,37,38,38,39,39,40,40,41,41,42,42,43,43,44,44,45,45,46,46,47,47,48,48,49,49,50,50,51,51,52,52,53,53,55,55,56,56,57,57,58,58,59,59,60,60],"right_children":[2,4,6,8,10,12,14,16,18,20,22,24,26,28,30,32,34,36,38,40,42,44,46,48,50,52,54,56,58,60,62,64,66,68,70,72,74,76,78,80,82,84,86,88,90,92,94,96,98,100,102,104,106,108,-1,110,112,114,116,118,120,-1,-1,-1,-1,-1,-1,-1,-1,-1,-1,-1,-1,-1,-1,-1,-1,-1,-1,-1,-1,-1,-1,-1,-1,-1,-1,-1,-1,-1,-1,-1,-1,-1,-1,-1,-1,-1,-1,-1,-1,-1,-1,-1,-1,-1,-1,-1,-1,-1,-1,-1,-1,-1,-1,-1,-1,-1,-1,-1,-1],"split_conditions":[3.2E1,1.775E1,2.1E1,6E0,1E0,1E1,1.104375E2,1.65625E1,2.05E1,2.175E1,2.225E1,5.0875E1,2.575E1,1E0,1.43E2,1.8E1,2E0,1E0,5.96875E1,6E0,4.4E1,5E0,2.3E1,7E0,7.55E1,1.4E1,7.4E1,8.60625E1,5.8E1,1.11E2,1.29E2,1.6E1,1.3E1,1.475E1,1.73125E1,1.4E1,1.3E1,1E0,6.3125E1,1.65625E1,8E0,1.6E1,7.8E1,1.3E1,2.20625E1,2.20625E1,3.4E1,2.0875E1,1E0,5.21875E1,6.3125E1,1.1E1,3E0,3.1E1,2.3704605E0,8.45625E1,7.675E1,3.2E1,5E0,1.2E2,2E0,-1.4107378E-1,0E0,-1.8809836E-1,-1.8809836E-1,-2.279799E-1,3.2542646E-2,-1.895557E-1,-1.4253066E-1,-1.4419882E-1,-1.1666147E-1,-1.324051E-1,6.329686E-1,-1.6819575E-1,3.936367E-3,-1.7013484E-1,-7.5289994E-2,-1.16884686E-1,-8.65658E-2,-1.8809836E-1,-1.1690305E-1,3.4031433E-1,-6.4666845E-2,-1.15801275E-1,-1.1510845E-1,-1.9534744E-1,-1.1510845E-1,-1.1522523E-1,4.306223E-2,-7.221628E-2,-3.9284706E-2,-8.522524E-2,5.0715294E-2,-1.7416248E-2,-1.281419E-1,-9.40492E-2,2.9087448E-3,1.2696642E0,7.053697E-2,-1.4107378E-1,-1.8809836E-1,1.4827518E0,-9.40492E-2,6.1248845E-1,-1.1219713E-1,-1.1756149E-1,6.113198E-1,7.06759E-1,7.210889E-1,-1.8809836E-1,-1.4107378E-1,1.0580535E0,-7.053697E-2,-1.1274359E-1,2.8786555E-1,6.3483214E-1,3.9921135E-1,1.5047871E0,1.4281573E0,1.5282996E0,-9.40492E-2],"split_indices":[0,6,8,8,10,8,7,7,7,7,6,7,6,10,3,12,8,10,7,8,3,9,8,8,6,8,0,7,5,2,1,7,3,6,7,8,8,10,7,7,8,5,3,8,7,7,2,7,10,7,7,8,9,1,0,7,6,4,9,1,9,0,0,0,0,0,0,0,0,0,0,0,0,0,0,0,0,0,0,0,0,0,0,0,0,0,0,0,0,0,0,0,0,0,0,0,0,0,0,0,0,0,0,0,0,0,0,0,0,0,0,0,0,0,0,0,0,0,0,0,0],"split_type":[0,0,0,0,0,0,0,0,0,0,0,0,0,0,0,0,0,0,0,0,0,0,0,0,0,0,0,0,0,0,0,0,0,0,0,0,0,0,0,0,0,0,0,0,0,0,0,0,0,0,0,0,0,0,0,0,0,0,0,0,0,0,0,0,0,0,0,0,0,0,0,0,0,0,0,0,0,0,0,0,0,0,0,0,0,0,0,0,0,0,0,0,0,0,0,0,0,0,0,0,0,0,0,0,0,0,0,0,0,0,0,0,0,0,0,0,0,0,0,0,0],"sum_hessian":[1.58312E5,9.066E4,6.7652E4,4.3252E4,4.7408E4,5.9978E4,7.674E3,2.0057E4,2.3195E4,3.0787E4,1.6621E4,1.4725E4,4.5253E4,6.634E3,1.04E3,9.364E3,1.0693E4,1.1665E4,1.153E4,1.2179E4,1.8608E4,9.464E3,7.157E3,1.0544E4,4.181E3,2.6E2,4.4993E4,3.661E3,2.973E3,1.026E3,1.4E1,9.355E3,9E0,5.935E3,4.758E3,6.788E3,4.877E3,1.0275E4,1.255E3,7.95E3,4.229E3,1.1645E4,6.963E3,5.216E3,4.248E3,6.003E3,1.154E3,5.72E2,9.972E3,9.96E2,3.185E3,1.08E2,1.52E2,1.9858E4,2.5135E4,9.53E2,2.708E3,1.822E3,1.151E3,9.93E2,3.3E1,1.3E1,1E0,8.268E3,1.087E3,4E0,5E0,2.064E3,3.871E3,1.026E3,3.732E3,4.012E3,2.776E3,4.293E3,5.84E2,1.0029E4,2.46E2,3.95E2,8.6E2,7.06E2,7.244E3,1.857E3,2.372E3,2.521E3,9.124E3,3.095E3,3.868E3,4.726E3,4.9E2,2.242E3,2.006E3,9.44E2,5.059E3,6.55E2,4.99E2,1.26E2,4.46E2,9.765E3,2.07E2,2.15E2,7.81E2,1.912E3,1.273E3,2.7E1,8.1E1,1.1E1,1.41E2,5.88E2,1.927E4,7.21E2,2.32E2,1.106E3,1.602E3,1.41E2,1.681E3,8.87E2,2.64E2,9.54E2,3.9E1,1.4E1,1.9E1],"tree_param":{"num_deleted":"0","num_feature":"14","num_nodes":"121","size_leaf_vector":"1"}},{"base_weights":[6.336182E-2,-5.0224465E-1,8.213235E-1,-6.337595E-1,-3.822481E-1,8.9858115E-1,2.1745928E-1,-7.4728286E-1,-5.3556645E-1,-4.8119396E-1,-1.989532E-1,6.5795195E-1,9.768639E-1,1.2720422E-1,7.9250723E-1,-8.655633E-1,-6.4363194E-1,-3.2444713E-1,-7.491111E-1,-3.4786534E-1,-5.6843466E-1,-4.4456655E-1,-7.598459E-3,8.925557E-1,6.623625E-2,4.1379312E-1,9.8010844E-1,-7.837247E-2,3.802959E-1,8.159688E-1,-8.666667E-1,-8.66289E-1,-1E-1,-7.309636E-1,-5.345661E-1,-1.1400796E-1,-6.172612E-1,-7.7919424E-1,-5.0238854E-1,-5.211923E-1,-2.1985816E-2,-5.2026445E-1,-6.489087E-1,-4.7608694E-1,1.2894736E-1,-3.7299392E-1,7.999469E-2,-9.773124E-2,9.493633E-1,-6.539619E-1,2.915882E-1,-2.7522936E-1,9.019608E-1,9.5186055E-1,9.898105E-1,-6.257862E-1,1.1443337E-1,1.3274822E-1,7.717014E-1,8.460765E-1,-8.82353E-2,-2.7857142E-2,-0E0,-2.6223244E-2,-2.4181984E-2,-2.4E-2,1.5E-2,-2.5539951E-2,-1.9997416E-2,-2.0389484E-2,-1.4835253E-2,1.5726681E-3,-6.851392E-3,-2.1190032E-2,1.1282051E-3,-2.3727816E-2,-8.987854E-3,-1.840909E-2,-1.3519164E-2,-2.6223479E-2,-1.4600414E-2,2.5672766E-3,-3.1858406E-3,-1.7831085E-2,-1.4991781E-2,-2.4253877E-2,-1.5631946E-2,-2.482558E-2,-1.3428348E-2,2.1E-2,2.3931623E-3,-1.488984E-2,2.362069E-2,-5.175038E-3,5.080819E-3,-1.3700787E-2,1.3422819E-4,2.8866475E-2,1.0240384E-2,-8.194445E-3,-2.274936E-2,2.2659576E-2,-1.3899422E-2,-1.6022727E-2,2.3181817E-2,-2.5E-3,2.9366197E-2,2.8632099E-2,-2.8125E-2,2.556338E-2,2.9711027E-2,-2.1731302E-2,-9.5278965E-3,1.7886179E-2,-6.550218E-3,-1.415493E-2,5.511296E-3,2.6655404E-2,1.1320755E-2,2.601047E-2,9.749999E-3,1.6E-2,-1.65E-2],"categories":[],"categories_nodes":[],"categories_segments":[],"categories_sizes":[],"default_left":[0,0,0,0,0,0,0,0,0,0,0,0,0,0,0,0,0,0,0,0,0,0,0,0,0,0,0,0,0,0,0,0,0,0,0,0,0,0,0,0,0,0,0,0,0,0,0,0,0,0,0,0,0,0,0,0,0,0,0,0,0,0,0,0,0,0,0,0,0,0,0,0,0,0,0,0,0,0,0,0,0,0,0,0,0,0,0,0,0,0,0,0,0,0,0,0,0,0,0,0,0,0,0,0,0,0,0,0,0,0,0,0,0,0,0,0,0,0,0,0,0,0,0],"id":9,"left_children":[1,3,5,7,9,11,13,15,17,19,21,23,25,27,29,31,33,35,37,39,41,43,45,47,49,51,53,55,57,59,61,63,65,67,69,71,73,75,77,79,81,83,85,87,89,91,93,95,97,99,101,103,105,107,109,111,113,115,117,119,121,-1,-1,-1,-1,-1,-1,-1,-1,-1,-1,-1,-1,-1,-1,-1,-1,-1,-1,-1,-1,-1,-1,-1,-1,-1,-1,-1,-1,-1,-1,-1,-1,-1,-1,-1,-1,-1,-1,-1,-1,-1,-1,-1,-1,-1,-1,-1,-1,-1,-1,-1,-1,-1,-1,-1,-1,-1,-1,-1,-1,-1,-1],"loss_changes":[6.787046E4,1.4305078E3,3.1560273E3,4.8175E2,8.5972705E2,1.1291875E3,3.9823923E2,2.4535156E2,1.0455112E3,3.5791797E2,7.8121875E2,2.044186E3,8.226953E1,3.452472E2,4.1230103E1,5.116699E0,1.0146826E2,7.187832E2,8.5194336E1,6.879601E2,7.179883E1,1.3164673E2,2.990952E2,5.933096E2,6.7892114E2,8.803781E1,1.1394531E1,3.8657578E2,2.8805295E2,2.8033142E1,8.047619E-1,3.7006836E0,4.6E0,4.543457E1,2.7321655E1,1.2924004E2,2.8456628E2,5.7586914E1,6.954315E0,9.641821E1,3.832295E1,1.7428467E1,1.4163013E2,6.867908E1,1.0615198E1,2.5899194E2,1.7012071E2,2.1024189E1,7.7606445E1,3.941162E1,1.115678E3,2.9981754E1,1.1676125E1,5.628418E1,1.7226562E0,2.8756836E1,4.3444083E2,5.625396E1,5.273047E1,1.056366E1,1.0051962E1,0E0,0E0,0E0,0E0,0E0,0E0,0E0,0E0,0E0,0E0,0E0,0E0,0E0,0E0,0E0,0E0,0E0,0E0,0E0,0E0,0E0,0E0,0E0,0E0,0E0,0E0,0E0,0E0,0E0,0E0,0E0,0E0,0E0,0E0,0E0,0E0,0E0,0E0,0E0,0E0,0E0,0E0,0E0,0E0,0E0,0E0,0E0,0E0,0E0,0E0,0E0,0E0,0E0,0E0,0E0,0E0,0E0,0E0,0E0,0E0,0E0,0E0],"parents":[2147483647,0,0,1,1,2,2,3,3,4,4,5,5,6,6,7,7,8,8,9,9,10,10,11,11,12,12,13,13,14,14,15,15,16,16,17,17,18,18,19,19,20,20,21,21,22,22,23,23,24,24,25,25,26,26,27,27,28,28,29,29,30,30,31,31,32,32,33,33,34,34,35,35,36,36,37,37,38,38,39,39,40,40,41,41,42,42,43,43,44,44,45,45,46,46,47,47,48,48,49,49,50,50,51,51,52,52,53,53,54,54,55,55,56,56,57,57,58,58,59,59,60,60],"right_children":[2,4,6,8,10,12,14,16,18,20,22,24,26,28,30,32,34,36,38,40,42,44,46,48,50,52,54,56,58,60,62,64,66,68,70,72,74,76,78,80,82,84,86,88,90,92,94,96,98,100,102,104,106,108,110,112,114,116,118,120,122,-1,-1,-1,-1,-1,-1,-1,-1,-1,-1,-1,-1,-1,-1,-1,-1,-1,-1,-1,-1,-1,-1,-1,-1,-1,-1,-1,-1,-1,-1,-1,-1,-1,-1,-1,-1,-1,-1,-1,-1,-1,-1,-1,-1,-1,-1,-1,-1,-1,-1,-1,-1,-1,-1,-1,-1,-1,-1,-1,-1,-1,-1],"split_conditions":[3.2E1,1.775E1,2.1E1,6E0,1E0,1E1,1.104375E2,1.65625E1,2.05E1,2.175E1,2.15E1,5.0875E1,2.575E1,1E0,1.43E2,1.8E1,2E0,1E0,5.96875E1,6E0,4.4E1,1.3E1,5E0,7E0,7.55E1,1.4E1,5.65E1,8.60625E1,5.8E1,1.11E2,1.29E2,1.6E1,1.3E1,1.475E1,1.73125E1,8E0,1.3E1,1E0,6.3125E1,1.65625E1,8E0,1.6E1,7.8E1,1.6875E1,1.2E1,3.7E1,2.2E1,2.0875E1,1E0,5.21875E1,6.35625E1,4.1E1,3E0,8.4E1,4.4E1,8.45625E1,7.675E1,3.2E1,5E0,1.2E2,2E0,-1.3684158E-1,0E0,-1.8245538E-1,-1.8245538E-1,-2.211405E-1,3.156635E-2,-1.8386902E-1,-1.3825475E-1,-1.3987283E-1,-1.1316164E-1,2.5106564E-1,-1.1968626E-1,-1.631499E-1,3.818264E-3,-1.6503078E-1,-7.303127E-2,-1.1337816E-1,-8.396885E-2,-1.8245538E-1,-1.1339595E-1,3.301049E-1,-6.272684E-2,-1.1232725E-1,-1.116552E-1,-1.8948704E-1,-1.116552E-1,-1.9180395E-1,-8.4280126E-2,6.6256034E-1,3.8521037E-1,-9.4297655E-2,5.4067725E-1,-4.772106E-2,4.6412885E-2,-9.122772E-2,2.8214836E-3,1.2315742E0,6.842085E-2,-1.3684158E-1,-1.8245538E-1,1.4082694E0,-9.122772E-2,-9.068327E-2,6.541138E-1,-1.1403465E-1,5.929802E-1,5.590561E-1,-2.686273E-1,1.0690562E0,1.5793465E0,-1.8245538E-1,-1.3684158E-1,1.026312E0,-6.842085E-2,-1.0936128E-1,2.792296E-1,6.1578715E-1,3.87235E-1,1.4596435E0,1.3853126E0,1.4824506E0,-9.122772E-2],"split_indices":[0,6,8,8,10,8,7,7,7,7,7,7,6,10,3,12,8,10,7,8,3,8,9,8,6,8,6,7,5,2,1,7,3,6,7,8,8,10,7,7,8,5,3,7,4,5,6,7,10,7,7,0,9,3,0,7,6,4,9,1,9,0,0,0,0,0,0,0,0,0,0,0,0,0,0,0,0,0,0,0,0,0,0,0,0,0,0,0,0,0,0,0,0,0,0,0,0,0,0,0,0,0,0,0,0,0,0,0,0,0,0,0,0,0,0,0,0,0,0,0,0,0,0],"split_type":[0,0,0,0,0,0,0,0,0,0,0,0,0,0,0,0,0,0,0,0,0,0,0,0,0,0,0,0,0,0,0,0,0,0,0,0,0,0,0,0,0,0,0,0,0,0,0,0,0,0,0,0,0,0,0,0,0,0,0,0,0,0,0,0,0,0,0,0,0,0,0,0,0,0,0,0,0,0,0,0,0,0,0,0,0,0,0,0,0,0,0,0,0,0,0,0,0,0,0,0,0,0,0,0,0,0,0,0,0,0,0,0,0,0,0,0,0,0,0,0,0,0,0],"sum_hessian":[1.58312E5,9.066E4,6.7652E4,4.3252E4,4.7408E4,5.9978E4,7.674E3,2.0057E4,2.3195E4,3.0787E4,1.6621E4,1.4725E4,4.5253E4,6.634E3,1.04E3,9.364E3,1.0693E4,1.1665E4,1.153E4,1.2179E4,1.8608E4,7.278E3,9.343E3,1.0544E4,4.181E3,2.6E2,4.4993E4,3.661E3,2.973E3,1.026E3,1.4E1,9.355E3,9E0,5.935E3,4.758E3,6.788E3,4.877E3,1.0275E4,1.255E3,7.95E3,4.229E3,1.1645E4,6.963E3,6.899E3,3.79E2,1.806E3,7.537E3,5.72E2,9.972E3,9.96E2,3.185E3,1.08E2,1.52E2,1.1528E4,3.3465E4,9.53E2,2.708E3,1.822E3,1.151E3,9.93E2,3.3E1,1.3E1,1E0,8.268E3,1.087E3,4E0,5E0,2.064E3,3.871E3,1.026E3,3.732E3,2.765E3,4.023E3,4.293E3,5.84E2,1.0029E4,2.46E2,3.95E2,8.6E2,7.06E2,7.244E3,1.857E3,2.372E3,2.521E3,9.124E3,3.095E3,3.868E3,5.15E2,6.384E3,2.9E1,3.5E2,1.633E3,1.73E2,1.97E3,5.567E3,1.26E2,4.46E2,9.765E3,2.07E2,2.15E2,7.81E2,1.973E3,1.212E3,8.7E1,2.1E1,1.1E1,1.41E2,1.1513E4,1.5E1,1.41E2,3.3324E4,7.21E2,2.32E2,1.106E3,1.602E3,1.41E2,1.681E3,8.87E2,2.64E2,9.54E2,3.9E1,1.4E1,1.9E1],"tree_param":{"num_deleted":"0","num_feature":"14","num_nodes":"123","size_leaf_vector":"1"}},{"base_weights":[6.919836E-2,-4.9337643E-1,8.230973E-1,-6.2882876E-1,-3.9328322E-1,8.99915E-1,2.2267102E-1,-6.692465E-1,-3.9624956E-1,-4.8294032E-1,-2.2013605E-1,6.667798E-1,9.75759E-1,1.3323286E-1,7.9250723E-1,-7.26307E-1,-6.0087043E-1,4.0524434E-2,-7.4075234E-1,-3.5115045E-1,-5.74953E-1,-4.4899198E-1,-2.2917539E-2,9.092728E-1,1.5412262E-1,5.345345E-1,9.790081E-1,-6.635718E-2,3.789509E-1,8.159688E-1,-8.666667E-1,-8.078942E-1,-6.4084667E-1,-1.08161256E-1,-7.273033E-1,-2.4472573E-1,7.0144676E-2,-7.942494E-1,-4.60039E-1,-5.26419E-1,-2.5874266E-2,-6.707387E-1,-5.4143316E-1,-4.7943974E-1,7.505519E-2,-3.8449532E-1,6.8107404E-2,-7.118055E-2,9.6911484E-1,7.9925305E-1,-3.4699455E-2,-0E0,9.417989E-1,9.554621E-1,9.907503E-1,-5.796646E-1,1.1443337E-1,1.349424E-1,7.647569E-1,8.460765E-1,-8.82353E-2,-2.7857142E-2,-0E0,-2.4735155E-2,-2.2412568E-2,-2.158991E-2,-1.5692702E-2,1.120482E-3,-2.258007E-2,-2.3333741E-2,-1.8485745E-2,9.2857145E-3,-1.0867347E-2,2.4642857E-2,1.823425E-3,-2.4680682E-2,-1.00632915E-2,-6.7605632E-3,-1.489842E-2,-2.3475783E-2,-1.4795127E-2,2.7539607E-3,-3.4796575E-3,-2.0946978E-2,-1.4337899E-2,-1.6289664E-2,1.9499999E-2,-2.5144735E-2,-1.3216574E-2,3.4802784E-3,-2.0869564E-2,-1.4991424E-2,2.3275862E-2,4.853692E-3,-7.3549487E-3,-4.5625E-3,9.896907E-3,2.939619E-2,6.1363634E-3,2.7355492E-2,1.7763158E-2,-1.7199622E-2,5.518433E-3,-1.09375E-2,2.1E-2,2.856383E-2,-1.5E-2,2.8714659E-2,-2.0624999E-2,2.197183E-2,2.9739933E-2,-2.2154812E-2,-1.2578616E-2,1.7886179E-2,-6.550218E-3,-1.5833333E-2,5.2972026E-3,2.6385134E-2,1.1320755E-2,2.601047E-2,9.749999E-3,1.6E-2,-1.65E-2],"categories":[],"categories_nodes":[],"categories_segments":[],"categories_sizes":[],"default_left":[0,0,0,0,0,0,0,0,0,0,0,0,0,0,0,0,0,0,0,0,0,0,0,0,0,0,0,0,0,0,0,0,0,0,0,0,0,0,0,0,0,0,0,0,0,0,0,0,0,0,0,0,0,0,0,0,0,0,0,0,0,0,0,0,0,0,0,0,0,0,0,0,0,0,0,0,0,0,0,0,0,0,0,0,0,0,0,0,0,0,0,0,0,0,0,0,0,0,0,0,0,0,0,0,0,0,0,0,0,0,0,0,0,0,0,0,0,0,0,0,0,0,0],"id":10,"left_children":[1,3,5,7,9,11,13,15,17,19,21,23,25,27,29,31,33,35,37,39,41,43,45,47,49,51,53,55,57,59,61,63,65,67,69,71,73,75,77,79,81,83,85,87,89,91,93,95,97,99,101,103,105,107,109,111,113,115,117,119,121,-1,-1,-1,-1,-1,-1,-1,-1,-1,-1,-1,-1,-1,-1,-1,-1,-1,-1,-1,-1,-1,-1,-1,-1,-1,-1,-1,-1,-1,-1,-1,-1,-1,-1,-1,-1,-1,-1,-1,-1,-1,-1,-1,-1,-1,-1,-1,-1,-1,-1,-1,-1,-1,-1,-1,-1,-1,-1,-1,-1,-1,-1],"loss_changes":[6.714483E4,1.2289219E3,3.1201797E3,3.6187207E2,8.0927637E2,1.0598945E3,3.9105148E2,1.27609375E2,8.586111E2,4.1633838E2,8.028895E2,1.8305332E3,6.435156E1,3.2542462E2,4.1230103E1,1.2418457E2,9.302925E2,2.1283749E1,4.7539917E1,8.052623E2,6.457715E1,1.3141821E2,3.145389E2,5.866162E2,5.7621204E2,7.2493065E1,1.1472656E1,3.3990405E2,2.79869E2,2.8033142E1,8.047619E-1,8.62207E0,8.07417E1,2.8615927E2,6.619336E1,1.5549104E1,1.5996682E1,3.4667725E1,4.291519E0,7.777417E1,5.2468727E1,2.7438477E1,2.81333E1,1.0818616E2,1.4379023E1,2.573495E2,2.2411229E2,1.874038E1,7.729883E1,2.4440308E1,4.311365E2,3.7260418E1,3.2906342E0,4.2319336E1,3.765625E0,2.3991241E1,4.3444083E2,5.038925E1,5.087799E1,1.056366E1,1.0051962E1,0E0,0E0,0E0,0E0,0E0,0E0,0E0,0E0,0E0,0E0,0E0,0E0,0E0,0E0,0E0,0E0,0E0,0E0,0E0,0E0,0E0,0E0,0E0,0E0,0E0,0E0,0E0,0E0,0E0,0E0,0E0,0E0,0E0,0E0,0E0,0E0,0E0,0E0,0E0,0E0,0E0,0E0,0E0,0E0,0E0,0E0,0E0,0E0,0E0,0E0,0E0,0E0,0E0,0E0,0E0,0E0,0E0,0E0,0E0,0E0,0E0,0E0],"parents":[2147483647,0,0,1,1,2,2,3,3,4,4,5,5,6,6,7,7,8,8,9,9,10,10,11,11,12,12,13,13,14,14,15,15,16,16,17,17,18,18,19,19,20,20,21,21,22,22,23,23,24,24,25,25,26,26,27,27,28,28,29,29,30,30,31,31,32,32,33,33,34,34,35,35,36,36,37,37,38,38,39,39,40,40,41,41,42,42,43,43,44,44,45,45,46,46,47,47,48,48,49,49,50,50,51,51,52,52,53,53,54,54,55,55,56,56,57,57,58,58,59,59,60,60],"right_children":[2,4,6,8,10,12,14,16,18,20,22,24,26,28,30,32,34,36,38,40,42,44,46,48,50,52,54,56,58,60,62,64,66,68,70,72,74,76,78,80,82,84,86,88,90,92,94,96,98,100,102,104,106,108,110,112,114,116,118,120,122,-1,-1,-1,-1,-1,-1,-1,-1,-1,-1,-1,-1,-1,-1,-1,-1,-1,-1,-1,-1,-1,-1,-1,-1,-1,-1,-1,-1,-1,-1,-1,-1,-1,-1,-1,-1,-1,-1,-1,-1,-1,-1,-1,-1,-1,-1,-1,-1,-1,-1,-1,-1,-1,-1,-1,-1,-1,-1,-1,-1,-1,-1],"split_conditions":[3.2E1,1.725E1,2.1E1,1.4E1,1E0,1E1,1.104375E2,6E0,3.38125E1,2.175E1,2.15E1,9E0,2.7E1,1E0,1.43E2,1.66875E1,7E0,1E1,5.96875E1,6E0,1.6E1,1.3E1,5E0,7E0,5.025E1,4.1E1,6.175E1,8.60625E1,5.8E1,1.11E2,1.29E2,1.56875E1,2E0,1E0,1E0,1.1E1,1.075E1,1E0,-7.5E1,1.65625E1,8E0,8.6E1,1.04E2,1.6875E1,1.1E1,3.7E1,2.2E1,2.9E1,1E0,4.79375E1,7.55E1,1.4E1,3.3E1,8.5E1,1.1E1,8.3E1,7.675E1,2.9E1,5E0,1.2E2,2E0,-1.3273636E-1,0E0,-1.7698173E-1,-1.7698173E-1,-1.5755013E-1,-1.1066683E-1,1.23533644E-1,-1.5825537E-1,-1.7609568E-1,-1.5825537E-1,2.71757E0,-1.6242988E-1,2.9060392E0,1.2175701E0,-1.8461277E-1,-7.85701E-2,-7.918853E-2,-8.0934964E-2,-1.7698173E-1,-1.0999408E-1,4.3950793E-1,-6.084503E-2,-1.3918853E-1,-1.04871996E-1,-1.08832024E-1,1.180431E0,-1.8825537E-1,-8.175173E-2,4.5117888E-1,-2.2478594E-1,-9.385088E-2,5.244569E-1,4.224655E-2,-5.4292258E-2,-3.1763192E-2,5.8236808E-2,1.254627E0,6.3682366E-3,9.54627E-1,9.24627E-1,-1.6273636E-1,1.5150914E-1,-1.1796278E-1,4.551908E-1,6.398184E-1,-2.0018159E-1,6.0124344E-1,-2.3287433E-1,7.305391E-1,1.8019662E0,-1.7698173E-1,-1.4698173E-1,9.9552256E-1,-6.636824E-2,-1.3608043E-1,2.108527E-1,5.973135E-1,3.7561792E-1,1.4158542E0,1.3437532E0,1.437977E0,-8.8490866E-2],"split_indices":[0,6,8,8,10,8,7,8,7,7,7,8,6,10,3,7,8,0,7,8,5,8,9,8,7,0,6,7,5,2,1,7,8,10,10,2,6,10,13,7,8,4,7,7,12,5,8,2,10,7,6,8,7,3,8,7,6,4,9,1,9,0,0,0,0,0,0,0,0,0,0,0,0,0,0,0,0,0,0,0,0,0,0,0,0,0,0,0,0,0,0,0,0,0,0,0,0,0,0,0,0,0,0,0,0,0,0,0,0,0,0,0,0,0,0,0,0,0,0,0,0,0,0],"split_type":[0,0,0,0,0,0,0,0,0,0,0,0,0,0,0,0,0,0,0,0,0,0,0,0,0,0,0,0,0,0,0,0,0,0,0,0,0,0,0,0,0,0,0,0,0,0,0,0,0,0,0,0,0,0,0,0,0,0,0,0,0,0,0,0,0,0,0,0,0,0,0,0,0,0,0,0,0,0,0,0,0,0,0,0,0,0,0,0,0,0,0,0,0,0,0,0,0,0,0,0,0,0,0,0,0,0,0,0,0,0,0,0,0,0,0,0,0,0,0,0,0,0,0],"sum_hessian":[1.58312E5,9.066E4,6.7652E4,3.8523E4,5.2137E4,5.9978E4,7.674E3,3.2818E4,5.705E3,3.4349E4,1.7788E4,1.4725E4,4.5253E4,6.634E3,1.04E3,1.7884E4,1.4934E4,2.516E3,3.189E3,1.4124E4,2.0225E4,8.233E3,9.555E3,9.996E3,4.729E3,3.32E2,4.4921E4,3.661E3,2.973E3,1.026E3,1.4E1,9.145E3,8.739E3,3.05E3,1.1884E4,2.36E2,2.28E3,2.677E3,5.12E2,9.178E3,4.946E3,5.238E3,1.4987E4,7.781E3,4.52E2,1.921E3,7.634E3,5.75E2,9.421E3,1.07E3,3.659E3,1.44E2,1.88E2,1.4975E4,2.9946E4,9.53E2,2.708E3,1.822E3,1.151E3,9.93E2,3.3E1,1.3E1,1E0,7.173E3,1.972E3,5.232E3,3.507E3,2.489E3,5.61E2,8.167E3,3.717E3,4.1E1,1.95E2,2.7E1,2.253E3,2.52E3,1.57E2,7E1,4.42E2,1.052E3,8.126E3,2.145E3,2.801E3,4.582E3,6.56E2,1.4968E4,1.9E1,7.59E2,7.022E3,4.3E2,2.2E1,1.748E3,1.73E2,5.877E3,1.757E3,4.79E2,9.6E1,9.29E3,1.31E2,6.91E2,3.79E2,1.056E3,2.603E3,9.5E1,4.9E1,1.87E2,1E0,1.496E4,1.5E1,7E1,2.9876E4,4.77E2,4.76E2,1.106E3,1.602E3,1.07E2,1.715E3,8.87E2,2.64E2,9.54E2,3.9E1,1.4E1,1.9E1],"tree_param":{"num_deleted":"0","num_feature":"14","num_nodes":"123","size_leaf_vector":"1"}},{"base_weights":[7.029745E-2,-4.86626E-1,8.1662303E-1,-5.887319E-1,-3.6046454E-1,8.9407957E-1,2.1120521E-1,-6.8859684E-1,-5.014769E-1,-4.769392E-1,-1.5771335E-1,6.54964E-1,9.718699E-1,1.1996986E-1,7.9250723E-1,-8.0331504E-1,-5.968736E-1,-3.22862E-1,-6.8427026E-1,-3.3053222E-1,-5.644541E-1,-4.183339E-1,2.4936795E-2,9.062719E-1,1.2367865E-1,5.345345E-1,9.7509015E-1,-6.635718E-2,3.4936112E-1,8.159688E-1,-8.666667E-1,-8.172831E-1,-7.353933E-1,-6.819874E-1,-4.9775112E-1,-1.2073863E-1,-5.933287E-1,-7.100501E-1,-4.7408432E-1,-4.9769E-1,-1.843592E-2,-5.0649774E-1,-6.405801E-1,-4.482223E-1,1.5081967E-1,1.0755568E-1,-3.393412E-1,-7.118055E-2,9.659308E-1,7.8804857E-1,-7.0765026E-2,-0E0,9.417989E-1,9.458201E-1,9.876728E-1,-5.796646E-1,1.1443337E-1,9.873834E-2,7.456597E-1,8.460765E-1,-8.82353E-2,-2.7857142E-2,-0E0,-2.4541328E-2,-0E0,-3.5294117E-3,-2.222789E-2,-2.1140529E-2,-1.320598E-2,-1.4174255E-2,-1.8046075E-2,1.2155746E-3,-6.953772E-3,-2.0171706E-2,5.891238E-4,-2.1647727E-2,-9.307228E-3,-1.3096054E-2,-1.8829787E-2,-2.421365E-2,-1.4401616E-2,-1.6333332E-2,-1.19120334E-4,-1.7826393E-2,-1.4711277E-2,-2.375E-2,-1.55854225E-2,-2.604878E-2,-1.29821105E-2,1.4328358E-2,1.7573222E-3,-5.307125E-3,6.658103E-3,-1.733853E-2,-1.1376403E-3,-4.5625E-3,9.896907E-3,2.929932E-2,6.1363634E-3,2.6835259E-2,1.7763158E-2,-1.7199622E-2,3.9976956E-3,-1.09375E-2,2.1E-2,2.856383E-2,-1.5E-2,2.1197604E-2,2.8462172E-2,2.9753163E-2,2.884669E-2,-2.2154812E-2,-1.2578616E-2,1.7886179E-2,-6.550218E-3,-1.415493E-2,4.4054696E-3,2.6385134E-2,8.830189E-3,2.601047E-2,9.749999E-3,1.6E-2,-1.65E-2],"categories":[],"categories_nodes":[],"categories_segments":[],"categories_sizes":[],"default_left":[0,0,0,0,0,0,0,0,0,0,0,0,0,0,0,0,0,0,0,0,0,0,0,0,0,0,0,0,0,0,0,0,0,0,0,0,0,0,0,0,0,0,0,0,0,0,0,0,0,0,0,0,0,0,0,0,0,0,0,0,0,0,0,0,0,0,0,0,0,0,0,0,0,0,0,0,0,0,0,0,0,0,0,0,0,0,0,0,0,0,0,0,0,0,0,0,0,0,0,0,0,0,0,0,0,0,0,0,0,0,0,0,0,0,0,0,0,0,0,0,0,0,0],"id":11,"left_children":[1,3,5,7,9,11,13,15,17,19,21,23,25,27,29,31,33,35,37,39,41,43,45,47,49,51,53,55,57,59,61,63,65,67,69,71,73,75,77,79,81,83,85,87,89,91,93,95,97,99,101,103,105,107,109,111,113,115,117,119,121,-1,-1,-1,-1,-1,-1,-1,-1,-1,-1,-1,-1,-1,-1,-1,-1,-1,-1,-1,-1,-1,-1,-1,-1,-1,-1,-1,-1,-1,-1,-1,-1,-1,-1,-1,-1,-1,-1,-1,-1,-1,-1,-1,-1,-1,-1,-1,-1,-1,-1,-1,-1,-1,-1,-1,-1,-1,-1,-1,-1,-1,-1],"loss_changes":[6.580259E4,1.167666E3,3.1723008E3,4.3626367E2,9.576699E2,1.1150273E3,4.069508E2,2.4534277E2,8.7299316E2,3.298452E2,7.0447797E2,1.9660469E3,6.3214844E1,2.83615E2,4.1230103E1,9.244141E0,1.0921973E2,7.3952686E2,7.128027E1,5.0285083E2,7.0796875E1,1.0380139E2,2.61934E2,5.8303125E2,6.110891E2,7.2493065E1,1.5609375E1,3.3990405E2,2.953084E2,2.8033142E1,8.047619E-1,5.348633E0,6.0006714E0,3.801709E1,1.5463135E1,1.3869116E2,2.804148E2,5.4088867E1,8.0703125E0,3.386731E1,2.558637E1,1.2657715E1,1.2697046E2,3.73136E1,9.165961E0,2.3085551E2,1.15700134E2,1.874038E1,7.665332E1,2.1811584E1,3.753442E2,3.7260418E1,3.2906342E0,8.776367E0,2.40625E0,2.3991241E1,4.3444083E2,5.0111473E1,6.932977E1,1.056366E1,1.0051962E1,0E0,0E0,0E0,0E0,0E0,0E0,0E0,0E0,0E0,0E0,0E0,0E0,0E0,0E0,0E0,0E0,0E0,0E0,0E0,0E0,0E0,0E0,0E0,0E0,0E0,0E0,0E0,0E0,0E0,0E0,0E0,0E0,0E0,0E0,0E0,0E0,0E0,0E0,0E0,0E0,0E0,0E0,0E0,0E0,0E0,0E0,0E0,0E0,0E0,0E0,0E0,0E0,0E0,0E0,0E0,0E0,0E0,0E0,0E0,0E0,0E0,0E0],"parents":[2147483647,0,0,1,1,2,2,3,3,4,4,5,5,6,6,7,7,8,8,9,9,10,10,11,11,12,12,13,13,14,14,15,15,16,16,17,17,18,18,19,19,20,20,21,21,22,22,23,23,24,24,25,25,26,26,27,27,28,28,29,29,30,30,31,31,32,32,33,33,34,34,35,35,36,36,37,37,38,38,39,39,40,40,41,41,42,42,43,43,44,44,45,45,46,46,47,47,48,48,49,49,50,50,51,51,52,52,53,53,54,54,55,55,56,56,57,57,58,58,59,59,60,60],"right_children":[2,4,6,8,10,12,14,16,18,20,22,24,26,28,30,32,34,36,38,40,42,44,46,48,50,52,54,56,58,60,62,64,66,68,70,72,74,76,78,80,82,84,86,88,90,92,94,96,98,100,102,104,106,108,110,112,114,116,118,120,122,-1,-1,-1,-1,-1,-1,-1,-1,-1,-1,-1,-1,-1,-1,-1,-1,-1,-1,-1,-1,-1,-1,-1,-1,-1,-1,-1,-1,-1,-1,-1,-1,-1,-1,-1,-1,-1,-1,-1,-1,-1,-1,-1,-1,-1,-1,-1,-1,-1,-1,-1,-1,-1,-1,-1,-1,-1,-1,-1,-1,-1,-1],"split_conditions":[3.2E1,1.85E1,2.1E1,6E0,1E0,1E1,1.104375E2,1.6875E1,2.0875E1,2.20625E1,2.20625E1,9E0,2.7E1,1E0,1.43E2,1.6E1,2E0,1E0,6.1E1,6E0,4.4E1,1.3E1,2.3E1,7E0,5.025E1,4.1E1,6.2E1,8.60625E1,5.8E1,1.11E2,1.29E2,1.8E1,7E0,4.20625E1,6E0,8E0,1.3E1,1E0,6E0,1.65625E1,1E1,1.5E1,7.8E1,1.65625E1,-5E0,2.225E1,4.63125E1,2.9E1,1E0,4.79375E1,7.55E1,1.4E1,3.3E1,2.3E1,1E0,8.3E1,7.675E1,3.2E1,5E0,1.2E2,2E0,-1.2875427E-1,0E0,-1.716723E-1,-7.980906E-2,-6.1019752E-2,-1.716723E-1,-1.4773223E-1,-7.6450996E-2,-1.0225267E-1,-1.07373044E-1,1.7982765E-1,-1.3048787E-1,-1.349941E-1,8.451347E-3,-1.5282303E-1,-6.884646E-2,-7.714668E-2,-1.03905655E-1,-1.716723E-1,-1.0669424E-1,-2.1571168E-1,-1.2011661E-2,-1.0478176E-1,-1.05040625E-1,-1.7962675E-1,-1.05040625E-1,-1.8515807E-1,-7.86204E-2,7.67043E-1,4.2011866E-1,-5.3263836E-2,4.653408E-2,-1.2378931E-1,-7.795429E-3,-3.0810298E-2,5.6489695E-2,1.2169882E0,6.177177E-3,9.2598814E-1,8.968882E-1,-1.5785424E-1,1.4696388E-1,-1.1442392E-1,4.415351E-1,6.206238E-1,-1.9417614E-1,5.6259394E-1,5.542472E-1,2.107907E0,6.679072E-1,-1.716723E-1,-1.4257227E-1,9.6565694E-1,-6.437719E-2,-1.0199804E-1,2.6452708E-1,5.7939416E-1,3.6434937E-1,1.3733785E0,1.3034406E0,1.3948377E0,-8.583612E-2],"split_indices":[0,6,8,8,10,8,7,7,7,7,7,8,6,10,3,7,8,10,7,8,3,8,8,8,7,0,0,7,5,2,1,12,0,7,9,8,8,10,12,7,5,5,3,7,12,6,7,2,10,7,6,8,7,1,10,7,6,4,9,1,9,0,0,0,0,0,0,0,0,0,0,0,0,0,0,0,0,0,0,0,0,0,0,0,0,0,0,0,0,0,0,0,0,0,0,0,0,0,0,0,0,0,0,0,0,0,0,0,0,0,0,0,0,0,0,0,0,0,0,0,0,0,0],"split_type":[0,0,0,0,0,0,0,0,0,0,0,0,0,0,0,0,0,0,0,0,0,0,0,0,0,0,0,0,0,0,0,0,0,0,0,0,0,0,0,0,0,0,0,0,0,0,0,0,0,0,0,0,0,0,0,0,0,0,0,0,0,0,0,0,0,0,0,0,0,0,0,0,0,0,0,0,0,0,0,0,0,0,0,0,0,0,0,0,0,0,0,0,0,0,0,0,0,0,0,0,0,0,0,0,0,0,0,0,0,0,0,0,0,0,0,0,0,0,0,0,0,0,0],"sum_hessian":[1.58312E5,9.066E4,6.7652E4,5.0105E4,4.0555E4,5.9978E4,7.674E3,2.3361E4,2.6744E4,2.5757E4,1.4798E4,1.4725E4,4.5253E4,6.634E3,1.04E3,1.0376E4,1.2985E4,1.3528E4,1.3216E4,9.638E3,1.6119E4,6.097E3,8.701E3,9.996E3,4.729E3,3.32E2,4.4921E4,3.661E3,2.973E3,1.026E3,1.4E1,8.597E3,1.779E3,6.983E3,6.002E3,7.743E3,5.785E3,1.177E4,1.446E3,6.276E3,3.362E3,9.156E3,6.963E3,5.793E3,3.04E2,7.093E3,1.608E3,5.75E2,9.421E3,1.07E3,3.659E3,1.44E2,1.88E2,1.3528E4,3.1393E4,9.53E2,2.708E3,1.822E3,1.151E3,9.93E2,3.3E1,1.3E1,1E0,8.589E3,8E0,1.6E1,1.763E3,6.382E3,6.01E2,4.831E3,1.171E3,3.158E3,4.585E3,5.124E3,6.61E2,1.1439E4,3.31E2,1.165E3,2.81E2,3.36E2,5.94E3,8.9E1,3.273E3,1.416E3,7.74E3,3.095E3,3.868E3,2.04E2,5.589E3,6.6E1,2.38E2,2.034E3,5.059E3,8.97E2,7.11E2,4.79E2,9.6E1,9.29E3,1.31E2,6.91E2,3.79E2,1.056E3,2.603E3,9.5E1,4.9E1,1.87E2,1E0,1.66E2,1.3362E4,2.7102E4,4.291E3,4.77E2,4.76E2,1.106E3,1.602E3,1.41E2,1.681E3,8.87E2,2.64E2,9.54E2,3.9E1,1.4E1,1.9E1],"tree_param":{"num_deleted":"0","num_feature":"14","num_nodes":"123","size_leaf_vector":"1"}},{"base_weights":[7.4668534E-2,-4.7716218E-1,8.1416935E-1,-5.7591903E-1,-3.5513857E-1,8.9151204E-1,2.096417E-1,-6.85943E-1,-4.7979063E-1,-4.7026166E-1,-1.5474018E-1,6.557789E-1,9.682017E-1,1.1816127E-1,7.9250723E-1,-8.027368E-1,-5.9256124E-1,-2.9861778E-1,-6.652039E-1,-3.3011723E-1,-5.5403227E-1,-4.138522E-1,1.38284825E-2,9.0867263E-1,1.2114165E-1,5.285285E-1,9.7143936E-1,-6.635718E-2,3.4532616E-1,8.159688E-1,-8.666667E-1,-8.172831E-1,-7.3202246E-1,-6.779782E-1,-4.9308679E-1,-1.2048037E-1,-5.369858E-1,-7.575093E-1,-5.9009874E-1,-4.9769E-1,-1.7246505E-2,-6.525012E-1,-5.202033E-1,-4.4404268E-1,1.3861386E-1,1.2011734E-1,-2.6254517E-1,1.5625E-2,9.631713E-1,7.768441E-1,-7.0765026E-2,-3.6231883E-2,9.2346936E-1,9.241143E-1,9.819126E-1,-5.796646E-1,1.1443337E-1,9.873834E-2,7.352431E-1,8.460765E-1,-8.82353E-2,-2.7857142E-2,-0E0,-2.4541328E-2,-0E0,-2.3313096E-2,-1.9442674E-2,-2.100893E-2,-1.320598E-2,-1.4000414E-2,-1.8046075E-2,1.2155746E-3,-6.940689E-3,-1.8263415E-2,5.891238E-4,-2.2909464E-2,-9.642857E-3,-2.0123953E-2,-1.623956E-2,-2.421365E-2,-1.4401616E-2,-2.7201257E-3,2.3695054E-3,-2.0678852E-2,-1.3883928E-2,-1.9791367E-2,-1.5056528E-2,-1.5418435E-2,-1.0219337E-2,-2.7027025E-3,8.082901E-3,9.037746E-4,2.184431E-2,-1.6873406E-2,1.825095E-4,-9.290323E-3,4.0521324E-3,2.921537E-2,6.1363634E-3,9.924811E-3,2.5175717E-2,-1.7199622E-2,3.9976956E-3,1.98E-2,-1.2808988E-2,-2.5E-3,2.9513514E-2,1.5172414E-2,2.7855285E-2,2.9706487E-2,2.8693205E-2,-2.2154812E-2,-1.2578616E-2,1.7886179E-2,-6.550218E-3,-1.415493E-2,4.4054696E-3,2.597973E-2,8.830189E-3,2.601047E-2,9.749999E-3,1.6E-2,-1.65E-2],"categories":[],"categories_nodes":[],"categories_segments":[],"categories_sizes":[],"default_left":[0,0,0,0,0,0,0,0,0,0,0,0,0,0,0,0,0,0,0,0,0,0,0,0,0,0,0,0,0,0,0,0,0,0,0,0,0,0,0,0,0,0,0,0,0,0,0,0,0,0,0,0,0,0,0,0,0,0,0,0,0,0,0,0,0,0,0,0,0,0,0,0,0,0,0,0,0,0,0,0,0,0,0,0,0,0,0,0,0,0,0,0,0,0,0,0,0,0,0,0,0,0,0,0,0,0,0,0,0,0,0,0,0,0,0,0,0,0,0,0,0,0,0],"id":12,"left_children":[1,3,5,7,9,11,13,15,17,19,21,23,25,27,29,31,33,35,37,39,41,43,45,47,49,51,53,55,57,59,61,63,65,67,69,71,73,75,77,79,81,83,85,87,89,91,93,95,97,99,101,103,105,107,109,111,113,115,117,119,121,-1,-1,-1,-1,-1,-1,-1,-1,-1,-1,-1,-1,-1,-1,-1,-1,-1,-1,-1,-1,-1,-1,-1,-1,-1,-1,-1,-1,-1,-1,-1,-1,-1,-1,-1,-1,-1,-1,-1,-1,-1,-1,-1,-1,-1,-1,-1,-1,-1,-1,-1,-1,-1,-1,-1,-1,-1,-1,-1,-1,-1,-1],"loss_changes":[6.4604645E4,1.0923223E3,3.1629766E3,5.296133E2,9.3557324E2,1.0836836E3,4.0914337E2,2.5431934E2,8.9821533E2,3.0221582E2,6.463989E2,1.990939E3,6.390625E1,2.7813632E2,4.1230103E1,1.0076172E1,1.1000537E2,5.744072E2,9.118115E1,5.053507E2,5.335791E1,9.735138E1,2.634411E2,4.865381E2,5.952482E2,7.43081E1,2.1355469E1,3.3990405E2,2.8587378E2,2.8033142E1,8.047619E-1,5.348633E0,6.2315063E0,3.675659E1,1.69104E1,1.382473E2,2.3123547E2,1.5620361E1,2.8342285E1,3.386731E1,2.3768866E1,2.8424316E1,3.0344238E1,3.9803223E1,9.089481E0,3.5438147E2,2.0068399E2,2.2422943E1,7.609863E1,2.9504333E1,3.753442E2,3.7823563E1,1.1984009E1,1.4529785E1,6.828125E0,2.3991241E1,4.3444083E2,5.0111473E1,6.6154724E1,1.056366E1,1.0051962E1,0E0,0E0,0E0,0E0,0E0,0E0,0E0,0E0,0E0,0E0,0E0,0E0,0E0,0E0,0E0,0E0,0E0,0E0,0E0,0E0,0E0,0E0,0E0,0E0,0E0,0E0,0E0,0E0,0E0,0E0,0E0,0E0,0E0,0E0,0E0,0E0,0E0,0E0,0E0,0E0,0E0,0E0,0E0,0E0,0E0,0E0,0E0,0E0,0E0,0E0,0E0,0E0,0E0,0E0,0E0,0E0,0E0,0E0,0E0,0E0,0E0,0E0],"parents":[2147483647,0,0,1,1,2,2,3,3,4,4,5,5,6,6,7,7,8,8,9,9,10,10,11,11,12,12,13,13,14,14,15,15,16,16,17,17,18,18,19,19,20,20,21,21,22,22,23,23,24,24,25,25,26,26,27,27,28,28,29,29,30,30,31,31,32,32,33,33,34,34,35,35,36,36,37,37,38,38,39,39,40,40,41,41,42,42,43,43,44,44,45,45,46,46,47,47,48,48,49,49,50,50,51,51,52,52,53,53,54,54,55,55,56,56,57,57,58,58,59,59,60,60],"right_children":[2,4,6,8,10,12,14,16,18,20,22,24,26,28,30,32,34,36,38,40,42,44,46,48,50,52,54,56,58,60,62,64,66,68,70,72,74,76,78,80,82,84,86,88,90,92,94,96,98,100,102,104,106,108,110,112,114,116,118,120,122,-1,-1,-1,-1,-1,-1,-1,-1,-1,-1,-1,-1,-1,-1,-1,-1,-1,-1,-1,-1,-1,-1,-1,-1,-1,-1,-1,-1,-1,-1,-1,-1,-1,-1,-1,-1,-1,-1,-1,-1,-1,-1,-1,-1,-1,-1,-1,-1,-1,-1,-1,-1,-1,-1,-1,-1,-1,-1,-1,-1,-1,-1],"split_conditions":[3.2E1,1.85E1,2.1E1,6E0,1E0,1E1,1.104375E2,1.6875E1,2.0875E1,2.20625E1,2.15E1,9E0,2.7E1,1E0,1.43E2,1.6E1,2E0,1E0,1.55E1,6E0,1.6E1,1.3E1,2.2E1,7E0,5.025E1,1.4E1,5.4E1,8.60625E1,5.8E1,1.11E2,1.29E2,1.8E1,1.9E1,4.20625E1,6E0,8E0,1.3E1,1E0,1.7E1,1.65625E1,1.4E1,8.5E1,1.4E1,5E0,1.9E1,9E0,4.63125E1,2.26875E1,1E0,5.5E1,7.55E1,1.1E1,3E0,2.3E1,1E0,8.3E1,7.675E1,3.2E1,5E0,1.2E2,2E0,-1.2489166E-1,0E0,-1.6652212E-1,-7.741479E-2,-1.6652212E-1,-1.489349E-1,-1.4330028E-1,-7.4157484E-2,-9.918509E-2,-1.04151875E-1,1.7443284E-1,-1.2657325E-1,-1.3094427E-1,8.197803E-3,-1.7448972E-1,-6.9679186E-2,-1.4823835E-1,-1.1520721E-1,-1.6652212E-1,-1.03493385E-1,-5.3316936E-2,1.0813407E0,-1.3358533E-1,-9.85746E-2,-1.3451523E-1,-1.0188938E-1,-1.0442894E-1,-6.271025E-2,-6.54701E-2,6.245299E-1,4.1352655E-3,6.873272E-1,-1.20099075E-1,1.5806579E-3,-8.661369E-2,2.4794998E-2,1.1804786E0,5.9918403E-3,5.9820855E-1,8.9998156E-1,-1.5311863E-1,1.4255498E-1,4.719538E-1,-1.1099121E-1,-1.3751541E-1,6.273775E-1,3.675627E-1,4.7761974E-1,2.0146701E0,6.4138937E-1,-1.6652212E-1,-1.382951E-1,9.3668723E-1,-6.2445886E-2,-9.893812E-2,2.565913E-1,5.620124E-1,3.534189E-1,1.3321772E0,1.2643374E0,1.3529927E0,-8.326103E-2],"split_indices":[0,6,8,8,10,8,7,7,7,7,7,8,6,10,3,7,8,10,6,8,5,8,8,8,7,8,0,7,5,2,1,12,5,7,9,8,8,10,5,7,8,4,0,9,2,8,7,7,10,1,6,8,9,1,10,7,6,4,9,1,9,0,0,0,0,0,0,0,0,0,0,0,0,0,0,0,0,0,0,0,0,0,0,0,0,0,0,0,0,0,0,0,0,0,0,0,0,0,0,0,0,0,0,0,0,0,0,0,0,0,0,0,0,0,0,0,0,0,0,0,0,0,0],"split_type":[0,0,0,0,0,0,0,0,0,0,0,0,0,0,0,0,0,0,0,0,0,0,0,0,0,0,0,0,0,0,0,0,0,0,0,0,0,0,0,0,0,0,0,0,0,0,0,0,0,0,0,0,0,0,0,0,0,0,0,0,0,0,0,0,0,0,0,0,0,0,0,0,0,0,0,0,0,0,0,0,0,0,0,0,0,0,0,0,0,0,0,0,0,0,0,0,0,0,0,0,0,0,0,0,0,0,0,0,0,0,0,0,0,0,0,0,0,0,0,0,0,0,0],"sum_hessian":[1.58312E5,9.066E4,6.7652E4,5.0105E4,4.0555E4,5.9978E4,7.674E3,2.3361E4,2.6744E4,2.5757E4,1.4798E4,1.4725E4,4.5253E4,6.634E3,1.04E3,1.0376E4,1.2985E4,1.3528E4,1.3216E4,9.638E3,1.6119E4,5.832E3,8.966E3,9.996E3,4.729E3,3.32E2,4.4921E4,3.661E3,2.973E3,1.026E3,1.4E1,8.597E3,1.779E3,6.983E3,6.002E3,7.743E3,5.785E3,5.925E3,7.291E3,6.276E3,3.362E3,4.117E3,1.2002E4,5.53E3,3.02E2,6.476E3,2.49E3,5.75E2,9.421E3,1.07E3,3.659E3,1.37E2,1.95E2,8.156E3,3.6765E4,9.53E2,2.708E3,1.822E3,1.151E3,9.93E2,3.3E1,1.3E1,1E0,8.589E3,8E0,1.152E3,6.27E2,6.382E3,6.01E2,4.831E3,1.171E3,3.158E3,4.585E3,5.124E3,6.61E2,5.842E3,8.3E1,2.742E3,4.549E3,3.36E2,5.94E3,1.907E3,1.455E3,3.446E3,6.71E2,1.389E3,1.0613E4,3.297E3,2.233E3,1.1E2,1.92E2,5.642E3,8.34E2,1.176E3,1.314E3,1.54E2,4.21E2,9.29E3,1.31E2,1.32E2,9.38E2,1.056E3,2.603E3,4.9E1,8.8E1,1.1E1,1.84E2,8.6E1,8.07E3,2.7698E4,9.067E3,4.77E2,4.76E2,1.106E3,1.602E3,1.41E2,1.681E3,8.87E2,2.64E2,9.54E2,3.9E1,1.4E1,1.9E1],"tree_param":{"num_deleted":"0","num_feature":"14","num_nodes":"123","size_leaf_vector":"1"}},{"base_weights":[7.531283E-2,-4.7407374E-1,8.115383E-1,-5.9954834E-1,-3.8135332E-1,8.8877773E-1,2.0781758E-1,-7.1445346E-1,-4.9995154E-1,-4.7409025E-1,-2.0225982E-1,6.500747E-1,9.664339E-1,1.1605124E-1,7.9250723E-1,-8.0925244E-1,-6.1944723E-1,-3.0786005E-1,-6.835671E-1,-3.5440707E-1,-5.576486E-1,-3.7909895E-1,3.966458E-2,9.0047014E-1,1.20718814E-1,5.285285E-1,9.696585E-1,-6.471873E-2,3.386012E-1,8.159688E-1,-8.666667E-1,-8.242264E-1,-7.483108E-1,-6.821558E-1,-5.2997017E-1,-1.20762356E-1,-5.743812E-1,-7.5656915E-1,-5.8529544E-1,-5.262011E-1,-3.557712E-2,-6.5088755E-1,-5.2502E-1,-4.777017E-1,-2.4143556E-1,-2.8993666E-1,1.1652716E-1,-7.118055E-2,9.59775E-1,7.7310926E-1,-7.021858E-2,-3.6231883E-2,9.2346936E-1,9.29019E-1,9.8232543E-1,-5.733753E-1,1.1443337E-1,1.3867563E-1,8.0583614E-1,8.460765E-1,-8.82353E-2,-2.7857142E-2,-0E0,-2.4740584E-2,-0E0,1.875E-3,-2.265758E-2,-2.1204544E-2,-1.17233E-2,-1.9797979E-2,-1.4651412E-2,8.7769196E-4,-6.814644E-3,-1.9874282E-2,2.027833E-3,-2.2879906E-2,-1.0333333E-2,-2.0624999E-2,-1.5555555E-2,-2.3475783E-2,-1.4787744E-2,2.2227399E-3,-3.5867237E-3,-2.040451E-2,-1.3952514E-2,-1.578631E-2,2.3571428E-2,-1.5956154E-2,1.4464286E-3,-6.3045137E-3,-1.7142858E-2,-1.0860135E-2,2.5411764E-2,5.385738E-3,-3.4899847E-3,-4.5625E-3,9.896907E-3,2.9112043E-2,6.1363634E-3,5.113636E-3,2.4786584E-2,-1.7142858E-2,3.9976956E-3,1.98E-2,-1.2808988E-2,-2.5E-3,2.9513514E-2,2.7951863E-2,-2.8125E-2,2.8976062E-2,2.9711124E-2,-2.2154812E-2,-1.2201258E-2,1.7886179E-2,-6.550218E-3,-1.5833333E-2,5.2503794E-3,2.5957974E-2,6.506024E-3,2.601047E-2,9.749999E-3,1.6E-2,-1.65E-2],"categories":[],"categories_nodes":[],"categories_segments":[],"categories_sizes":[],"default_left":[0,0,0,0,0,0,0,0,0,0,0,0,0,0,0,0,0,0,0,0,0,0,0,0,0,0,0,0,0,0,0,0,0,0,0,0,0,0,0,0,0,0,0,0,0,0,0,0,0,0,0,0,0,0,0,0,0,0,0,0,0,0,0,0,0,0,0,0,0,0,0,0,0,0,0,0,0,0,0,0,0,0,0,0,0,0,0,0,0,0,0,0,0,0,0,0,0,0,0,0,0,0,0,0,0,0,0,0,0,0,0,0,0,0,0,0,0,0,0,0,0,0,0],"id":13,"left_children":[1,3,5,7,9,11,13,15,17,19,21,23,25,27,29,31,33,35,37,39,41,43,45,47,49,51,53,55,57,59,61,63,65,67,69,71,73,75,77,79,81,83,85,87,89,91,93,95,97,99,101,103,105,107,109,111,113,115,117,119,121,-1,-1,-1,-1,-1,-1,-1,-1,-1,-1,-1,-1,-1,-1,-1,-1,-1,-1,-1,-1,-1,-1,-1,-1,-1,-1,-1,-1,-1,-1,-1,-1,-1,-1,-1,-1,-1,-1,-1,-1,-1,-1,-1,-1,-1,-1,-1,-1,-1,-1,-1,-1,-1,-1,-1,-1,-1,-1,-1,-1,-1,-1],"loss_changes":[6.4033625E4,1.0545273E3,3.1545469E3,4.4051758E2,8.658428E2,1.1111875E3,4.117088E2,1.6058008E2,7.277827E2,3.4331982E2,7.6105884E2,1.9517974E3,6.338672E1,2.669503E2,4.1230103E1,7.5493164E0,4.9783447E1,5.030235E2,7.525781E1,7.736509E2,6.1190918E1,1.393844E2,1.9036813E2,5.7613135E2,5.8925024E2,7.43081E1,2.2214844E1,3.3377225E2,2.776962E2,2.8033142E1,8.047619E-1,2.71875E0,1.0043518E1,3.7458008E1,1.9606323E1,9.46386E1,2.3536926E2,1.4934814E1,3.0369263E1,7.790723E1,4.5570698E1,2.8168701E1,2.379834E1,1.7058875E2,4.417961E1,1.1674451E2,8.940265E1,1.874038E1,7.541699E1,3.4138855E1,3.733367E2,3.7823563E1,1.1984009E1,5.4958008E1,3.5703125E0,2.5953491E1,4.3444083E2,5.0560455E1,3.0999329E1,1.056366E1,1.0051962E1,0E0,0E0,0E0,0E0,0E0,0E0,0E0,0E0,0E0,0E0,0E0,0E0,0E0,0E0,0E0,0E0,0E0,0E0,0E0,0E0,0E0,0E0,0E0,0E0,0E0,0E0,0E0,0E0,0E0,0E0,0E0,0E0,0E0,0E0,0E0,0E0,0E0,0E0,0E0,0E0,0E0,0E0,0E0,0E0,0E0,0E0,0E0,0E0,0E0,0E0,0E0,0E0,0E0,0E0,0E0,0E0,0E0,0E0,0E0,0E0,0E0,0E0],"parents":[2147483647,0,0,1,1,2,2,3,3,4,4,5,5,6,6,7,7,8,8,9,9,10,10,11,11,12,12,13,13,14,14,15,15,16,16,17,17,18,18,19,19,20,20,21,21,22,22,23,23,24,24,25,25,26,26,27,27,28,28,29,29,30,30,31,31,32,32,33,33,34,34,35,35,36,36,37,37,38,38,39,39,40,40,41,41,42,42,43,43,44,44,45,45,46,46,47,47,48,48,49,49,50,50,51,51,52,52,53,53,54,54,55,55,56,56,57,57,58,58,59,59,60,60],"right_children":[2,4,6,8,10,12,14,16,18,20,22,24,26,28,30,32,34,36,38,40,42,44,46,48,50,52,54,56,58,60,62,64,66,68,70,72,74,76,78,80,82,84,86,88,90,92,94,96,98,100,102,104,106,108,110,112,114,116,118,120,122,-1,-1,-1,-1,-1,-1,-1,-1,-1,-1,-1,-1,-1,-1,-1,-1,-1,-1,-1,-1,-1,-1,-1,-1,-1,-1,-1,-1,-1,-1,-1,-1,-1,-1,-1,-1,-1,-1,-1,-1,-1,-1,-1,-1,-1,-1,-1,-1,-1,-1,-1,-1,-1,-1,-1,-1,-1,-1,-1,-1,-1,-1],"split_conditions":[3.2E1,1.725E1,2.1E1,6E0,1E0,1E1,1.104375E2,1.65625E1,1.9625E1,2.175E1,2.2E1,9E0,2.7E1,1E0,1.43E2,1.56875E1,2E0,1E0,1.55E1,6E0,1.6E1,5E0,5E0,7E0,5.025E1,1.4E1,5.525E1,8.60625E1,6.5E1,1.11E2,1.29E2,1.9E1,7E0,4.09375E1,1.73125E1,8E0,1.3E1,1E0,1.7E1,1.65625E1,8E0,8.5E1,1.066875E2,1.3E1,2.3E1,1.05E2,2.1E1,2.9E1,1E0,3.6E1,7.55E1,1.1E1,3E0,8.4E1,8.05E1,8.3E1,7.675E1,2.9E1,5E0,1.2E2,2E0,-1.2114492E-1,0E0,-1.6152643E-1,-7.509232E-2,1.8473567E-2,-1.6152643E-1,-1.4828315E-1,-8.4267594E-2,-1.262095E-1,-1.0040365E-1,1.3919987E-1,-1.3124514E-1,-1.4552954E-1,1.1295187E-1,-1.6925502E-1,-8.076444E-2,-1.4379118E-1,-1.1452663E-1,-1.6152643E-1,-1.003886E-1,4.163887E-1,-6.730734E-2,-1.286059E-1,-9.561739E-2,-9.883272E-2,1.2712259E0,-1.0149232E-1,2.6397113E-2,-3.8567618E-2,-1.3534681E-1,-7.858257E-2,4.7170743E-1,4.2233046E-2,-2.6893042E-2,-3.0629883E-2,5.405113E-2,1.1450642E0,5.812111E-3,1.4200355E-1,8.729821E-1,-1.4852509E-1,1.3827834E-1,4.577952E-1,-1.0766149E-1,-1.3338993E-1,6.0855615E-1,4.9329117E-1,-2.8148696E-1,7.3268247E-1,2.0742297E0,-1.6152643E-1,-1.3414627E-1,9.085866E-1,-6.057249E-2,-1.2596998E-1,2.6781633E-1,5.75152E-1,4.9281633E-1,1.2922119E0,1.2264073E0,1.3124028E0,-8.076318E-2],"split_indices":[0,6,8,8,10,8,7,7,7,7,6,8,6,10,3,7,8,10,6,8,5,9,9,8,7,8,6,7,5,2,1,12,1,7,7,8,8,10,5,7,8,4,7,8,8,5,8,2,10,4,6,8,9,3,6,7,6,4,9,1,9,0,0,0,0,0,0,0,0,0,0,0,0,0,0,0,0,0,0,0,0,0,0,0,0,0,0,0,0,0,0,0,0,0,0,0,0,0,0,0,0,0,0,0,0,0,0,0,0,0,0,0,0,0,0,0,0,0,0,0,0,0,0],"split_type":[0,0,0,0,0,0,0,0,0,0,0,0,0,0,0,0,0,0,0,0,0,0,0,0,0,0,0,0,0,0,0,0,0,0,0,0,0,0,0,0,0,0,0,0,0,0,0,0,0,0,0,0,0,0,0,0,0,0,0,0,0,0,0,0,0,0,0,0,0,0,0,0,0,0,0,0,0,0,0,0,0,0,0,0,0,0,0,0,0,0,0,0,0,0,0,0,0,0,0,0,0,0,0,0,0,0,0,0,0,0,0,0,0,0,0,0,0,0,0,0,0,0,0],"sum_hessian":[1.58312E5,9.066E4,6.7652E4,3.8523E4,5.2137E4,5.9978E4,7.674E3,1.7884E4,2.0639E4,3.4349E4,1.7788E4,1.4725E4,4.5253E4,6.634E3,1.04E3,8.948E3,8.936E3,1.0088E4,1.0551E4,1.4124E4,2.0225E4,1.0276E4,7.512E3,9.996E3,4.729E3,3.32E2,4.4921E4,3.661E3,2.973E3,1.026E3,1.4E1,7.173E3,1.775E3,5.25E3,3.686E3,5.928E3,4.16E3,6.05E3,4.501E3,9.178E3,4.946E3,5.238E3,1.4987E4,5.986E3,4.29E3,1.42E3,6.092E3,5.75E2,9.421E3,1.07E3,3.659E3,1.37E2,1.95E2,1.0692E4,3.4229E4,9.53E2,2.708E3,2.083E3,8.9E2,9.93E2,3.3E1,1.3E1,1E0,7.169E3,4E0,1.5E1,1.76E3,4.839E3,4.11E2,8.9E2,2.796E3,2.46E3,3.468E3,3.658E3,5.02E2,5.961E3,8.9E1,1.775E3,2.726E3,1.052E3,8.126E3,2.145E3,2.801E3,4.523E3,7.15E2,1.4974E4,1.3E1,5.427E3,5.59E2,3.92E3,3.7E2,1.336E3,8.4E1,4.795E3,1.297E3,4.79E2,9.6E1,9.29E3,1.31E2,8.7E1,9.83E2,1.056E3,2.603E3,4.9E1,8.8E1,1.1E1,1.84E2,1.0677E4,1.5E1,1.1279E4,2.295E4,4.77E2,4.76E2,1.106E3,1.602E3,1.07E2,1.976E3,8.08E2,8.2E1,9.54E2,3.9E1,1.4E1,1.9E1],"tree_param":{"num_deleted":"0","num_feature":"14","num_nodes":"123","size_leaf_vector":"1"}},{"base_weights":[7.87617E-2,-4.6732333E-1,8.1056273E-1,-6.0441905E-1,-3.7672877E-1,8.854766E-1,2.2501628E-1,-7.175212E-1,-5.065157E-1,-4.705427E-1,-1.9249769E-1,6.517045E-1,9.6152824E-1,1.2583502E-1,7.40113E-1,-8.088388E-1,-6.188168E-1,-3.117819E-1,-6.9738865E-1,-3.583945E-1,-5.5109507E-1,-4.442337E-1,-3.1386723E-3,9.0327096E-1,1.1987315E-1,5.285285E-1,9.647166E-1,-5.1097E-2,3.3187625E-1,7.647541E-1,-8E-1,-8.24679E-1,-7.422619E-1,-6.7738754E-1,-5.189661E-1,-1.287146E-1,-5.794753E-1,-7.5560725E-1,-6.0368294E-1,-5.293459E-1,-4.0808614E-2,-6.400073E-1,-5.1988965E-1,-5.378977E-1,-4.2752173E-2,-1.7842591E-1,1.3653451E-1,1.5625E-2,9.5744E-1,7.7124184E-1,-7.0765026E-2,-3.6231883E-2,9.2346936E-1,9.133078E-1,9.807479E-1,-5.733753E-1,1.4735165E-1,1.3387716E-1,7.9461277E-1,7.9324895E-1,-1.9444445E-1,1.5E-2,-8.947368E-1,-2.4754496E-2,-0E0,1.875E-3,-2.2486487E-2,-2.1794677E-2,-1.5133452E-2,-2.0113636E-2,-1.4378172E-2,-7.248503E-3,9.582623E-4,-2.002048E-2,1.7834394E-3,-2.2855217E-2,-9.655173E-3,-2.070118E-2,-1.6323132E-2,-2.3675548E-2,-1.4715988E-2,1.8945993E-3,-3.6124082E-3,